W1:
-0.09986735806275042 0.05779988905456249 0.09584111686380578 0.08878832572611486 0.002301778651919162 0.05967992322085228 0.008935249779822657 0.05303099168811559 0.038113425800646 -0.02999956374917305 0.058476536598458806 0.009543236638067887 0.042801593677152666 -0.05804637594403339 0.04027796003462775 0.0623326916844911 -0.05986310687364241 -0.002329337817264812 -0.01893276481386988 -0.06125558663601774 -0.010810636685312652 -0.026030707340110662 -0.02460880228739526 -0.018893988201137343 0.047174293800572364 -0.03803267169900078 0.013032771420068895 0.016329537769672414 0.045007349597645935 0.06324993856548708 -0.06343487024921102 0.028251445368034533 0.0006616630343178748 -0.05995478102503387 0.007023829488309902 -0.03857100484592031 0.08693270625846392 -0.06627082440653839 -0.06817952428786098 -0.023628170379800584 0.04926589601000164 0.04589807001938577 0.015290565624604083 0.0272513086497588 -0.04282543438213818 0.0644950975975986 0.04124484190069202 0.07814167080570208 -0.06993234812307372 -0.040237919642914344 0.09312556647994313 0.05022889254757998 -0.043750115179748056 0.08452400317494435 -0.01573416910045837 -0.09479657739788827 -0.03338130356720573 0.021619898355078854 -0.06969022588385371 -0.05838965111606436 -0.040084509407573535 0.04450666263752784 0.013160301631335594 0.05688651252740193 0.05904041090301782 0.030639830573395695 0.07811225452461755 0.008854807572623167 0.014160456557336444 0.021572040048615532 -0.00039196738944742294 -0.07308185504675008 -0.09263391227543158 0.07752114075471044 -0.003999678492871551 -0.0298871789049587 0.02920404343473856 -0.09850520067655322 0.0649604137397892 -0.08048642885441784 -0.07062031152525083 -0.005327521219177345 -0.049729128198124674 0.06007960833346268 0.034490844554952715 0.07862154911228356 -0.06588092308532625 -0.002907609320854168 0.028596539522925568 -0.06757473436536293 0.028825421199234758 -0.06489649397371024 0.0698749398850101 0.05199851144305336 0.07718408599184874 -0.08433015141326357 -0.015928163128751446 -0.04014632789864923 0.07659833667183165 0.0410249796276794 0.02908673415167369 -0.08848032859086324 -0.03863767737874916 0.035928459238168745 -0.06300672412211386 -0.07552576925383876 0.010430352123805062 0.0009928583652449106 0.02088490664752184 -0.03857377604795731 -0.081097011598315 -0.0812401467922544 0.06742112724297453 0.08651451501698748 -0.09243305834303105 0.08510645096357852 -0.08413732605624452 -0.015542360845553022 0.09623991801524777 -0.09522310754769783 0.00750846055767518 0.0037197124684283695 0.09893696614077702 -0.03615628232002624 -0.0996493387918362 0.08347049378113085 -0.05505750110464009 0.06526341394171223 -0.06437611976757952 -0.0846255576583032 0.0690999021112626 -0.05981060258286401 0.10454897108560116 0.016521021348435472 -0.014673193140468098 -0.09773176929037095 -0.05419593083428281 -0.05574626946873411 -0.0859387344805575 0.03457961291218223 -0.02310601942090955 0.08220533361337676 0.09810486785072453 -0.07689239876188321 0.02487909353316293 0.01584821557750943 0.06872302794429613 0.04536053384753196 -0.021132778087873973 0.0658841411690128 -0.029282315005254494 -0.07862570264124687 -0.017245818616295875 0.04244795025475029 0.007435175555544246 -0.12678412951149884 -0.08115474968182616 -0.005635047430806984 -0.1126450103581122 -0.07100982756857693 0.038672521900710265 0.06691420016955021 -0.021053661381912933 -0.09806330836280543 0.02872651238871623 0.05674523532765654 -0.03315462215539602 0.0942572749679002 -0.033847486022953774 0.03620133833469669 -0.09490016785013076 -0.024932207398964436 -0.0327211804229214 0.0047915811465943274 0.05625618558524531 0.04140213713145962 -0.056893121778996164 -0.06355831495675685 -0.06179585533646661 -0.0768815578505459 -0.0688334459997366 -0.00589939354974137 -0.12721279148177544 0.06808837030637356 -0.042469044974588636 0.03515900914794885 -0.0491178288978762 -0.015468698871917035 -0.004050017211608688 0.0024226964675636508 0.01734155035529641 -0.07832070058877061 -0.06715142563337831 -0.0821042568270359 -0.06512469886666217 0.008870752575694536 0.01564971214363939 -0.0644560032067917 0.04703231212204094 -0.04886572516023171 -0.08164262711541617 0.0807750414713142 -0.10149893785592531 0.014160019433910384 0.010503606443671713 0.02038150311733339 -0.019582993975548066 0.05235895367150049 0.0008171313181375984 -0.047864112532635276 0.035855616816079336 0.018951937603249917 0.02921579870293147 -0.012121935137914827 0.016619626898584313 0.06437290912826331 -0.008216264562162685 -0.04912822460987165 0.04989598119742524 -0.07727488559529237 -0.10913339070960378 -0.12254624079132326 0.04352481556486752 0.08152612484310783 -0.015035594308313973 -0.0013690088285145858 0.021873652539097826 -0.09563546977534662 -0.08769333932357817 0.05333201729636744 0.013927011275350681 0.09174988473903907 -0.07691342133645591 -0.07438246026172728 -0.0010290222219871822 0.005209033677300593 0.09086368802099852 0.06973574992292579 0.05983253853685801 0.0247562971424094 -0.011436937661173 0.06305377413804834 0.07213464550213561 -0.02815804483040542 -0.021356844503638825 0.05486037559410656 -0.03578414611182746 -0.018439576883359475 -0.10982507911228602 -0.08687648181536346 -0.010232224761368447 -0.0960266493059508 0.08513898417243361 0.03015604493776569 -0.03807312273513264 0.05182630589565074 -0.0722592345842803 0.09213333705312594 0.07873195072218868 0.010449767417464567 -0.03314746689701688 0.10035534825250345 -0.018147111522921203 -0.05721770680648191 0.04350910188812386 -0.009338519529428388 -0.00264125317409777 0.08812884757767392 0.10411566056195012 -0.045219210440957086 0.011586198506144386 -0.0224555179267909 0.02320230343746769 -0.0241361660107569 0.01867976266004208 -0.12130978583116818 -0.0016970318984365278 0.057490772682341276 0.04917558091020655 0.09542009095396257 -0.017779750447579436 0.06948527056168816 -0.04257560154918393 -0.02748778290322949 -0.003160284764938557 0.0576451019958119 0.08886540586374085 0.02340780178252033 0.00040807786946188423 0.03014541059362424 0.035857038164305605 0.013052126682811431 0.1187137191883809 0.011424025332634752 0.029434151086089218 0.08523879016116977 -0.02679677713264577 0.0995809919710759 0.029916539652636936 0.06849446899343466 0.012010607061740848 -0.04751383422384582 0.002664869787125288 0.08347817531778391 -0.003359312317307366 -0.005890175159477861 -0.03933548300781545 0.03492563930633627 0.040562803600473624 -0.054148246107051295 0.05688404094148859 0.029738703811608112 0.04702327443237896 0.07471112839935827 -0.03375010812653426 0.08152204183002255 -0.08287650351764493 0.028328033926409923 0.026198990056032524 0.005742731979820582 -0.012313468036680084 -0.05762059055850873 -0.003365120490449453 0.07274281665848178 0.09083863005387624 0.05116750732567778 -0.042230407885947806 0.07117253807097064 0.0149254724891735 0.025986327347285617 0.03031318588595449 -0.06944321592867062 -0.008263470355379067 -0.10476569017528926 0.06294799014044129 0.08425942380364643 0.054093854557452276 0.0011694269824981812 -0.03184856236741967 0.02841792739709208 0.04341036588137262 -0.07959538653505364 -0.027005183801883794 0.004655977084476789 -0.015811225724103862 0.01004606444051161 -0.08057622046440462 -0.005490411968938399 -0.06362311574126706 -0.01571569847255063 -0.09690723232958998 0.06701119095820207 -0.051487847121048314 0.07979218346628289 0.030431609769967886 -0.0362804462523248 0.02870606214407793 0.11615527558571936 0.06236880950975177 -0.019220973534718567 -0.08161185745733344 -0.09028853225631939 0.038777231302083805 -0.08949818434602158 0.05058538007234789 0.057104934541578806 0.0813203701536612 -0.03322903703800727 0.08082626961691995 -0.04735539147789994 0.057370936558564185 -0.10486967269910558 -0.03222918961430294 -0.04377054860467144 0.04496738060319219 -0.020158701503515217 -0.10585652629613677 -0.08434850045803648 0.05801125945283617 0.08084508943555084 0.06689461492205238 -0.0051698698692655845 -0.0745935661038017 0.06344764998906234 0.02618695532385525 0.029849946424943565 -0.01636603752805311 0.00887989880533053 -0.02356146569227869 0.031302227698105686 -0.045999883739324614 -0.021968974252775227 0.05447025822710658 0.08379121343921939 0.006122355044756049 -0.038000862614995044 -0.06801844681458487 -0.0025175606754053352 0.033440403085872386 -0.0063220433866171925 -0.03112364994048243 -0.026363606878781996 -0.07728132247479723 -0.058607108989786154 -0.15896635813203752 -0.005185456220036484 -0.06963726676038855 0.10801603766374984 -0.06440629127579796 -0.06193445295787314 -0.013527445402161109 -0.05247582909624027 0.03803287774620355 0.042388317067123836 -0.09386508318277384 -0.03081628848381446 -0.04671709423569437 0.04335289093270745 0.10380640255598499 -0.06878730813743483 -0.040735037348953895 0.07499706636372042 0.059936417438693074 -0.021917928937228107 0.010550414034206727 -0.0013206922635902712 -0.06064707278531315 -0.03129642948824791 0.05447167456263826 0.06660069037377354 -0.07660361422368525 0.026997305133178134 -0.13897593426227312 -0.052617369887529866 -0.039207669643701086 0.14003047588690662 -0.06070337106700205 0.04349889091312733 0.1286042638294298 -0.03634366217749407 -0.032351623073553236 -0.048522426380983544 -0.06909811372957832 0.03296774554336904 -0.06459963589165166 -0.01053565885292749 0.039529825230486954 0.08536087837007156 -0.018555420654783508 -0.012281989854011563 0.08754519451916186 0.038562952216879554 0.06807847992466562 0.0865222678749033 0.0758121454702122 0.03240872553654915 0.01597403266551047 -0.05949494383838941 0.00022577473895013387 -0.05842317499837356 -0.06489447944992044 0.008279588162443473 -0.057842592476246714 0.005025298428701567 0.04862375868787263 0.03406383730196416 0.1037679594597754 -0.04728087427882333 -0.01350905531490643 -0.11051084832094839 -0.045069899926629076 -0.016700615871917006 0.05183313718186588 0.025642733020264874 -0.042022834416549755 0.0776598340296425 0.009346713705792958 -0.024715384042493446 -0.08340040985000055 0.07753069409122908 0.0693207084468429 0.07033000823503002 -0.042410803026718416 0.06329776290440273 -0.05719101207871134 0.0717638305138167 -0.10145876401375076 0.02461570627136844 -0.025979952717434057 0.063755375024697 -0.056533501303311216 0.09348941568150451 -0.03658252073531964 0.0025331797143875712 -0.07035468623456259 0.003741355615029208 -0.0508983382370977 -0.10561262786867709 0.04636244557625764 -0.08636834372886348 0.07136655855757913 -0.09262900143519683 0.0542626016595006 0.04629299207037975 0.011457049386608261 0.09987372388130672 -0.02341866077104962 -0.07691928438276488 0.0004679050074608486 -0.07014999142026326 -0.025537974137523945 -0.11951457739763438 -0.06173672822770863 -0.10173737979697568 -0.10368811205674157 -0.024178380501881952 -0.08146068426084908 0.03035591128920321 -0.06756397752591235 0.007789952013996555 -0.02679115838879243 0.013248462449012939 0.04292289657036121 -0.027695317979983917 -0.02873180937075238 -0.06327222879571436 -0.10555573495270441 -0.04020263015253131 -0.04779328238205006 0.05625622700860199 0.042475103758504364 -0.020941420569114248 0.017688134075171877 0.06304232644417346 -0.06452487413432917 0.017366026308821586 0.027335135905418313 0.01756241718580321 0.07236135508537601 -0.023817816150091067 0.05322384170591844 0.012237793059693948 -0.08951281588914838 0.07337139609718872 -0.08320122256755752 -0.03867803006990785 0.06533072478333664 -0.0319430031685064 -0.0765838138997077 0.06830201612232037 -0.027291902553001963 0.04158368425508221 -0.021695307008950705 -0.09741551721484587 0.027673777300026035 -0.0982572846178393 -0.003981919596570025 0.057208527915542685 -0.017026106919706997 -0.08968206708615159 0.02659089807913389 -0.08107497876750454 0.06013452243980941 0.02245136785761026 0.0400890099407197 0.04934795224487741 -0.015571116140145507 0.007634804931508777 -0.032714911999480546 -0.15241191214029953 -0.03391653831491651 0.00650256847159448 0.017311688566623577 0.015692374043573376 0.03764693175013852 0.08840394725321286 -0.08155902606526583 0.0037320124009254593 0.024716208668134506 -0.09868185217904851 -0.10196937644875757 0.05266350449929067 -0.036556465359304686 0.04548110439396151 -0.05235869828149955 0.06282834017582692 0.0653838167084071 -0.015677625389049595 0.07076117174417586 -0.036184873238330514 0.0395089257501377 -0.02159019938385623 0.04624693523587033 -0.002397223958582512 -0.015114537837628837 -0.10513091275905216 -0.09370894551011504 -0.06323254024211718 -0.057880980188114044 -0.07976306159534705 0.030339632226814617 0.02451285259236808 -0.08694941520480662 -0.0028581610015165925 -0.011783338854047644 -0.007649285504651822 -0.06717494545853156 0.05213509798650085 -0.0020451901001667452 0.029946213021650323 -0.07239031147000244 0.07448856345350058 -0.004981407221140744 0.0718396033030326 0.05012296525987073 -0.051969123903385775 0.06836959721872202 0.047625052138393575 -0.0028407207539972584 0.09033723229723606 0.08446434148567768 -0.10529975079482333 0.013400907970508169 -0.1086939901301533 -0.12424374491381814 0.0479748427823803 -0.03627244481251141 -0.018003208297148108 -0.008640943165842522 0.004652701825828722 0.03008927933129047 -0.04602498770491177 0.018733656418426083 0.06522224052637769 -0.02561922913687429 -0.03957291503394496 0.05278704133036767 -0.05927240041383887 0.02214783584725496 0.03954374192506057 -0.023925968060670707 0.06316120872302489 -0.06506428786394552 -0.09279818375659712 0.031098844718627727 -0.021415517249915667 0.05581021986982662 -0.0667635454173027 0.021307316840019904 0.03491449058170757 -0.028893184474539767 0.02333770772334739 0.06698903943005602 0.024139966848332313 0.022857793914776787 -0.06041036145175615 -0.02436500050081578 0.0007394241293325738 -0.04564841453552219 -0.020659781360091226 -0.08172953957432715 -0.0547088572539516 -0.012652969129980492 0.04158866420571315 0.05438267611238783 -0.06773361915433275 -0.061095841951079866 0.009956038108392207 0.075249495530316 0.04129670093769186 0.032091313679896406 -0.008667718925690047 -0.09171605307775353 -0.0015960093516591278 0.030805769052753174 0.08288984309382161 0.0945373584317577 -0.03243774827031738 -0.07041127887117622 -0.0212956501744321 0.05135956100092097 -0.006915776068977078 -0.011077992359472719 0.029141575640199563 -0.0018844820075940342 0.03488607586107592 0.027232421251268138 -0.03856708304231618 0.034368225109565394 -0.043051607965752844 -0.020435772545591775 -0.006636571017257857 0.07331172834220255 -0.08228277138449532 0.07763103965018979 0.08262218706791513 -0.03451527310099818 0.09603081757973925 -0.09580869467722528 0.05208670338831367 -0.01743755834202669 -0.08821840970303452 0.040045808242058945 -0.06764445742170107 -0.01320361188677182 0.049199138766272854 0.050189824312679834 -0.08970984138980923 -0.01139290816231688 0.035368987183581745 0.08628316347639192 0.011043180537496197 -0.029901537853656752 0.12125833589172837 0.07429107645758407 0.13204443714804098 0.019360339892839147 0.06544326185885214 0.08255769077807117 0.05306177108123496 -0.06376151132256701 0.03544182502506021 0.03687346881415526 -0.021906165899863505 0.03691807011292579 -0.056569736867090215 -0.09702541631220946 0.021333046253965884 -0.09229991485540515 -0.053143233682177285 -0.08399189884493304 0.012091074351099462 0.03831285925257608 -0.07532531185782523 -0.01715239384971006 0.021674761501631844 0.006710786622361339 0.011178021575851557 0.007314287838831667 -0.06850920128535708 0.045789360772195156 0.04014215941317247 0.0010540477017090153 -0.008022142089119342 -0.05936805407384177 0.10921888372722512 -0.00015553953936298708 0.01577770587389629 -0.010894434127849994 -0.08147333971989584 -0.06760186976204385 0.07166491297231091 -0.009811967694183393 0.06093810874716915 0.08524029701557817 0.013514338763295303 0.07717661344661816 0.01615977338936439 -0.07011210305060188 -0.0425895979127025 -0.05520105195902652 0.019564756259877233 -0.02945833767096197 -0.017962335143146324 0.05418406792224233 0.06296479284763659 0.04015192888314092 -0.09489575690773562 0.008835709270226989 0.03730612958276712 0.009805944562008747 -0.03190804953410852 -0.05911294610876953 -0.06513764463714272 0.06298852672267939 -0.03816012536602058 -0.027520001371504153 0.035558736348624664 -0.000812180946540239 0.0015917221801360828 -0.0009168571491864064 0.024457257906255372 0.07657209191900868 -0.049495401408078316 -0.019683235308178032 
-0.08597480566643424 0.0599722284535317 0.05526118581961667 0.05179021352181848 0.08201499735580195 0.04040016783009981 -0.08844349802651773 -0.025904036225891172 0.09420992266158343 0.051599427884591154 -0.09895685009346017 0.042390056500172135 0.010723749383856382 -0.0344496604030476 0.0910860960527714 0.07579436717370733 0.08097735178192253 -0.05547276286121412 0.02994075041078592 -0.011271726140673219 0.048544774304418004 0.01224534017575607 0.043031803291971205 0.07870314229552441 -0.08357263047295015 0.06122384062461639 0.08044839551244251 -0.09721515347616504 0.0042423437924088425 0.0910619948572847 0.09982157989405635 0.0020370607619323577 0.013717722572310562 0.09358449472095018 -0.0878545642577312 -0.04380301573901373 0.08426916551256435 -0.09453474093445607 0.012821185210627209 0.09858402973618244 -0.0004934607226330827 -0.09216453057542495 -0.05181473965668036 -0.017962624413092838 -0.0573588812527729 -0.049855227310306366 0.053602240275033894 0.017708121998240883 -0.08306515693985458 -0.07450779761098732 -0.02910728252471488 0.039352356692308105 -0.08195438201084063 -0.047335609031204866 0.05149119831281557 0.07258400778867286 0.09940603678319584 0.07747576248372909 0.048058714335478064 0.0968387952927807 -0.06738958149811858 0.026720905333357192 0.037596205210515765 0.028171051647089662 0.0453332926369078 0.013573558356319683 -0.023296758619947924 0.06356119444290267 0.09529107251230644 0.06540169458994546 0.024647651981739408 -0.09764297952992837 -0.052252261558722556 -0.10307759875584932 -0.09542755647051994 -0.09198895565473107 -0.09650683944208865 -0.05451923407255147 0.014930826259981995 -0.02414655284671635 0.09339091319947974 0.00981067745383771 -0.09201130959242812 -0.0990533849962164 0.07218401783837688 0.052481821880475926 0.06516779999729144 0.06492142402739728 0.06180745413894248 0.009581805245249765 0.08184536949583118 -0.03151542772468148 0.011777569197392805 -0.07308105793633374 -0.04110087719375025 -0.0676861461946945 -0.04618231794094238 -0.05083070711167249 -0.11022452936920554 -0.04479104045752042 -0.010022102127212594 0.05310431728560147 -0.02180480281245842 -0.14721484010557506 -0.03256086649843256 -0.08902385508718745 0.016206854319275557 0.07507757284205664 -0.09124331123784633 0.033454136012968906 0.01261612232148461 -0.02701520703484843 0.012444742261676162 -0.09423444333567249 -0.09698772903397085 0.09570437984919572 -0.06368326569944091 -0.004711839615414563 -0.03912064366675895 0.03992720220083728 0.078792425018558 -0.045435210296607145 -0.06384548038362324 0.08970584635019856 0.009187947597285195 -0.03268087106562052 -0.0021466832579348028 0.07309734620765106 0.023426276900902702 0.00028542379052099196 0.04729812670944625 -0.05905904798488333 0.04599401761183979 0.0135541052727171 0.010487854946939568 -0.10163012814066597 -0.03417706856285992 0.039500372440172266 0.019202559121990176 0.03241917085350405 0.06300815261109993 -0.05194045254912563 -0.016088704112589086 -0.055065122840250696 -0.05344171364096124 -0.10463699828555671 -0.012830509232549766 0.07704002956587334 -0.026926352239342474 -0.0711816892488832 -0.024190875146359016 -0.028212145268492944 -0.04391914817412967 -0.008583183124474956 -0.0031783539923715886 -0.04696251421564272 -0.0644595792775586 0.045680099993870446 -0.08612125075635806 -0.08008510967327422 -0.036454748812754637 0.1482756988081365 0.015490544501096859 0.005872343460380567 0.06142468372367098 -0.07359318743009279 0.07237185357580111 0.083996248311679 0.01664174329124446 0.06354500820829379 -0.009059571792449955 -0.07437205702011836 0.009444107313412178 -0.09919280713053959 -0.013181195636920873 -0.05786575625146268 0.0077410592589590025 -0.011956870409624318 0.0076553968318422766 -0.04177723105863898 0.05330294422815548 -0.07285877236765101 -0.035277048124396956 0.03289974925663717 -0.1165733360088904 -0.055137065694697895 -0.011735336476558306 -0.0818912670303587 0.0023305149865546675 -0.0776536370633179 0.038100412744548895 -0.014188408853144763 0.04322832040772275 -0.054781429012801065 0.08591665473383893 -0.08544268326145402 -0.09902708053562334 0.07834535275515148 -0.06817932403501104 -0.0894146728326661 -0.004338582148529716 -0.0908902003133893 -0.06545367825765123 0.04169880402642762 0.10258931234028361 -0.06760209947803913 0.05305785191353117 -0.0007850860939355835 0.03470123022575723 0.016656625398260082 -0.0036911411949625533 -0.05081351129501008 0.03505643120070246 -0.0853158947364931 0.09916345340750651 0.011943137273335585 -0.010369240357387342 -0.030343669422985678 0.030758942353532815 -0.00857115298713324 -0.017376789328213085 0.07410154290947028 -0.05975005631216535 0.026563196896970655 -0.026807784806754945 -0.050003504082575014 0.0838372860888579 0.0709299567054531 -0.06949440276656128 0.03134090092115468 -0.009068811980677589 0.07104342508666511 -0.04120397036901498 0.05384373977460617 0.06071291793653895 0.05067085259500523 0.13415753291795707 -0.024203674594954008 -0.03512921180252305 0.011756579624111821 0.0540197539319275 -0.056256295442379124 0.06286985541532794 0.011758919958969357 -0.003051936274983107 -0.04609386012754204 0.05175331485247461 0.10171737167818717 0.07311211149383477 -0.01825143287028285 -0.07494517276678024 -0.016023954518245467 0.010729919548127024 -0.06513093208500116 -0.0801878631580487 0.02051986957051392 0.09961843652391486 0.04290944394504216 -0.05994097815716937 0.020887225752373676 -0.024646355683639102 -0.00381500598838141 0.03889126738616285 0.021409114425265264 -0.07407599277898047 -0.06044255153163256 0.01574002014944627 -0.07914700599213167 0.08580438696510664 -0.04609587355870346 0.07703399923827396 -0.04699188050257645 0.09667215122347565 0.03267290832632816 0.06751946724503498 -0.0854896910986016 0.08887267739017582 0.009565806438445136 -0.03320627593916818 0.009342248540506453 -0.08499289497445925 0.02026874753237698 0.06154369197264952 0.05500810676245199 0.08410651005044198 0.06956853462715282 0.06054895614874666 -0.016728969857955238 -0.041104420671876675 0.08303531074791788 -0.1071378018327901 -0.06034166999752095 0.07190259628626125 -0.04259791561524478 -0.007901695462052157 -0.07083001244252116 0.10928503842829507 0.07396988187089189 0.006921188402872571 -0.010725416680181796 0.11638710861676729 -0.05468821368063501 -0.015198688575491951 -0.026258260945257246 -0.07526475485994673 0.055378102805455943 -0.05808346727617037 -0.06119027455226131 -0.016582152720843745 -0.027565845571787498 -0.0137965973675874 -0.08752680569599869 -0.09184969487473221 0.04031146034884553 -0.030862999910527083 0.011426276284325932 -0.06930980369220595 -0.0027942499756339924 0.0857818106010706 -0.037956679038828545 0.09030971794600802 -0.03147702527305003 0.06184954709534594 0.10327898476913504 -0.013527352332814746 0.016257270077248077 0.0636634085398264 -0.030477744000439767 -0.03112686219636222 -0.10167027852233111 0.07374927232052908 0.09048347410434324 -0.007969106973384894 0.09130941879256499 0.003772230780805632 -0.08531948992601712 -0.032214619138377705 0.03232182228703165 0.0679775619989437 -0.06994749656292312 -0.07957321061589949 -0.006666243053357574 -0.006102413589077455 -0.028517725499809587 0.03838589408776506 0.05961856194555064 0.01042781430278183 0.052037242883434885 -0.03431881971075142 0.028014307196641785 0.023619336066036792 -0.026358367482729482 0.014451702019377946 -0.017622144137639944 0.07462791196177528 0.0335944309563155 0.009905948068443261 -0.04084255030009045 -0.045975983706211 0.0030700319687469503 0.037573061901613684 0.06623841823737238 -0.006321133286755598 -0.045969239024810093 0.017248021923608033 -0.05889183854955689 0.08614237223189213 0.09127936483648764 -0.08153288301739994 -0.0103062057533509 -0.046165485716073526 -0.002745841870242391 0.010244258821176052 -0.03441224767911669 0.0480047594431587 -0.057367609703132816 0.13338087765388829 -0.06529270714114263 0.03515324045437419 -0.11062742195850021 0.011924634718885416 -0.10838606980044624 -0.01969879004774329 0.04491249086739321 -0.11430251470771421 -0.10473342536005446 0.006756339901879256 -0.02243081923934006 -0.022009575678977385 0.08210588803364828 0.001771555562154274 0.002268363625287336 0.09769697393222615 0.007578872449034962 0.09667980843616703 -0.0760903538710222 -0.019227641471723206 -0.050797550737878415 0.07939063394712897 0.09823029063523098 0.03694004775485538 0.02585110064675086 0.04503589762570515 0.02282989538556638 -0.004656967192941412 0.03532748394256107 -0.019816891566453353 -0.09859922546324539 0.008446800987955574 0.07569198702595334 0.06601954089855266 -0.045980218131972325 0.09748547283744768 0.026514858084270298 0.09314138928007872 -0.07719869889244486 0.06161786474905425 -0.08610672799098537 -0.04804912852711203 -0.07201005907688113 -0.0977150924109739 0.050534613872921824 -0.028141866623650317 0.03328729984287131 0.10157464915528827 -0.06379656808401339 0.019213916204162556 0.08361737946672101 -0.06905164581596276 0.09054402100150974 -0.03151490049190453 0.07528903736798151 -0.11014955748401706 0.04039488301396447 -0.09455414047541454 0.008007737732201491 0.009005267530489828 0.037775175908813824 0.021872658088650354 0.04675550817715543 0.008009793682558244 0.07910992821815788 -0.060616939322431895 -0.013095277721964104 0.07167380936187845 -0.09104377292437027 -0.1080318677191158 0.07944943087823136 0.04811213772124801 0.09232413927052782 0.03543123970386074 0.07555867240200896 0.06976739565159834 0.00121929441910877 -0.0780474361442682 -0.03343535083358048 0.025937785115307154 0.087487429724504 -0.05042365235163301 -0.03824558646274391 -0.013966730331470951 -0.05565669278933078 -0.04419375751106075 -0.05983283331712463 0.04861829084880117 -0.042127136435255876 -0.010982315184873593 0.0755344687915472 0.014467207170437887 0.08352057111484755 0.028485561850730347 -0.06869994669913827 0.034480270614692485 0.07178667715365715 -0.07880898656357477 0.05814225033348423 -0.026383521811568573 -0.0944847590021994 0.06124466984376347 0.046712335192944564 -0.07288041488128578 -0.07864016165530123 -0.02429087480777591 0.114804104069923 -0.041628420008449143 -0.06007639027667698 -0.11230707483847376 -0.04007044938631554 -0.06733659061866433 -0.10620907492242386 -0.0212677206345241 0.0705837824855392 -0.04846052963590686 -0.034555737003642464 -0.038381068978331434 0.09663135327661566 -0.03935276767140759 -0.027303383921838544 -0.003531461072547799 -0.037059752875829195 -0.08678294126751103 0.0006598698165129245 -0.003885039129941791 -0.05492592665701616 0.009092365463120259 -0.05268511292372229 0.09069239100636318 -0.0787939418989044 -0.032015883129267404 0.05734875378746013 0.09490395349673275 0.0896808847230873 0.02193360829228888 -0.06733710745341896 0.03206504665397394 -0.1546237630976895 -0.03216554260403003 0.03640491940781023 -0.08211339615629237 -0.05301617665461356 0.07595169198166363 -0.021050129587983135 0.08322791207834405 0.03358864253504645 -0.06979656731626703 0.07692218076010572 0.006756610584045184 0.06730777986135926 -0.08067303353843008 -0.03552779096993028 0.07838036607746661 -0.09692621787016262 0.016137205934950574 -0.02955148877656269 -0.09733105335761855 0.050460894429939264 -0.06451391114667544 -0.037716217580238826 0.08649559404965333 -0.03590612391969879 0.07588786924543796 -0.015926192298088563 0.010467016382202907 -0.06869013093180773 0.04257262263731571 -0.04365093537615544 -0.0466952275319914 -0.04841280117316371 -0.06939534838289448 0.00447443259033133 0.0040043882555258195 -0.0674465402850447 -0.059927425112575664 -0.07597689457442201 -0.004771556615547977 0.06741140575154654 -0.060835879552166135 0.030193120734237505 0.013660324421329232 -0.052503361101680975 -0.07188104865394 0.02446447174627253 0.04060610329724483 -0.021867526229285977 -0.07354950551150242 -0.025591351789735192 -0.016481000907501656 0.020172001847271803 -0.01493312776817 -0.04469209212523122 0.05706198228299612 -0.07265938230985038 -0.10887138441602785 0.038574322155762515 -0.03348433163845638 0.06391091736835283 0.019926916975197415 0.021249046797765802 -0.008493927819059721 -0.032564404483421315 -0.07298815577634432 0.00210802732262069 0.0399409929647808 0.049074583486250385 -0.08740837152615517 -0.10308829183360936 0.05625103417670752 0.033028179513929126 -0.04579296071116395 -0.09876587906774466 0.0757712452546214 0.07056335902076619 -0.0519746614564336 -0.04949103864625148 -0.016017251717339514 0.0861092155670906 0.04831058977441448 -0.05276389393353398 0.07510231418526751 -0.03494817346460122 0.08496602791814785 0.023258364653694272 0.06123984402958996 -0.014281756790457643 0.01713321305410902 -0.044242275270093334 0.007260042259470397 -0.0007318710447619966 0.06616026669226542 -0.025696592809723723 0.017017728807458273 0.09166449518454987 0.0415957584767088 -0.06037001904082102 0.014004835758963998 -0.02208703000747149 0.04965514938596832 -0.08752178893444906 -0.08754008463715468 -0.054572497037462454 -0.037734373451710275 0.10479076606659536 -0.0731870508850155 -0.0038247455290915293 0.04823411050821715 -0.04640695658829097 0.048381510768474106 -0.03446848882276748 0.1095887813795758 0.012354932257186781 -0.031851343340162465 0.06810891918247756 0.09968356550162102 0.025113214972290278 -0.024625101534914654 -0.08284174523386502 -0.024703858017961305 -0.10330448667830687 -0.07260985527788084 0.01727212660312861 -0.0693543409404257 0.01969173772597616 0.07713689279793776 0.08453725065460263 0.06423596389519612 0.09209768832745091 0.0026880730979930573 -0.07154483223475745 -0.09014888246561577 0.02995522088306784 -0.03703183440810167 -0.022564331225960355 0.056288781347885286 -0.002070444665264902 0.02266351175865933 0.09653822854184305 -0.047545460503641696 0.05862342018297293 0.06134351174878092 -0.014433267791874756 0.019970925251884365 -0.009120317045424263 0.044866150907490215 0.0022871325380954778 0.06565314862592347 0.02958739792529747 0.04053164564221896 -0.11647516399156893 0.0793247057468634 0.03694585782977655 -0.06469598259216523 0.020655794870847777 0.0949629886522727 0.0631696654960957 0.05109269962463764 -0.053737857476739585 0.042845199411522414 0.06431643861194515 -0.003685457843965468 0.1314300751318554 0.0920898091497641 0.007962645857191105 0.11840636337220559 -0.06513503904924754 -0.002334925360664774 0.062018144747361885 -0.05728162317071884 -0.0015649011796259598 0.045393373345858495 -0.0020315105002999736 -0.07492130147482855 -0.07025655540256594 0.03309479301218021 -0.09837224626125951 -0.033338163789638366 0.0031057471759112546 -0.09301233622474997 0.06656042583502875 -0.09510029285195488 -0.03673954145403249 -0.07860068445832534 -0.036106183116334026 0.031270881521792054 -0.02132140831743938 -0.028545347308591956 0.09187968454405042 -0.08539744778309317 -0.043483159645694165 0.11482055043509869 -0.04746070289576218 0.03139026438199976 -0.03738289863957422 0.061494543105349166 0.04627457307330802 -0.06507821705892368 -0.044270841062423634 0.05794235604258377 -0.10217947618181461 0.07938029082379708 0.05217250610986442 0.0483146258335662 -0.03385450289886729 -0.04529639803266118 0.03533669228971929 0.04150888360695519 0.04595178696316981 0.004070610296538518 -0.0994372332155894 -0.0004171679012321128 0.05196108874436328 -0.004668177679763866 -0.06015726851344583 -0.06346511700912591 -0.045727839419297346 0.09133493497164785 -0.0761016410154997 -0.01680345329143907 -0.012115056164086048 0.05103216432176414 -0.052135439518251996 -0.03326599787936736 -0.07310361786611495 -0.014095355092183657 0.08572104851893692 -0.07769217413426455 0.009929099394359266 -0.08652441986899771 -0.038895824775454245 0.0426221961493072 0.08348524665241121 -0.07903373696537323 -0.02373543648367558 -0.04209656167124045 0.059944288801396045 -0.03716868068372074 -0.036986477052762506 -0.05194253933540352 0.04459799911438572 0.0422958727010701 -0.014100712720369418 0.08709332054123683 -0.054906740569315306 0.082834941311197 0.01367414772038557 -0.05163918363537797 0.07111208893685911 0.04189085999690109 -0.021971666184512142 0.06679851340670026 0.06211601235515229 -0.07783241181698006 0.0007321998256047839 0.02352915120714992 -0.08658795715765284 -0.07865145202409339 0.09383540926524081 -0.04290824844819362 -0.024072197255571148 -0.004981956861356931 0.026914558224283264 -0.05115270342025072 -0.04341051054342533 0.09002733969386717 0.013219423675290609 0.034502590215963136 
0.00896267275914661 -0.0459546593042006 -0.052089061791575735 -0.09705201456715129 -0.039427811861534705 -0.0343494335285206 0.09712946183082269 -0.08375625113067704 -0.044601642883265846 -0.00422810750636704 0.07788734057233593 -0.056382162328638866 0.09166823942112928 -0.038831125759573704 0.06121143740285448 -0.08225612752355518 0.041797590224865816 -0.057132465171595204 0.09565123017247631 0.07905402926759789 -0.05519004149475298 -0.01732123593172316 -0.07758353635214905 0.07966465114421065 0.06878426983253239 0.08192933833760283 0.03425747238423643 0.0024133622783970854 0.036856648114166224 -0.01020820942654413 -0.031421790501164185 0.08942400798052452 0.03315268939615626 -0.0816164764043309 -0.002446205457793102 -0.014149826802851012 0.01605997903579652 -0.06261003036157915 0.03640414122607129 0.09973732163910462 -0.04801876008319703 -0.016936713558687602 -0.035449097541184714 -0.025884282506327235 -0.09541668478432766 0.07236707324276527 0.0587928377137811 -0.006164605819235554 0.0480105657112145 0.03749521967241905 0.0004537300451714834 -0.09101979484972875 0.009035099959383258 -0.09298795415423589 0.04880643357167916 -0.00018504519070070002 -0.0295425719703091 0.04367195665991866 -0.042569458955700926 -0.039533100795922496 0.03729820467677786 -0.06190791325390633 -0.06336264293044074 -0.022279048816167754 0.07678316639440252 -0.08092379335128091 -0.07092858025390592 -0.020155244789045266 0.08495932684530436 -0.034326452097586765 -0.04259011661436335 0.07872414001839516 -0.032469818241702524 -0.0039006475269714584 -0.08659888162985324 0.014294569132507678 -0.04655906607832198 0.02789056651533742 -0.09337686826624532 -0.06273352536330419 -0.029901882470445326 -0.09636829842534846 0.02268530295977622 -0.040994880987652055 0.05008474782293232 0.0645201765223862 0.09613644621800199 0.0024843833170200974 0.03894532360356451 0.08592082130380468 0.07030962456863533 -0.09741610677357487 0.07614468793101452 0.04774418616696083 0.0511251488615457 -0.0324836349713386 -0.08430191943310553 -0.0007643409387589094 -0.11911606634881812 -0.06130445335653591 -0.06612646909255844 -0.07753054515005056 0.013947915031974218 -0.07839255813087864 -0.04496833941586548 -0.037516580401821355 0.09014478234098888 -0.01567731240887536 0.007880028069847292 0.06705078836423477 0.0678025628667486 0.05848955689105359 0.056077764409652064 -0.002139885741554548 0.004243493407374316 0.07098279915596578 -0.050810791936725413 0.05032501547586623 -0.0662345095379903 -0.021278565287605977 -0.08243588399649072 -0.10419648586095535 0.06653449522278769 0.07552469390662105 0.01384288072336254 0.07022465551626708 -0.05896903889013089 0.025688497446874632 -0.009814017358917274 -0.014323837715820313 -0.07239251919899362 0.04589747055018773 -0.047034712931967274 -0.03908222077115727 -0.0016663681790690184 0.04879839847613175 -0.0600966020996006 -0.021459102909869875 -0.07429189618386778 -0.07857987683493788 0.09261194633443218 -0.03259829808921569 0.09052264873092916 -0.04217923333979559 -0.09118159241223613 0.09288458503600522 -0.09539048838213203 -0.004485352456914449 -0.053697249741106595 0.0641764542530038 -0.04044974202783625 -0.012367591664724063 0.023619949568177416 0.0007112900680367465 -0.028731608059495508 -2.3938521194204643e-05 0.00438751224887189 0.06522331921663917 -0.0765797440872308 0.046054092585841 0.02700043633062351 0.04484519199058548 -0.02029697240989786 -0.004896586654555519 -0.013874264477089861 -0.03181079180008185 0.04960168457784725 -0.041548924094248825 0.09526389244500019 0.04556725676266907 -0.0676335287242536 0.07156509357102259 0.046137684271670906 -0.079813599191024 -0.016756844587450432 -0.07825796952132498 0.004717112353891303 0.07937284980330833 0.08066487791014644 -0.05179678439080262 0.11866831323364027 -0.038630839769290534 0.013255691820755774 0.024196153520969405 -0.0322822242381186 0.030207214054454798 0.04405719222581376 -0.026650060272776818 -0.024565860226857278 0.04999326632412445 -0.08827276518376473 -0.03956587774588648 -0.04675038920088412 0.08031982110746838 0.035719465110945356 0.02959849661320191 -0.028007228019033978 0.0047648049568614625 0.004379845082157963 0.03344367117514198 0.07023805179992197 0.09647881278444892 -0.028141232865818756 0.06756134538265557 0.022727034065672336 -0.06508460632707465 0.04347093636089355 0.040262233583124314 -0.1046788329521203 -0.013074931352993676 0.1145808301358731 0.023268935113657116 0.008490797239271401 -0.027778215778169028 -0.023710461544052184 -0.01814120148809574 -0.037055014291653594 -0.050296762836787315 0.029490606444973453 -0.08141880818436516 -0.03857937853193889 0.04217028259268677 -0.07854791245977508 -0.04179475020462364 0.04065805088401076 -0.04545381547874803 0.09124185766902011 0.08799709993378946 0.04575140520140856 -0.016593078000345683 0.02487668671717004 0.07183589486784252 0.08095570721712149 -0.09813223178460896 0.060652207143004185 0.04785693491376077 -0.05535294837616551 0.08204266491693893 -0.0345102363368076 -0.041331954549831365 0.11483962001851376 0.10294968325528851 0.04430700753894299 0.074271108337428 0.012583854527874099 0.0848873788382295 0.04487882633671412 -0.09090534865366004 0.016183109881967236 -0.08287377711964483 -0.025682545757950096 -0.006055880517810955 -0.057328899495632524 -0.07151612808011379 0.09818567092903924 0.08981770875966148 0.09119387473668913 -0.00046417217747834186 -0.05032029556921169 -0.01155537685729663 -0.0780141368732598 0.037951271309581175 -0.11127394229563055 0.024039490728794112 -0.026898110825473335 0.03454658824718823 0.0850936827425867 0.042202275704482914 -0.04746738475728524 -0.00981512985783179 0.08504913765330083 0.04539414529968613 0.007085004411451829 0.0836915395041253 0.05797629470803234 0.09316370194375642 -0.05463847164906459 0.044010714237431144 0.07520805949611739 0.06093564910172642 0.0540773524726539 -0.031674164415935 -0.05498961689015423 0.02494617011258936 -0.02003628142819332 0.0023312928137213937 0.07245671548808812 -0.061596207285555295 0.0419639114563098 0.05692154537318732 0.021750586968256453 -0.019781809490660468 -0.006756669989640248 -0.004395156733804536 0.05781285146748297 -0.03623137238495772 -0.01570801015922114 0.06589345699597507 0.06425152293333676 -0.023217684950046225 -0.055389754916063016 0.05127041863705417 0.005209981901063326 0.09199159091001033 -0.033920501599961586 0.06231506780529558 -0.08813576182398232 -0.06385023449532601 -0.08864708673631806 -0.040017364252588596 -0.05894113699067414 0.009866909084743847 -0.053363714339440906 -0.07299399035028939 0.0871026761478417 0.02973778082802632 -0.04990375402211996 0.012289903575292315 0.02417116865261145 -0.0014643610286126988 -0.06884500747204338 0.01426770147240214 -0.0419070166754481 0.007270324062340916 -0.0026257914932316536 0.08870927415755059 -0.00866971378766212 0.12219143692909964 0.06953377116955246 0.09197624840735774 0.028007679041370658 -0.032418364981442724 0.007820418480041672 -0.09714497804497862 -0.09753910361585925 0.008300930063699733 -0.09840236286368104 0.039339699446709314 0.06534273818386446 -0.029342402027749553 0.064702641476873 -0.03205414603787067 -0.04476519676794179 0.08956458590247425 0.029856179934940334 0.094887518164307 0.0385017494292454 -0.037435660844662585 0.0306916544868111 -0.05425181740835853 0.05593760007943915 -0.018803653293928798 0.05740411960627655 0.02343494786468057 -0.03342036790189932 -0.038885164411639694 -0.07594359857973629 -0.05365154498775686 -0.02870057492228474 -0.04534343965186749 0.07247373043610567 0.08997571630259218 -0.06845243880422422 -0.05971970232132944 -0.049412684143866153 0.003528977827009089 -0.05210063488063532 0.09375538624819983 0.03833403445249868 -0.011968309592679156 0.0867947662732911 0.06551659145693987 0.031339534089701436 -0.03568188643219653 0.059365244048796194 -0.007429067028283592 0.028537182343606884 -0.019340289039411204 0.05535571233211975 -0.10425140575002889 0.026750344354407315 -0.03970831815849573 0.12537907864624676 0.0633767580299208 0.018597214407316553 0.028091301041718593 0.0072724967119916165 -0.07669254143070364 -0.07124226198977587 0.06420195755334064 0.06857288965154137 -0.0008766054596403228 -0.003732439886115116 -0.04734957860446731 0.057177684410756685 -0.003270390780181733 0.07268981870542239 0.013704538801819906 -0.05631799551951718 0.007642300064610018 0.07585187071739412 -0.04653864353451711 0.08996303633017441 0.05282203427165045 0.038528695114985405 -0.09621695407413056 -0.027030718388403218 0.03687429122331466 -0.01415591370628733 0.06855431657854369 0.014219319557554308 0.0821137918259584 0.06130833003442073 0.06402923683173274 0.01770145112635046 -0.049672430542745595 0.07968336841650826 -0.0824709490857426 -0.042910479066817706 -0.017263609463145153 0.02452841925768101 -0.029596023758550846 0.05966574695252022 0.022616849503816285 -0.05224167286207157 -0.0756050584167177 -0.0464552332133757 1.5418728303071135e-05 0.05406891851254828 0.12456765191646271 0.01296054907562838 -0.028267550053488563 0.021622849985867436 -0.07237364935272882 -0.05758762639324927 -0.12217770183313516 0.009058374700734981 0.10413151497825855 0.09589479132885383 0.03428102133244129 -0.04527053715743571 0.09603636567569165 0.03977520052361735 0.048798353465590576 -0.04858391448592096 0.021225897877432405 0.005605057643123387 -0.0662284047627188 -0.0772819379127632 0.02027818047401639 -0.009539715752932073 0.08661899290190131 0.04027031577500388 -0.008773676780453012 0.03836760213362646 -0.0917869146810574 0.02394212436717432 -0.032679042332049636 -0.04521841923394618 0.0767686221919516 0.04614193043622132 0.018098322953735396 -0.1130698645042528 -0.08272163433605086 -0.04578021084840558 0.09695277695330802 -0.07826568338481668 0.008316893579633448 0.10177140096131303 0.05511221047780216 -0.05870597214095587 -0.018367144675712474 0.03697956416740842 -0.0663318420234688 -0.09597603527043122 0.04986415909493963 -0.05436363550140469 -0.00843939660226653 0.007907049890775276 -0.07363910456998363 0.017275415771661574 0.01724013071639086 -0.00529592711411887 -0.05263590129303838 -0.08109395587244075 -0.00040045486915166184 0.08637132920373611 -0.10725335426077537 -0.059632697362739615 -0.08279595599424792 -0.018806458467854947 -0.08616724454144067 -0.010075900118678344 0.0008639507227112001 -0.07187262977977471 0.06690021081630727 0.08949589750901799 0.060944029365581756 0.0006894090958081856 -0.07031924590153617 0.09198056210997761 -0.0945775647371282 0.03043751756552631 -0.05289383705295749 -0.04478271389952365 -0.043378379659981106 -0.0029016524301728637 -0.029987546419213484 -0.064141506972008 0.020131502266137653 0.0876854467132917 0.06053224395205684 0.07966126009428941 -0.052098934580159816 0.01653989970068209 -0.13965022453411888 0.01083346590487394 -0.07374907744293553 -0.05678023043765618 -0.019826449997757047 0.03377248201915657 -0.028688736632351875 0.058442536085712246 0.04494135581787232 0.04632104793254621 -0.0775923495837392 0.06755791625415286 0.09052649419024839 -0.060933766789369535 0.01830801860267148 -0.07306351896706784 0.07706032490868646 -0.007232905609374192 0.0795449113128239 -0.05200631073630624 0.04271855746483865 0.11938541607635494 -0.03380096533998397 0.017481200414571574 0.00901344760797578 -0.05125643271996766 -0.09219717017321719 -0.11302711648072736 -0.10746578737846826 0.01380436313277056 -0.07451205305195108 0.08328910349288553 -0.1289716110925644 -0.05108937445217075 -0.053033672655412346 -0.006456634959795472 0.031044191387551726 -0.0741407532951441 0.030034205781297535 0.021639517029261784 -0.025282475129191934 -0.02520898296804291 -0.08093654720090472 -0.05715505974985242 0.04346956956545444 0.03990923844281474 0.04060400300748318 0.060253017376026535 -0.014783932488292455 0.0932211008248138 0.01283665506869009 -0.03761804387770616 -0.006054797168695036 -0.08201262920327763 -0.000824240468882283 -0.03490092212533026 -0.07760759240897824 -0.06319615281597932 -0.058735540721633984 -0.09096645479657041 0.03862952158885972 -0.08485370096161017 -0.033835730821958114 0.05567440195283119 0.023524726242954156 -0.042757022639230285 -0.045655924224136855 -0.059453682503151556 0.041520048787914134 -0.013536386477749554 0.09062416092628038 0.078530258280396 0.09533580449739859 0.03527807334653855 0.051119782725273955 0.03548187987694517 -0.008332206512668014 -0.05067947885259589 -0.018563583226642293 0.08198049402317989 0.03378797197067895 -0.08615795469236623 -0.07969098685890623 0.027256561243131108 0.01526063020505489 -0.0769782605147573 0.098435640903553 0.03353864558464311 -0.07559374115079796 -0.061137341324778875 0.04690497126222242 0.03143617568172693 -0.10297998212196043 -0.030694140293761527 -0.014852161525665243 -0.07183018677137554 -0.02680374006824362 -0.02254813785507101 0.008668772070264194 0.013989531701070758 0.06192243819864406 -0.006245218783793721 -0.0952383176447905 0.02701352032328505 0.07818286892389013 0.015892183824808365 -0.002130317193271229 -0.05687496950488229 0.09013652236911104 -0.007202113005327841 -0.03326967232723868 0.12342810464805602 -0.03092481673396033 -0.015630218730293875 -0.04685873721921367 0.06393056469019272 -0.033975383470724235 -0.059751524002130865 0.05537577328745834 -0.057058946873201025 0.07690508285710988 0.029760786232719803 0.008396355823788912 -0.07097309440305914 -0.010109305119331308 0.0037490129966903656 0.05805130054027076 0.07268515760094992 -0.04927551814032128 -0.07951867385154994 -0.02417162937701882 -0.09515192745043106 -0.021507699759023575 -0.0782128201506646 0.07780265007680294 0.0361866589160372 -0.06714365764229287 0.06816293269175444 -0.07730495274909124 -0.06028576895952105 0.05561729893964303 0.035684526030839894 -0.11576737464761164 0.07338798120377764 0.07254285208899834 -0.04266842669624674 0.06657782682338846 -0.008191049773739958 0.047314279065850604 -0.09020260597470936 0.04892496992154191 -0.07185894072106075 0.09539183650561633 -0.05038412682683747 0.03369028501294858 -0.08780484302519208 -0.09839619638993533 -0.013861993190918256 -0.09179851014365831 0.0024972329908602015 -0.013104550045542368 -0.07337052246841172 -0.04343608672238806 -0.04154912950013397 -0.005234183270589402 -0.02324184147475281 0.022119727240044216 0.08293956024477987 -0.07945698064066474 0.06097311150302902 0.03668935656952143 -0.028443976803856536 0.0076133651333551555 0.0691175742857989 -0.0020131689699114056 -0.042136855796600335 -0.0617211996251838 0.01677730656642469 0.07051542093854221 0.0960809651893995 0.061240381750354456 -0.04225118222141093 -0.005870319123775304 -0.09688449017220005 -0.06721870102975944 0.010563256551791605 0.05260942660849227 0.036070953652440535 -0.058211602105784334 0.0717195256013625 -0.024424206942206497 -0.07960779634357751 0.004966073708680326 0.02254656070946519 -0.004225902502981329 0.0864186601859483 0.09373468726643507 -0.07565274401787761 0.06808823692831044 -0.040730390954092886 0.024612573235686098 -0.024198373794284207 -0.03694569835666886 0.046000385521227066 0.10081190980658866 -0.04449233962214379 0.05725208093435712 -0.029262784692551072 -0.0876038274943094 -0.08339469523810848 0.09352045161786765 -0.08751677042407272 -0.06192519719356191 -0.03129588310287028 0.015758926221674782 0.036112884834016507 0.04500561798899519 0.06350621797346141 -0.08199529666129472 0.08339288524481503 0.09522029785501823 0.09573769018461578 0.06285604671346937 -0.058015483374500056 -0.05922727931766356 -0.08753238061435657 0.09253492920082595 0.04176361045839714 0.04898229916397048 0.004123128174231134 0.06158693884221708 0.011538730112070714 -0.017231223125325764 0.03245424447053632 -0.07466155343917251 -0.04708309372119492 -0.03910936456571004 -0.0947678406998363 -0.03634144659038256 0.07200477010526213 0.06709662212707593 0.09962812433697049 0.06352763111480328 0.004917692346700392 0.04110526118835364 0.06791431760009448 0.07486351022959081 -0.042119037947283756 0.02561650349359776 0.008574986056447131 -0.018530024771527737 -0.046073744245411635 0.02688040420129055 0.05384659077787778 -0.036738093638401595 0.049229303673513435 -0.09406000769440634 0.06701699775670382 0.07482844815788553 -0.009209181978286948 0.012777271355419992 -0.04318168789024301 -0.07103065832175047 0.0711676710699154 -0.020740569458176542 -0.07307314777841274 0.0799171645436926 0.05190591216882395 -0.07255501966148487 -0.08310670905876164 
0.039792721451488926 -0.04157536764178913 0.018828609337420116 0.09964383952792641 0.09167143715954088 -0.03623918951877235 -0.09960919455173925 0.050475539373747574 -0.038395192442538396 0.05312360532915544 0.0932551432757193 0.07819084500900073 -0.027023762633516676 0.06906785164135656 -0.023854574070390044 0.010655633501627099 0.011646387705126299 -0.004268476841940538 0.009047235142201335 -0.059857899008466144 -0.029167481062095837 0.04044757058741072 -0.06525220734711931 -0.03846179399985927 -0.04169782581853925 -0.09265528137191954 0.009355369598405244 -0.03875351498994073 -0.07311427336177884 -0.024747655015092462 0.04646310510154886 0.09630065958502934 0.07190599989500607 -0.0035961772948297777 -0.08030294784392418 0.02888578294732233 -0.07477177559221722 0.017276145606229504 -0.07765964203597253 -0.02723807416725537 0.0412435893830924 -0.023128665369314398 -0.00726090837115352 -0.07537242382357165 0.0037000710183877354 0.09094171117144914 0.08585419064170688 -0.09820150007705496 0.09165685645896589 0.04493772719217338 0.018100782065248424 -0.07000463619350743 -0.030163149908595796 0.09227831656016361 0.04490659559946833 -0.09087420515604949 0.028582778894540167 -0.05165159664360879 0.0003264133433844574 -0.041587984636121726 -0.07570816538738219 0.019787957994729766 -0.04608828261957017 -0.013546697986096493 0.05247495613244015 0.0029392888779354942 0.034450704719809294 -0.08153247946655105 0.05583037552891802 0.021235905681252866 0.002412991269983432 -0.07099800130221245 -0.01682470942602879 -0.0565625976751454 0.09759976765109399 -0.013180347555661722 -0.030429917333293522 0.04638278619133366 -0.014811410253861547 0.03709424879945265 -0.0524206122124142 0.08551891840840478 0.09982795182455231 0.05463824304622414 0.08710783604417213 -0.06828230339493131 -0.09286682969229675 -0.08023329856827961 0.049271669972307475 0.049987040955721734 -0.04133256437909848 0.023416336680675772 -0.06286754302696873 -0.00653326467943435 0.04261531577522831 -0.011589271810181562 0.03380535852502455 0.022656527291475933 -0.04575629528507378 -0.0343616072055013 0.03686574957893533 0.0360728897236158 0.09025306447938838 -0.09217095145550029 -0.02670642269005417 -0.004812122527192227 0.0644891684160142 0.04418496663289681 -0.08493053312182214 0.09253292347271837 0.07658503881897735 -0.05664720574374609 -0.006120591588723773 0.08486348733517998 0.01746382647110141 -0.09141013800503217 -0.05158473565632902 -0.09575235244067186 0.020689311492511034 0.06276878350416656 0.05976459138720228 0.09293651613114311 -0.0018494672288159677 -0.0857766852600831 0.09782188035253105 0.08731816295874135 -0.08131073485764188 0.05246573621362325 -0.04579693149317367 0.03553297659567907 -0.06949569233315692 -0.029957095290028893 -0.004125186751800375 0.09708114577385837 0.0974219321401465 0.08089380994277734 -0.061192457411971 -0.019693482145279568 -0.011362090907959319 -0.043359735977026546 0.042332673507398416 0.0690382158466005 -0.0772940751563283 0.04388289186087298 5.829927940066949e-05 0.09895068734592917 -0.004651495194256564 -0.002979948370552399 -0.06053854429466162 0.06349164575980536 0.04899214498695667 0.008477616779542334 0.06792831533041528 -0.058201125675813745 -0.01687861820153465 0.005253189472437119 0.04608118595865302 -0.037078137853763245 0.05883723739558842 -0.037010768860510086 0.0029693361725528097 -0.08430979242747896 0.046959685300229925 -0.033465845753580005 0.08502528516616975 -0.015930164809715725 -0.05216803640124203 -0.05105311993811192 0.08044668573510275 -0.05345679196910141 0.05887157651187455 0.0867703204052481 -0.029917525887059357 0.013878039384671746 -0.09006242628021305 -0.03476731688966854 -0.07966989021190064 0.00814513672138613 0.059746373035063055 0.026521486599807 0.037140867463066295 0.05645993949265808 0.09925988404480228 0.03301617274417947 0.005855122952896019 0.09232128891818442 0.0925083688652836 0.0811186036670564 0.047035486196753254 -0.02969532065712723 0.003995953051368459 -0.03869881001021416 0.07938804984516783 0.01898116665867764 0.012013060535998652 -0.03096505316103676 -0.06465002242420972 -0.003739036677464294 -0.00762221745176203 -0.048294561264696584 -0.015974273792218455 0.0721157193256959 -0.002766630609295786 0.02653409420443012 -0.08745592185043341 -0.0044695797026037066 -0.06421568389819494 -0.0820847676317077 0.05806129504274742 0.03170364560956328 0.09360474937836327 0.05937960241177112 0.04721031580704717 -0.0129559082860707 0.027305917759776473 0.07672919487961309 -0.008081912270026661 0.024518988792031002 0.0875294781527107 0.08526033670541548 0.09941770678056815 -0.09519756625525652 0.07486405592667376 0.03811428622239183 -0.08792109524495445 -0.07224147179634427 0.0268813748605555 -0.025183093768344763 0.07230750807562204 0.06435947587520215 0.07684455422294813 0.01562437394252689 -0.07847207626102778 -0.006648115930235282 0.005042721134942349 0.03684519470195981 0.0572068105374425 -0.0576350091178914 0.015007468633926544 0.09297958433879268 -0.08079426581280108 0.08146012087444092 -0.016157887749597193 0.06441867880678034 -0.07794121032917846 0.06658595240531362 0.07932925050880713 -0.054233598773927444 0.04478605566226388 0.09166053761774134 -0.09195728299018431 -0.01834479801521888 0.03366421227505146 0.0592654012131599 0.05649611743719069 0.06308359448526805 0.021813074091677983 0.024176839550982515 0.07388354961245361 -0.08062233491923304 0.021554263822687655 -0.08899356733292153 -0.04101855469384488 0.05669405557449029 0.10238435558748459 0.04224101083353932 0.04168393873399673 -0.05634083656160807 0.002034765801397094 -0.037794533383243366 0.09535855162364806 0.03932534269916532 -0.039857929121939556 0.04569183035189709 0.050747459381617406 -0.07510881179954587 -0.04321425280719228 -0.05528242615793829 0.007680118751245479 0.05865878098096841 -0.04535599113929043 -0.005087817974648107 0.06270260677587534 -0.04707814292422609 0.048972288026605484 0.009081520411354446 0.059905007397628135 0.08029732546753839 0.014469234114539988 -0.024288478965604453 0.021944423481722833 0.021172877898336145 -0.023329404991771246 0.039598032681369015 -0.039671350002839785 0.01117759535206052 0.07671167560884228 0.06587468412514536 0.03609109978921994 -0.0059634985655363055 0.040318543211589564 0.06860876540991331 0.03169224933884855 -0.05294712615976633 -0.053873385773310044 -0.020224141716325132 -0.05597290302604647 -0.0670357165491396 -0.0859001215964895 -0.02414505841498986 -0.038772940078365604 -0.08521371509669882 0.011345597783877278 0.06387574354315148 -0.08921423113291096 -0.07562537364942963 -0.008697364497018814 -0.034410940164811304 -0.0602415078662707 0.07914439724826364 0.016016826426463984 0.05102389001282025 -0.034677553020271354 0.08942634611226716 0.06227145112496216 0.012828758740661245 0.057992966087106516 0.07176618523387278 0.0006396133911699918 -0.09080523847720312 -0.007519725820129409 0.008617757635059887 -0.027453015078193043 -0.04859353899691707 0.05462001834148936 0.015542803048908748 0.013718513143037112 -0.08425525969153345 -0.08879341281309737 -0.08168489887339879 0.019287549342737752 -0.08544243637865656 -0.06494793775559515 -0.060407850441947505 -0.05819161048000306 -0.07534744539701467 0.09624057221471692 0.044487167614012765 0.060175140019796465 -0.07917518795237881 0.06532183399092076 0.046346646862740266 -0.0647296049102062 -0.06482887338472132 -0.012234364958191381 0.040953562073621066 0.08354126366543292 -0.014703848824280292 0.07790219269843841 -0.010210711371991947 -0.055115499386918045 0.012961965660560813 -0.04241512084760513 0.02367135220693145 -0.01685025838510827 0.005881309228602971 0.09083013812316063 0.01158520548958825 0.054044295384133204 -0.01342788873575252 0.06401573277331218 0.08975444445189965 -0.03572571397084537 0.04362872270658443 0.023649487532357544 -0.012038283756670811 -0.015345479999523267 0.03497322185540104 -0.06554368884441943 -0.05887011070817351 0.0253239175745829 -0.07568275363074753 -0.05697893121664021 -0.024217447321575075 0.08041563850563352 -0.022021896924367193 0.029345203456527632 0.08477753558731478 0.012045875300955824 -0.010296052633404629 -0.09265580592498784 -0.0982744636959438 -0.019939932995755846 -0.01699191579599038 0.044855065294237606 0.0070248016867379085 0.09488421728990944 -0.036249435395776124 0.0366993737430531 -0.0985578577254831 0.054719972878559967 0.060058182632208364 0.009956084530726994 -0.07684184287668777 -0.06021020887578621 -0.07200911733402375 -0.0049846725366256076 -0.0016460825875669798 -0.00797835077765993 -0.07526232950171492 0.09837908935436523 -0.061454655206651346 0.06550542168739219 -0.01841480487936632 -0.07190777783315629 -0.040689914304127654 -0.02308362362752782 -0.051788329838991835 0.038001276793646274 -0.025774926773947198 0.03196652644701253 -0.05326186188434745 -0.05878352672550842 -0.007407805084192931 0.024886346069338684 0.07878587122548769 -0.034064965921646026 -0.07211098020542886 0.0881439443975931 0.03884160101980937 -0.07249559162416312 -0.06330236449355439 0.06778237459464427 -0.002816444239043127 0.042153857165134936 -0.06291120672975757 0.03232839351037684 -0.07334477486800683 0.01322532674328951 -0.06750203213086889 -0.027081346013916204 -0.036430951108258454 0.02648110061804484 -0.043153406427332695 -0.06327697590956832 -0.012817586250432318 0.027948368839747422 0.019821036721868995 -0.03385839702616969 0.08637366954208389 0.00859028691398625 -0.0792441106406289 0.09906290119248296 0.08974762293685308 -0.06834372594192807 0.08545777692784867 0.08976178850077965 -0.08457791697315509 -0.03607936021728095 -0.07988934008038451 -0.02063023320541423 0.020105924674356998 0.013969956605402277 -0.09180075464501546 0.05819959363805907 0.02151442823556898 -0.018087798422909907 -0.01409982030691206 -0.03704996923105394 -0.06889172891832333 0.0032450933070757785 0.032861656379179024 0.07620732103097733 0.029079331908521848 0.06626542155374068 0.05477723786077002 -0.05014990559921955 -0.04368425732468165 0.07819067082408934 -0.06636196541612012 -0.0658843556036078 0.05794541403520163 -0.016389330522234437 0.06888407273379571 0.0894754214133388 -0.006416054404642425 0.0703832494750041 0.008447388042973372 0.07090205722121336 0.06359631953293418 -0.06893760479760756 -0.017379964121088096 -0.003911549198417748 -0.06067729534105671 -0.011891433515397894 -0.045157925691119316 -0.05253084542495863 0.02524153806129193 0.007550492817653804 -0.06940434907087464 0.03774288590123489 0.019128741962361626 -0.014738966535006665 0.09464633210578592 -0.007505271244229145 -0.04749346824553369 -0.0276735607329764 -0.001407583690288257 0.028738028931555384 0.07675798633856099 0.010249032829861237 0.017953268009143233 -0.05777287259648623 0.06962834626541439 -0.003136773032679875 0.04757659860064326 -0.027103713954238776 0.02223505657766172 0.03524883945031221 -0.0397102948918434 -0.004201318128457401 -0.05616834229213597 0.08057253666316012 -0.0885919353051671 0.06897940008085517 -0.0824934009559649 0.019411989134974755 0.024108229631466672 0.09167109228387682 0.0058092144332930265 -0.08165132863086913 0.08074436368375332 0.0705394175710132 0.041266984170377496 -0.004190655149960226 -0.046891707337649614 0.07481485591365315 -0.0012838676900450451 0.017629404390803766 -0.05183570374003465 0.031994178239227865 0.0623432475103954 0.007591005800362712 -0.030779978024777433 -0.02390704336900865 0.10637315376374153 0.05934040267142746 0.019736022607050794 0.09930248425324839 0.007111743859389691 0.08322438512038416 0.09286843586565673 0.050320517273067814 -0.055376743889432346 -0.04613222561093683 -0.041916338482550726 0.06275368769464834 0.09712338816434568 -0.077738089245682 -0.0912188772406364 0.01772382008483915 0.0517735765055512 -0.07035060207238883 0.07852087717477642 -0.06819612952761235 -0.06825049298901713 -0.04667495321245917 0.010348869973243418 -0.0378802037916413 -0.09077013664460694 0.08000779500941582 0.08552942221802141 0.03061714661219556 -0.05496098819431394 0.018451575351298447 0.05230979409359706 0.058195097068558375 0.013983068108017886 0.028052760699969512 -0.029265911918814884 -0.036034653153747945 -0.027098754996684234 -0.04887415871266664 0.08650138047526387 0.08466830629065032 0.002033835522525659 0.08594207247054927 -0.05065329479509524 0.01129281164772375 -0.009509442399530527 -0.05733959332715567 -0.009778171587420531 0.06374360813835865 -0.030348052772266126 -0.06114339981028666 0.016912248673462412 0.10241104745213404 -0.06120406650196561 0.10032169111816812 -0.08027975716565552 0.03268458156541915 0.024611448298902088 0.07272271217649044 -0.07956492253144336 0.09331171630841172 -0.03486125171615828 -0.08456005961237623 0.015202651811251237 0.07925901919155114 -0.06751293455343647 0.04948033017116855 0.0761135632858989 0.008388846457518218 0.015681191184544162 0.053406702534817024 0.09154820834643715 0.08624523531340014 0.019667359828197867 0.03276952857788856 -0.06839817797902017 -0.09165039523656403 -0.05036278601896876 0.005615644377500872 -0.05568350552697502 -0.06081341434624782 0.02720431879228936 -0.03001759078561419 -0.09289378404311233 0.057236401191865696 0.029671679309498836 0.0005856060502272618 0.09110874448176534 0.026351172680532976 -0.009805309196679133 0.051962621003143784 -0.07836168185364127 -0.019727997515336545 -0.09000913446581627 -0.04204895145270965 0.020337937995208537 0.05641272151754214 -0.02791919560255732 0.07398726730525214 -0.014810525824714496 0.06684489545802785 -0.05445282444115551 0.05785834691450756 0.06269806611921216 -0.09571161059768192 -0.050151065961625836 -0.0907412829612107 0.07339763358562108 -0.024806981674712316 -0.04905742846067539 0.051567253819892175 -0.02934307587919622 -0.09357567022632589 -0.07988554371306157 0.013539754375575301 0.025177061109091008 0.08533485800240553 0.09669390388525959 0.06856750647068484 -0.0033024733382008803 -0.05558821190096988 0.05415127658926567 -0.011250384863264774 -0.033508730718133733 0.03178932935131346 -0.07096672239015038 -0.0864287157048339 0.008364475152593823 -0.012951707729058709 -0.042142210393474544 -0.05715110262540693 -0.06731410462588383 0.05596726007317852 0.07503776093174215 -0.007782578749498934 -0.03037304487994059 0.06849528052264972 0.04706329091490639 -0.02156113895854703 -0.03367791383321051 0.05092473497264714 0.0902985571236281 -0.04369158188049693 -0.0798874202628815 -0.030295947712084763 -0.04085591827393267 -0.07782223962371217 -0.08013740723321351 0.07892948931387612 -0.06526150504291175 -0.05373494868973945 0.07882030513168008 -0.0027050517912374566 -0.08403366156783863 -0.034095013081650125 0.06296537180667353 0.05177793553412677 0.05316244370851872 -0.003175856691318771 0.05965551365101909 -0.03886261338630144 -0.01042361463124286 -0.004798623525648389 0.04149875042629744 -0.09211178677957266 -0.01870938254559233 0.05920986388029301 0.015262654727637947 0.07476936743650904 0.011062899536392466 -0.07540823698586792 -0.0664757494511368 -0.05947651654956459 0.09805779064930178 0.05124725689525224 -0.07188224399259183 0.08786485985297836 0.03462141312068859 -0.08101855457966019 -0.006042712504204201 0.09202802469532692 0.04690546915387824 0.0020583869063950655 0.05862339586986193 0.042182536518670516 -0.005174139354555199 0.03156852600715293 -0.012453988381927156 0.062479700286673746 -0.046411103169948134 -0.011254785774162628 -0.0027150215777020864 0.08228661312083035 -0.023921111681286 -0.01280271447169101 -0.010449924785681158 0.08983537868656753 -0.05426336578101485 -0.03371602982691469 -0.0419318271682771 -0.05185209072480924 -0.02874353128293741 -0.08502234913241453 -0.02936039659386019 0.08339632630859012 0.0701673115427194 -0.04791373457557336 0.08059160940597997 -0.004163287837851363 -0.07748184211407316 0.03929401512058947 -0.05783646857645519 -0.027829031691264605 0.03040676981733892 -0.006871910017926905 0.0258906142197807 0.03543723683915939 0.09507787307403343 0.0866230093166552 -0.053158444004317865 -0.08305586230786083 -0.016733424187411305 0.008621082442278723 0.07421478923955804 0.07231589029559496 0.08932477939761668 -0.00730381436817391 -0.019441868340270722 -0.04495218431885229 0.06191825237266396 0.031898637121648483 -0.003063355189922577 -0.03241179240626121 0.05228402930866204 0.08497890838053422 0.038376120250835866 0.01217350209673948 -0.08646256859146179 -0.0446931865806747 0.020201987497937265 0.029108621244513744 
-0.05348801137240673 -0.0689165254586144 -0.08788108605274916 0.022189968721288533 0.08649952934208469 0.06128940007493308 0.037150848160216327 0.04231511193038756 0.03577011759081178 -0.016965095541529168 -0.03400840288069794 -0.09334526117442102 0.008764033135175792 -0.020925649264666626 -0.09637104905372523 0.08413903152017521 0.08870308432192078 -0.044626875773053444 -0.08466965642518785 -0.07312358135173942 0.03969378941016194 -0.018221810750892548 -0.07818759217094662 0.0955491686457258 -0.03460555379067694 0.018899506550842424 0.09645608401908504 0.004790206720358681 -0.059691963903343796 0.006461299656155245 -0.007454465058970988 -0.07276506198111157 -0.06937751515691766 -0.034414711378750434 -0.02634993093270213 -0.015416963357660032 0.07145337338721862 -0.00850896984601596 -0.08923303983213135 -0.0848038252099551 -0.09937491069384354 -0.010763062059152242 0.08191777445711192 0.01804284573121042 -0.012692615292797893 0.03629913379716532 -0.04767057935611357 0.03902317116168855 0.018433974690196614 0.026843639644609202 0.002954215113182987 0.005152181273636042 0.04708173630325854 0.06587304383455825 -0.034090788171609585 -0.05738659744332433 0.04404121693381033 -0.09524751148671294 -0.013897922249590591 -0.0795741624358747 0.08710283712131825 -0.07867238784010318 -0.0017134368557104318 -0.021209639813206935 0.0837481232393041 -0.021306567192737873 -0.09164862968522242 0.0262501559854903 -0.08720580405588667 0.08831660189237787 -0.061821856943366386 0.06728961348682577 -0.005262111133867556 0.0825169722517955 0.059782024933653574 0.07832050280096337 -0.03535215691576099 0.015366770763421212 -0.006449507304890174 -0.09466260614973121 -0.08582220651208819 0.015252579904130176 0.097596355945612 0.08996773938332525 0.09397142257465677 0.09987475069952184 -0.036548244290548176 0.0881885736300467 -0.08915164470133696 0.027071138910974655 -0.09370514532312949 0.05445804379653167 0.07573409556324213 0.08096047170907998 0.06326411750915667 -0.002944680006963627 -0.07935240721055078 0.03669277026371439 -0.08162339405405539 0.07940304233664548 0.07850934568987007 -0.04950932216425519 0.09679347874515636 0.08667316479025697 -0.05161081372724616 0.09977101406118749 -0.0676347962151694 -0.03297535093411186 -0.07454248659092706 0.06068249093426292 0.014414707820993827 -0.029156498940749856 0.06518685943452363 -0.08649466932552874 -0.031100800791217506 0.06389798464074586 0.06982878232965836 0.06306663481671296 -0.029406166050313907 -0.08513976827082886 -0.042667049213863974 0.0455460474991785 -0.08362390798380694 -0.0023646323972164 0.107266889777941 0.05712953570661251 -0.005944709767001877 0.012356869547720969 0.03599361289423428 0.10176084972572035 0.10037963447090774 0.03224336152347174 -0.04318778747070432 0.02076745949570003 -0.02862580934319365 -0.0028399645140327148 0.07755753434385716 0.09175707148002489 -0.027993967912703182 -0.01531320925975635 0.046961596275863327 -0.06189202614334695 0.04394977066133529 0.04564570564437757 0.0248590814409276 -0.03081581728898573 -0.09870382220407749 0.035785941509887356 0.04126859027793794 0.06544625161611008 -0.06088102887977815 -0.0023171270797583085 -0.004370735272008198 -0.012094304511465993 0.07573158881975288 0.024962864363937257 0.013897989600482353 -0.006973366848021822 0.07966754342767601 -0.05899078617737961 -0.08571426113186018 -0.08807563421695297 0.03241705486617771 -0.10816053514102698 -0.08760729880803936 -0.10598786583243144 0.027237461567721437 0.04475031557456066 0.03674390415575399 -0.0743290999555283 0.08904610684071818 0.041599387355458844 -0.06375261117384591 -0.10008768011485093 0.07419193406737133 -0.09094317171406702 -0.08232513968492554 0.012544707750413251 -0.04626879429703261 0.06722520920649436 -0.02651220191914836 -0.03216820098710169 0.08595579852395493 0.0928501840082558 -0.053541060269576224 0.08759455159557507 -0.032409321608554774 -0.020780012658114345 0.05185017191265756 0.0022669413729996704 -0.08310204571031594 -0.09644605932645693 0.046533472615234724 0.05513418872866992 0.04099137446272625 -0.012539619429645273 0.046134954626997064 0.0506074280068996 0.028882752886099 -0.024972440756421813 -0.07648307465554151 -0.04418693934085681 -0.07407559461301937 0.030237785507950435 0.0879549520467208 -0.09667151945666957 -0.07990891155062657 0.04040950031824075 -0.053013736610430795 0.08020343297943333 0.04645106673244846 0.10200395447228863 0.11678249820871066 0.0055806560558826455 -0.0725404421710874 0.027523139911205256 -0.018502708021876035 0.05875996925393305 -0.09730343408647071 0.06317299017352589 0.0660294472099644 -0.011846409198977007 -0.04628772985269958 -0.045652620240514384 0.039046175100879495 -0.002605869904929433 -0.036119721064792554 -0.0005724078659261731 -0.07462781006075683 0.04243953175819469 -0.04283817030899649 -0.03746061340446193 0.08726442496461827 -0.04447452828851478 0.05970519258784145 -0.044434828396849244 0.007113696806472737 0.038218034115254255 -0.03628592478773009 0.14010861042123918 0.05613238792327172 0.034108937882834214 0.029956408240604266 0.0014528249157962666 0.04245214320194128 -0.020784860129114284 0.05796673946668078 -0.047205426574112676 0.03773664782141367 0.05649437361262918 -0.017617366051715756 -0.059647998112390486 0.018771846858539207 -0.04517796984805913 -0.00038878881423457244 -0.029397972472395492 0.026164233709107983 -0.04538694865491595 0.10036794030943176 -0.03856179189837883 0.010640837759175893 0.006622912951460205 0.019271608292050678 0.07483718885066173 -0.010948925687858818 -0.07195720799180963 0.09933741958046244 0.10578712865350794 0.0009576604812779172 -0.0005572432983218542 -0.0590231537237807 0.07781430104476308 -0.05944600075010054 0.07797300515774802 0.052901180280246964 -0.05531788532344286 0.003912246487095139 -0.0454387997508848 0.04471055395085547 0.09589183544803825 0.028843620922775277 -0.012220430623056083 0.056456194223404796 0.035188038591510915 0.08817461933674133 -0.0013836397079459474 0.013710980162576648 -0.03853275010442001 0.0759207383933657 0.019934898367875965 -0.0579979898717088 0.04646848633784603 0.07138791036635243 -0.009271591904468168 0.07896600036855433 0.10643255145651973 -0.07805483252353615 0.030634923481751015 0.020825672029962716 0.007832475813922499 -0.029282369761922205 -0.09756166997790199 -0.04458753051007225 -0.04346176736136065 -0.02882633928271818 0.010704840047019618 -0.035500231935914915 -0.019892703639747097 0.03114852599739451 -0.023944100707197408 0.07176903976653984 0.09554483213493666 -0.00901934656866268 0.045599260349706405 -0.005138312522579239 -0.026382737842132045 -0.0013408084932073738 -0.08265693758973491 0.04879700836584982 0.004828348761788374 -0.06316958984769279 -0.0651572109826065 -0.06264910225674489 -0.0563479945894634 -0.020304691725609593 0.054702398280913896 -0.027225117101554203 0.02110410373180145 0.1134146295238184 -0.008745876789993669 0.02269001786424039 0.011464789896179066 -0.07460031473573242 0.06310716752951168 -0.03757930164643379 0.07369013184670099 -0.027962052346090102 0.03894145020668893 -0.06992904880171875 0.06652480850466815 -0.0265545953372158 -0.039024377784725284 -0.02726161635166626 -0.00685346728035078 0.08090580768693303 0.01922916108153801 -0.10141662758806429 0.03064557381850942 -0.10631230302437221 0.024674088204418583 -0.00859545434341951 0.03717609624161419 0.09415256679727067 -0.062146630210317584 0.0018168545594271764 0.039090882302983986 -0.047862840409224346 0.010218170211978241 -0.05460953137140736 -0.042582450131519296 0.05295030002657099 0.011524914416044038 -0.059639038741499735 -0.04321943065330873 -0.039611166372783384 -0.020092054190636865 0.009306013557817702 0.09525433627850544 0.09453648862691161 0.09553397931509129 -0.021797147996353107 -0.014171136670269846 -0.07365342097101932 0.030366139774962584 -0.04886319355815819 0.04053482807944089 0.030926994350120224 -0.01255043574875466 0.053191157203327934 -0.07370937540828981 -0.01398612383884671 -0.07803449863187911 -0.027159705596735525 -0.0861721674921917 0.03355902555291904 0.060509498128972224 0.038921464570981765 0.09280627562300074 0.045205914486119186 -0.05325782291159235 0.00708680003004789 -0.0058332851674356805 -0.05639532036619235 0.05576704554582476 -0.09856850441268919 0.015267340243284059 -0.07379104044446509 0.09893989592024761 -0.07268513295063 -0.03299579064109785 0.00997314320594987 0.013007060486091356 0.016720960991167655 -0.028196972463347382 0.05133474557896184 -0.03257276071221531 -0.007299339802821195 -0.0187580180660441 -0.08173150514823535 0.04803805637352406 0.08554157537767841 -0.06227000331927176 0.016140752388330078 -0.019199677786977756 0.04346351823148726 0.03553678916871063 0.053493679280523634 0.03523603564533623 -0.0777496349579551 0.07182004246639415 -0.03162404451262697 0.0729093568707421 -0.06683221766437744 -0.062389452427906666 0.05012307406461152 -0.05791029902312399 -0.07080602424313123 -0.01897468954206461 -0.06939745703902009 -0.02175360611583943 -0.09791903458969013 -0.05246672659421565 -0.03204074455163946 0.024972774108009042 0.07777492415048444 -0.03407653218158216 0.055445264640674216 0.07829004579719948 -0.06795582091530368 -0.04675445863610844 -0.0518431418737603 -0.044002521988293124 0.03515151758908897 0.01128310487966953 0.06681663972767436 0.023562678035418314 0.027296747792009506 0.05942055978169036 0.05891883232332401 -0.041460424289512514 0.0006839511558803801 -0.0026632254383861585 0.015073761126855396 -0.06368228519185475 -0.06889763659237932 0.04238499244559721 -0.08562133018171042 0.052976132476579604 0.06310210289136296 -0.05027112581200687 0.07316327273750398 0.054040447737096195 -0.06742379760941469 -0.08460653019408636 -0.10910141102156093 0.05577029576215766 0.015206873319543552 -0.10400660979749897 0.01952199013090366 -0.0902414176146074 -0.043088233226822106 0.0740341108787552 -0.003979250095506385 -0.03064027286837844 -0.02983114119115947 -0.016098996032454897 -0.0028729197223509306 -0.0005665302524939103 -0.037901399893468614 0.08223798366952387 0.016611453155009344 -0.01997298080186807 -0.06367146061006004 0.0762568487786323 0.0541746195278755 -0.03387089385957849 -0.011927141525903413 0.092134644942286 -0.0611469449244946 0.025204784755171638 0.08220030586441397 0.030543525136822805 -0.059331573069488226 -0.03577114132117694 -0.03571962899002653 -0.01572006846394866 0.05196215218934284 -0.053264423979781206 -0.04073647586908357 -0.0389538262006127 0.029288293866118562 0.03322977377500532 0.038865120140896756 0.0595242336208472 0.05117614665142608 0.028183107848396338 -0.03989116217747486 -0.08254390600328937 0.04991592699172643 -0.01618877561868853 0.060806296516145206 -0.035662004923630496 0.0331561629264227 0.0005362002475511465 0.04055925133176892 0.030432275383337294 0.08200336648873581 0.062298988983154474 0.05324127262890497 -0.047014564739323396 0.05259084419740045 -0.0054911723427528624 -0.01366700849473815 0.10106785663464633 0.0345412339505069 -0.03855693566442884 0.017452468744894062 0.028032409183151717 0.08474974360770648 -0.028605419101482933 -0.07969193607859389 0.01571913162823079 -0.017427289991108885 0.038049518571822094 -0.0833555320911233 -0.04831307076672447 -0.016786350152981154 0.08374877549788454 0.046103014942692463 -0.0026520580994255673 0.007052673804570666 0.0648364936014155 0.06996196005611795 -0.04722046847393922 0.023674250619653912 -0.018309121920121085 -0.03019861447246951 -0.023512357889775477 -0.043589523053329596 -0.050169229141126016 0.06673566917933649 0.0595740652069628 0.01781987416602527 -0.020742491336544294 -0.09448856162398607 -0.06576039403520706 0.024905195141450814 0.09911255154876059 -0.08420003791746597 0.0006397245753319059 -0.0699309238989032 -0.04133795878367728 0.06812673120262644 -0.056756081482629346 -0.0371397950131403 0.004199356699377222 0.10081445170385774 0.037782094413106086 0.08350436567616405 0.12418685148627376 -0.031992324978865984 0.016885815993904794 0.09236140711647874 0.09365411398356038 -0.003419468200929136 0.09497137472245441 0.06429134716599098 0.032188208974324006 0.06228972110552792 0.0006055260879269112 0.08461219642704984 0.07721303692834604 0.010934453989166659 -0.08397148398679875 0.0128224616049701 0.019359117134960538 0.09222624911282078 -0.058383424888892976 0.08558081463652929 -0.015457351637469974 0.002973036104407273 -0.010089662974621076 -0.019098160169297697 -0.012899275429946016 0.09037289172946683 -0.09925897731087205 -0.045936243247750794 -0.0501551720674684 0.09482559503755313 0.03498747146228142 -0.03985911479846457 0.0720662618468637 0.017208504166070834 0.03284003046248321 -0.01898553983645411 -0.0068776244933587225 -0.08133112346495014 -0.05991977911641835 -0.002272967669779596 -0.03324324859917493 -0.10059866924514424 -0.055090871104293324 -0.08208377628674389 -0.05080318732788288 -0.04602653634328476 0.08879447032026677 0.058763296400829085 -0.009123571458671736 0.045553999053702 -0.01787154420881875 0.07388302010206085 0.06493137118035242 0.09599560847858586 0.05482599653954175 -0.05808500823117655 -0.07797473945175631 -0.01826129003391565 -0.03946713216900408 0.0016126564951500619 0.06990542548906166 -0.01957477202341505 -0.07270497226024335 -0.0044980618012621845 -0.037906939897082124 0.017964881831332633 -0.031026711888185194 -0.08552042279184247 -0.05076459874472348 0.08610272131741398 -0.00807226852866565 0.04513508414066303 0.07541613189675256 0.06840430955638589 0.05339665068556926 0.0411116586283784 -0.05379104905488759 -0.07447151091501976 0.09539984824568395 -0.0888442396172086 0.08395567917516894 0.023584360156415476 0.07522071255829026 0.08851801962631733 0.03306888227144552 0.027366687192248128 0.04714885162481537 -0.07983862944628832 -0.11016190605220356 -0.031168136614088824 0.02706830706401734 0.036707436556232195 0.0679182580727234 -0.11777105942208772 0.06466607752389109 -0.025736545794927766 0.04560609543244434 -0.05457016891367221 0.08754251842032253 -0.06771041437815349 0.07477997171213306 0.04083099088451291 0.04764187600379788 0.03154799171230646 0.06432167058414903 -0.08715049788603733 0.0862893541671271 -0.04190511654014965 -0.048818626066503924 0.09543903071972937 0.10450538963427176 0.005188996171483563 -0.07725678012497744 0.022831270544935108 0.08865709276120823 0.05787681221500236 -0.03871039639053706 0.02503363897804743 0.06117003713932781 -0.006689172449538546 0.10285834535021049 0.05425304398797911 0.023648989337706833 -0.0732096991899728 0.04765027221626661 -0.009697585934570655 -0.014843201274645923 0.07428416286570796 0.07787957126650269 0.05349939159387527 -0.07686190877357331 0.08704729004057524 -0.03152532732481854 0.08070212598516932 0.05207761582550702 -0.02297607045153327 -0.07908719299865936 0.09935895002906076 -0.08651157989047187 -0.01244510974353377 -0.01762058277953264 0.0926840073361353 -0.09138715220793747 0.10213199125748283 0.07724852023458034 -0.06203343260766291 0.04876846592903372 0.042085143958670676 -0.04633100318650932 0.008782648520804029 -0.058498297379466914 0.08600616383758225 0.04613321479714902 -0.06132878371449945 0.08850345915599771 0.07750042395938901 0.07917657330712352 -0.01006933347093912 -0.011432279081199662 0.05849212944586005 -0.06927333430336968 -0.08905773614171884 -0.08862854042651586 -0.07189267477290001 -0.026495446066492567 0.057982382826305065 0.09182301144760341 -0.011485003758442584 -0.040667752170415364 0.07798480887691704 0.052160309641538394 0.06876645249600626 0.012514636624436536 -0.02310036593901223 0.09401800159460043 -0.035984662554189605 0.07270473838873091 -0.019937468386559944 0.0704324473365554 -0.005472928630372912 0.0805679020062451 -0.05529837923631824 0.03561388129347724 0.06983193453867959 0.04007835156669412 0.02372455642420153 0.0757826803522568 -0.013361638556032757 -0.0784706295696493 -0.07566685696357883 0.04603920279142071 -0.08368030360346307 0.027746754000200324 -0.0093658693143762 0.028279775130856975 0.05122585580688555 0.016386912296959617 0.05754576632864779 0.06379936553197627 0.08831718198323998 -0.049797594028119785 0.09937734122250139 -0.02971962052391028 -0.028750441185100787 -0.08621895212975608 -0.09385631173406293 -0.0005429316277899506 0.08240080199726421 0.07159759137778515 0.019715348486314878 -0.028863150813777803 0.016203918577500143 -0.009511288560531156 0.008427331860822743 -0.07762770542146594 -0.010197728643852821 
-0.011547272895008539 0.0916263064635085 0.04774529243404005 -0.026789236164138683 -0.018478613174103015 0.07252866519746845 0.025142855781952494 -0.06461028188933948 -0.06617974968062415 0.04690406141356038 0.014527172976109101 0.010532129960964046 -0.09096923856766757 -0.027458869550092177 0.01786066362993563 -0.08716832546373939 -0.04214869854157073 0.09540256082679793 -0.0857646837568495 0.039767592640102684 -0.022772815287362483 -0.03568465964962515 -0.06271915751639023 -0.012059674675610227 0.03687278237780725 -0.033768838202550236 0.02236439589620262 -0.024949327933583107 0.03584131090808759 0.07742412843297547 0.07011408407250505 0.06186939880208511 -0.05181932381505081 0.0016882025025926756 0.056724189667114205 0.011948099581189225 -0.0025930425305706606 -0.06552063785022677 0.046383893114097435 -0.0715556315434544 0.06730978581000932 6.953087050917683e-05 0.028978534621748125 0.024123462779841717 0.05077948641311372 0.07945716526371718 0.06722665893316071 -0.023007173100456635 -0.022887536719183796 0.08573475418931098 0.04895538653867648 -0.031673277414211096 0.002401867515890374 -0.05115381419674961 0.04905184422205697 0.01897888469877833 0.047788255004209385 -0.07965768986399187 0.045024289415383056 0.06034075651645929 -0.020261947492823354 -0.009579911846819097 0.02749402750430832 0.05718659833110332 0.009099943751883886 -0.04617039078944516 -0.06621767014386384 -0.07860481643141629 0.06946690837190102 -0.0050030128049753965 -0.05967894363245854 0.04185080158242979 -0.056249243361092244 -0.032256745543548286 0.09425243191789039 0.06626345785488921 0.07120361472380277 -0.05722313284736198 0.02267233480504212 0.0020861714418160815 -0.01656675618404839 -0.05790099881551674 -0.05761603256728538 0.00010107243035775704 -0.06618636384153993 0.03352825430905074 0.054540474343775486 -0.02050692469935908 -0.014442099155575677 -0.060262575696853296 -0.05605635031347751 -0.03320305191393274 0.0031819984077754164 -0.07129411426731355 -0.02546181596045162 0.09259078491949875 -0.09171136511523549 0.018100416902767195 0.07183137937076481 0.0680684375118838 0.07238785231522568 -0.028522409491730745 0.06366619654750397 0.044452091699506174 0.015733689890448793 0.030776816695403126 -0.06351206513309475 0.005723077251253364 0.0946832479266829 -0.020183049345153387 0.01839237998797169 0.06939961210930887 0.005797870319984175 -0.07758941256637869 0.006985174777598996 0.059753997063360126 0.08435435497602992 -0.028160179677670354 0.05338658681956027 0.07908397098330709 0.06272750172042782 -0.08306951446968983 -0.04940512522911742 -0.05702713617634914 -0.04559620159182274 -0.047830476654324765 -0.07216582573226281 0.05476502883211777 0.008519875756462025 -0.05862771620358734 -0.025840779960400472 0.048326818537060195 0.031147468543433577 0.0813680820494119 -0.07839309510739656 0.043472945633382575 0.07265377721726554 -0.022766061691110017 0.0974996010156618 -0.01904207995623304 -0.09420811179532312 0.06521938857378318 0.05637970157812483 0.06418359000113161 0.01913994082492218 0.0858971246344648 -0.020991133451484886 0.010849125386201773 0.07597070642390932 -0.09568403776498799 0.07312123227676089 -0.09367112223570694 -0.029943400205225533 0.059009864935769124 0.07824880818758179 -0.0415088357524666 0.009394042106935738 0.009646160333465492 0.017850412536273362 -0.05292534760811442 0.03644533563834 0.043294834069108744 -0.027549786695245323 -0.08910738277619834 -0.06028730289763622 -0.017433986054418305 0.024039241025781744 -0.029757508779812022 0.07618444665529145 -0.008862689243122585 0.09055429691440142 0.09316325253816601 0.05263023461603679 -0.04969846202759721 -0.05727053005369071 0.06233288273479516 0.09571585745510242 -0.09486472638115227 0.02928302215418543 0.07803149078461671 -0.011289010882251994 -0.05655857857138352 0.09865012746146595 0.045156778462952456 0.019619981752760172 0.10027648929980487 0.07857944286327556 -0.06349891040876224 0.07607111910473881 -0.0020274125757195026 -0.09720677873880892 0.06705217450241854 -0.08568910299313193 0.06872572231297654 -0.04058842237390903 0.016038962749854915 0.03467872786403227 0.007942569785285805 0.0071809213461298815 0.04972463824285912 0.08293324752662092 0.04875841916347878 0.03145493640252891 0.06086738448112863 -0.06212511258131639 -0.03643171714945993 -0.02187023413865147 0.07167061753709457 0.060219692568425714 0.035260133557447906 -0.08892070954150068 0.09795889572160436 0.014521041915989527 0.09403788787063369 0.08166779326058572 0.08085150522000216 -0.04261568726944384 0.05603767167212692 -0.08285014972020555 0.08777285795885942 -0.09096048769003011 -0.026133094957136043 -0.061529527386895794 0.06362211670361713 -0.03530856322509909 0.05535047580470184 0.0793333713245214 -0.07516579940367783 0.009860171834969107 0.08342394833447149 -0.01155010222304287 -0.05600324467118319 -0.08745507071474405 0.06633296442836198 0.015814505287311688 0.09402251691197075 -0.08120330303243965 0.046363723123010105 0.047485190993005036 0.08462321227614437 -0.02926471425926325 0.07741927134415547 -0.003300160480926498 -0.051746384411041624 -0.08804497669517705 -0.004461402983234181 -0.0629933851886967 -0.05001817623055736 0.046711730771830946 0.005083567159571602 0.07441536222481646 0.018278037493115372 0.07123847415985249 -0.05876717818733164 -0.021210828585713843 -0.07443088966830176 0.09057272967172908 -0.09230441840405051 0.08154706815225106 -0.04115387296683957 -0.09392428620347452 0.03897792047839012 -0.015531475078634494 -0.006102441798417843 0.0500173440181743 0.08224780909564273 0.022718948780737054 -0.03385406550992982 0.05329568899832258 -0.024772989811048075 -0.0009454562179888179 -0.06439998709841674 0.06401274904979723 -0.014861041349045255 0.09618420576471146 0.017319249478961147 -0.03924342538978623 0.022365982807293548 0.03708407242570152 0.055403550455417394 0.005450396622325757 -0.009064038933628504 0.060227341865539276 0.02847734134436227 -0.07665024222316438 -0.07833005551430286 0.018764582443586187 -0.01496653961286758 0.01761637664525425 -0.07923588468285248 -0.08173794481262327 0.0004466232347251757 0.004529446090810281 0.0284201143096371 0.07592876617303505 0.04350409245656339 -0.032055469938057427 0.04646433914682052 0.0665258417000809 0.02494012758696535 0.0650609803383229 0.0664216664667221 -0.06837817284502015 0.05128874509066094 0.08859359340934861 0.0844393856563492 0.06197567458081628 -0.08734037617058413 0.019668130559762603 -0.0708412824274135 0.03922844494496013 -0.038522258203917865 0.029955662704896385 -0.04253164404907898 -0.08255856714832462 -0.018551380378781367 0.01534295351792666 0.08872679094690679 -0.06956108547412224 0.027086977895319924 -0.021747965985141247 -0.006496275709282871 -0.0007925182208819282 0.0486126126731101 0.048072448080659705 -0.10111108969007089 0.028895435889114206 -0.026548522084277004 0.08821951189058694 0.09384421440205486 0.07017427145616657 -0.0872309850065906 0.04916448237467369 -0.07423119715978191 -0.05863382487546676 -0.056951341665584576 0.08562479826723432 -0.015009416388215471 -0.06390374456887297 0.05168708696077881 -0.023094033461708796 0.022189232164555574 0.036459804064595105 -0.08206448933350535 -0.00809824800423393 0.04158300156941031 -0.060538413981135915 -0.08841011246417231 0.0048682012310840945 0.03652365852201284 -0.015810320645124287 -0.06026292091166291 -0.01564632833249424 0.09100244785403068 0.08747176382220959 -0.059277121366869204 -0.05752640192326328 0.020377452121904557 -0.026677172971484652 0.04961030366022791 0.012749504372745508 0.05098372397000754 -0.07990764116980394 -0.08581965245800219 0.0152873061960824 0.09386532440127324 -0.08107380783417088 0.012776495595342541 0.002312832443725659 0.07950950612561763 -0.01872085304291223 -0.010942016694668133 -0.01786532546619103 0.002396146710198488 0.05009878735225852 0.050623500490869076 0.0551953674341554 -0.09349435639672395 0.006147630929695161 0.030222298911605633 0.0649375388235933 0.09618158380776737 0.09279093174606393 -0.0663601084399696 0.008307885350461394 0.06485632105125448 0.06276076425026514 0.02245177841739753 -0.014970280416215866 -0.04617645614784622 0.022176141024530027 0.022865154995852927 -0.04072326556136663 0.005805042405160291 -0.03784791764759661 0.0687565569197708 0.05879045845509375 0.09573121593274832 0.07794073387431773 -0.029827393925658162 0.10352986332034146 0.005362821390313125 -0.09371771639216112 0.0687173192341395 0.04084923550053389 -0.0021911061276869664 -0.07788267005484927 -0.04467531627961821 0.0765286302566516 -0.08459037759781105 -0.014995283012237666 -0.016791951223198685 -0.02528732167096591 0.02505809231405951 -0.08072488654465126 0.016397220244383375 0.01541396562734941 -0.034206725804794766 0.011020928681765288 -0.07089133042767833 -0.09125334221415951 -0.07925651207990217 0.06984649104014626 -0.023923427478601697 -0.040308089294469995 0.020826251645311017 0.04351721749116727 -0.07083998041129094 -0.006015977202494611 0.07060910719044564 0.05582392087294851 0.04907876045444436 0.06116434751599101 -0.031926587318132076 -0.07558546754743663 0.006049526331991416 0.08612692156398738 0.04086310758146455 0.09803574046280919 -0.004825674677975747 0.09439729103680994 0.018615670588742455 -0.06434186424578903 0.014351728598876672 -0.024230354448214638 -0.07731697095931356 0.0596780696380443 0.053820784440439556 -0.009074934649272143 -0.08200770958200987 0.04082837718192836 0.07615953534202241 -0.013760276605493407 0.03113445240817176 0.073432311064897 -0.09188414099483364 -0.04308356733284653 -0.048334778027951365 0.023119154552938986 -0.07355067424787287 0.06924159339965977 -0.0746779186159158 -0.035146409294753975 0.05903195828446115 0.08317093236420385 -0.02988709584804155 0.0025298583304067283 -0.028868891534602464 0.061434042077372485 -0.09377986609477397 -0.08156548743676494 -0.08531409915621388 -0.021119125256797572 -0.09601048678813749 -0.09987926984368123 0.024571290994214515 -0.0727685018943449 0.0523943242041634 0.09631815951913755 0.0013954013592704928 -0.08327257662196363 0.09783145107732531 -0.039125961546477975 0.032905904770112925 -0.0771892389314053 0.01856922766880559 0.0057342838794948265 0.07494434477697921 -0.07205249268269548 -0.03859457249724511 0.09199705030778725 0.07839385298627792 -0.03255447771873627 -0.023977570373336102 -0.08924294248184869 -0.07731131103028455 -0.022748435802074723 0.05552294524617256 -0.08385663015253977 -0.038054424856164 0.004938936762983529 0.014706771588359768 -0.08479655059500192 0.020625559101954426 -0.08349156518166673 -0.054251390640684696 -0.029268273432428438 -0.07700489388026072 0.016567214835695794 0.0650120819669946 -0.023973397060445975 0.04504240563519241 -0.0002782613942500698 0.031215577528663482 0.030192167088149237 -0.030369941533731935 -0.026368536893344 0.09028962393010108 0.06676802669227899 0.08995381146443543 0.09862428176430692 0.03473171964408638 0.0495640343836056 0.011078943611854424 -0.05102779565496185 0.06266289476500847 0.06742116003688385 0.014572107296161475 -0.039544098854167126 -0.07175058516183941 0.08033473248095555 0.008590534486158841 -0.028024508407351406 -0.0923436249616604 0.05240658916117663 -0.05606921745077649 -0.027675053969500183 0.07833749201193808 0.06287662503735264 0.012836124150055847 0.08365657900310139 0.005019687580897361 -0.04551654453574934 0.036068893063706926 -0.003944251070285237 0.08303423981298036 0.08183451844603375 0.07527610747363093 0.045855599842003575 -0.06916772803537377 0.08076981731052481 -0.05522676421026935 -0.043185012390377475 0.02963635904736621 0.04599880197216651 0.0357256732756015 0.0018082645483157216 -0.06890728010315111 0.07177582560850561 -0.06841197579705167 0.08047347757905918 0.07662510663250552 0.021659607048237703 0.03459599710017447 -0.08864359057962319 -0.019843582323107317 0.0041084962673090366 -0.0633470368736203 0.017137930773495937 -0.081581856608929 0.030961658240920294 0.09701374192129132 0.06314811897214097 0.039906469947661276 -0.03366156961882171 -0.047240756013988916 0.0029971298664041145 0.017466175384606274 0.09807562171623224 0.030451331374113603 -0.020215300145009944 0.05318766566246885 0.06614381842989178 0.08462439129953947 0.08261125191787319 -0.09857105474139305 0.07113446403904808 -0.047066068000347454 -0.09066486782710843 0.009930947832379758 0.021851212805343675 -0.08494761956746573 -0.01862877416992685 -0.04384288260742807 -0.03516861619711053 -0.031454107930635335 -0.04527545766676894 0.07675718971997032 0.10111993006742427 0.06979678826447143 -0.08000685025664928 0.07051317023400988 0.08589137810216739 0.048725521474389126 0.005100843385261782 0.07552499265152866 -0.013456199572978056 -0.0030873278590657963 -0.09410214557590856 -0.04290343579535095 0.007149445848024365 -0.029589219389023497 -0.06219439507904034 -0.07636746164684323 0.003392900240975413 0.048946566734139524 -0.09302138290484177 0.015411398663543824 -0.05116967796595931 -0.008124430406677027 -0.0649587656031653 0.09438204771352417 0.10019678545946806 -0.003529743629851152 -0.04478891649512617 -0.06495809790784887 0.019123395721127732 0.009821741337422862 0.019309654188783314 -0.025051954924991113 0.07069266415650172 0.054445158963899475 -0.059374883463410466 0.007720942554183013 -0.050779118170013446 -0.007694216504002216 0.09333248114073206 -0.04865386121556099 -0.014596465218916893 0.06596794310961353 -0.05599441572892583 0.04813618254930579 -0.0018540758740387409 0.01539238088858344 -0.0343280229168159 -0.061269024889808926 0.07041467468765833 0.038136830564147156 -0.00028052228113654987 0.006206644204754602 0.0970069875537456 -0.05571448775323129 0.09716916323430408 0.07936423907407358 0.007255319345197156 0.08732497731423525 -0.08013445784519677 0.029242163720578963 0.009895379039861619 -0.07967106319489813 -0.0695108426330644 0.006500286611720123 0.018169124038235566 -0.04851240339835859 -0.03104295691379154 0.02403123591997056 0.067756398784481 0.026983321930655668 0.049353271229217045 -0.00512518902562201 0.03680893553392878 0.0499467777518314 -0.06236788764077766 0.012695898442833697 0.01654325055245949 0.011890083303022991 -0.037408835747131414 -0.03264456510434613 -0.011080001391810302 0.00014960600088692946 0.012554336784100291 -0.0023791607469517665 -0.02040793333863505 0.025530406321980448 -0.018733515441972312 0.02970069214211981 -0.022835950282941404 -0.05329101240177714 0.00011491320427975841 0.05744112990549382 -0.03781941382527759 0.06717172148690859 0.032245174636217684 0.03802741742924904 0.06755124618124324 -0.04072634839584743 0.029165130432370564 0.01579509672900806 -0.00864824599896441 0.006162803416076557 -0.01765882785217518 0.07236248833889639 0.0006327907212028833 0.011189441040419815 -0.0559596718215732 -0.06249411329615737 0.0931067650430315 -0.09149683379654423 0.08672557059436192 0.08261946748286444 -0.03140841203347922 -0.09814660124660347 -0.021855511190334347 0.08317075194972487 -0.0982687218538488 -0.09576494345363475 0.09984990561466177 0.06485256598167799 -0.041364720189702615 -0.09300486223301298 -0.0498990909902405 0.0200443547303849 -0.09739049515878079 0.030847165474868637 -0.054424378418962645 0.03024750362972556 0.09216817645064732 0.09926581071524396 -0.08624034303605249 0.05131095702870292 0.036122018244016674 -0.036077596621028205 -0.037099565776588156 -0.09166664154481624 0.08605758001662756 0.021987763738582716 -0.053462389481192245 0.050781848147341324 0.010931978459449621 -0.08207834133170906 -0.0026512362486458183 0.06920355351558959 -0.06580346943298676 -0.07732371830404049 -0.06345938160403554 -0.02587699440159293 0.04599110485742986 0.013621047679943012 0.08885459155847537 0.007792017299803701 0.021224372677655916 0.08153204362518947 0.0942594942845547 0.0888318996563282 0.02223498226678111 -0.044032755917490146 -0.0757979537572823 -0.008823954560542233 -0.02083605722040853 -0.024552893881520224 -0.030861179698108934 0.08345018102865873 -0.09678654386892403 0.06326169394442568 0.022287177715164128 -0.0679815805214343 -0.053211625042159844 0.005498029699924063 -0.084509912734686 0.0768390492919778 -0.07479607110877291 0.007223237878617173 0.02310041400388606 0.06454379777854882 -0.028568480604999426 -0.0386578999681583 -0.07073242973686675 0.042202299600634555 -0.06487365475190184 0.0852649490026606 0.06280703850220454 -0.03483232218718468 0.07665222910106315 0.0644121797045259 -0.04128916126232762 
