W1:
0.08155010733061506 0.0993095759825828 0.0489917974465226 -0.04401332558836764 0.036881072998764614 0.02675031259421795 -0.010090762515997428 0.08326474213223586 0.009369849950556453 -0.029953833751729886 0.02002629734858785 -0.09261855122379181 0.0873980898169752 0.08856514663897425 -0.05189865009347192 -0.020647291154027192 0.044547411779385315 -0.01920244993641325 0.09697103593716372 0.09478628467414835 0.09593505365579577 -0.0555333218093633 0.07945760546188757 -0.08357650392678442 -0.01119191969697575 0.021213960609459265 0.05986695241655693 0.058809443035543696 -0.09351869146038741 0.016284740987862617 0.002378391992821152 0.05282370412223583 -0.027148959407349293 0.01353543930892935 -0.021426192477461733 0.022113477310050464 -0.05333056710418556 -0.08506689183832772 -0.059244316512557085 0.09000648627177889 -0.03813262248695042 -0.010936561871245082 0.025897588856548373 -0.013938219201361993 -0.07140591785644491 -0.03808345179302259 -0.05438628869298127 -0.013971196623097811 0.045327927086890325 -0.05839552495296565 -0.022972762149842726 -0.09548937995800832 0.07823020424890179 0.005002046199051827 -0.010945736085769125 0.09610927919588494 0.09360753913794692 -0.012251977143862794 -0.029159383301651673 -0.06453686945872968 -0.017805221956068998 -0.03308374933838047 0.03518319353875446 0.044491337056015434 -0.03301760202106195 0.0012553758622837227 0.08803514625100717 0.013504480501409667 0.06166236231225878 -0.07478902418363362 0.033344123006840774 -0.10352935645023263 -0.03216585134276773 -0.002771315450708856 0.032293330456724355 0.014275231050104536 -0.08685135142218556 0.040913739898232354 0.05282658890071254 0.07613752015791227 0.05843880404256224 -0.015464542307715833 0.039386032185612374 -0.028904889796238273 -0.05376106668280359 0.04031229862272584 0.08010410206596899 -0.06734361278575965 -0.013129219892947158 0.07535564290899488 -0.060743309995002014 0.030809355775148855 0.05071619274645058 -0.06841793135359278 -0.020191905519652293 0.03571861422204604 -0.055033360566717045 0.10261472547023466 0.027723035099240456 0.07865464830388963 -0.040218612802106646 -0.0417402023263718 -0.058859677573156736 -0.12095037631851424 -0.13697531302079438 0.045297585382006324 0.004470423126958625 0.07585575672191323 -0.0721455430770808 0.062001192336385416 -0.00154798422061235 0.0723655047630016 0.030029096653574422 -0.026264779707238325 0.08203721867170288 0.0017377073156609468 -0.03059410889855661 0.04906143379555759 0.07977632528891855 -0.004123459570665282 -0.04617780979694667 0.03826568525528611 0.07738241541264809 -0.08362658550765219 0.023416589520471934 0.06884624797355123 0.038562036202299525 0.024144072061224348 -0.02165081480382682 0.0869295730677085 0.015219607916129831 0.03476275210505529 -0.095119216515247 -0.04400803715520631 -0.06632182086859918 0.08486698621910026 0.06471925731678525 -0.009376556570784657 -0.07121675658002781 0.03861369992355875 -0.04432099344154275 0.02635890132063118 -0.0677317172697513 0.046824811084909435 0.05552223096714324 -0.04569944293366041 -0.06202498983914228 0.02927836958649755 0.08944069077864905 -0.04658096607647579 -0.008730900264689909 0.020370857195033048 0.01715979694469516 -0.023561038264680177 0.02239652543567615 0.02285408304465685 0.05088717297010905 0.036573283939732075 0.04421636835352646 0.013955992789999348 0.047675689877774874 -0.07502000911088808 0.04921355909174506 0.06580524434476302 -0.10125112631849767 0.0027229881654322074 0.04424920646892317 0.01769182039130705 -0.04946013414120737 -0.03584132401711515 -0.03354490918181173 0.05013621888201937 0.041094285073564885 0.03602665676742539 0.07463111197474755 0.0056225201733631405 0.06260176345575566 0.07237940585337799 -0.02545907659908809 0.01921395804997073 0.019172317266837886 -0.041408103380360245 0.0453824674293794 -0.004820980870557374 0.0030517314901345313 -0.007881134614046437 -0.035121096070321926 -0.02317531820584885 0.04071602971244975 0.07660388291562953 0.004116946421505646 -0.06959167485280111 -0.02300024515364752 -0.078437240530655 -0.0285124885765238 0.09685278622715826 0.0781503011000746 0.07394297221438469 -0.012685131555941788 0.007078062467844575 0.002162078678370369 0.018696895340762174 0.05210083623460356 -0.019350583049123547 0.054868519776098336 -0.07785966727344497 0.049275003627896025 0.012283406783718535 0.07913213657401098 -0.08088556008880293 -0.05283058752056541 -0.06740226274687301 -0.09850820795656526 0.046050921413513225 -0.07268123749706865 -0.054441382160957834 0.0580576003633871 -0.028579764680191667 -0.04977958008656997 0.05653651421839958 0.017251405349111192 -0.10125738536538399 -0.028116283462552013 -0.031237791741145743 -0.07486623135283937 0.057531035148716776 0.07435513992630721 -0.0719677396855105 -0.07529571626175319 -0.0395278895159965 -0.014838871291951538 0.05787285429393604 -0.08754584139264536 0.022746829701795077 -0.07187178305603803 -0.06085449125800216 -0.03962837673196537 0.02716418960713944 0.07738368198189094 -0.03376979218690096 -0.02955530230274175 -0.040371611005221075 0.07619520160136331 0.016870419592726983 -0.014742409790187155 -0.046529911122803226 -0.10759341361491061 0.01636063870816207 -0.08537568699688908 -0.05131639224577377 -0.11384151061369688 0.050936301655169346 0.09862762277827325 -0.059334157535048324 -0.03547193104758387 0.07081331550252781 -0.05475924678305209 -0.036666419309281 -0.04637519873051054 0.02052474281059027 0.03233220269708698 0.05126741639914812 -0.04698691339913545 -0.04793968531412625 0.03116539853473319 0.02900485162601982 -0.044074321241824546 -0.06696421818979101 -0.038048262615217085 0.0785187779353318 -0.07662724787797981 0.018867560591859248 -0.029321569335171754 0.032091016799346526 0.007697160649299272 -0.09573028492587858 -0.040698461488267536 -0.12413365097154255 0.04701465143585281 0.007432962939245284 0.09060014805544649 -0.05641449256939304 -0.00774836596780433 0.07267678967474499 0.06366227478328484 0.08954198002892244 0.07182192747564686 -0.04456473071402907 -0.014911769891879723 -0.012203606442556846 -0.0019941615661965423 0.03269945147364229 -0.014364384448759381 -0.054377634454120395 0.025274950282755664 -0.0013449047928856981 0.07505654856648852 0.02153734352461428 -0.051075972660466845 -0.05033846683182436 -0.06551458599898023 -0.03797594448329171 -0.00035830945734477735 0.07303634273402057 0.015046120456678455 -0.0068145958193049 -0.039283440439544834 -0.060447312999110735 0.09319026950393494 0.0046478608022487294 0.09971980564364927 0.05433094984385612 0.03610526181382131 0.061629466749479465 0.059664756455039415 0.011857548481755322 -0.017425519973205256 0.04759126971546295 0.06659177619336305 0.058436602058553014 0.013963159155005225 -0.04791436771838423 0.04328172887186458 -0.09989437664383459 -0.05477468878732037 0.04368225797981697 0.009757524055528715 0.0008734991958399814 0.048614316353970066 -0.08244708460976709 -0.023059049613698018 0.020330031900779054 0.020003257020134942 -0.06015600188695745 -0.031171580885320512 -0.11203935785136603 -0.0891707417706049 0.07076744011319924 0.07257139000679214 -0.03865349093938762 -0.009998968562720197 0.03110247767771868 -0.024816326434082325 0.06416425800985429 0.0443008174943544 0.02198318751827287 0.06428086003385965 0.04607556877844145 -0.07419680187606903 -0.06169634586667742 -0.03483104283386515 -0.023998163253105786 -0.0671712105570451 -0.030340290803458837 -0.08391519649782156 0.03699602581827492 -0.0651880926911039 0.012977276879427294 -0.08229767132645104 0.1407287529786009 0.016125430368488538 -0.00812481241543997 -0.07430790018793323 -0.05765399008273686 -0.06125263024618485 -0.028992201126378125 0.04777322519668843 0.07254491770644743 -0.042153936528271284 -0.07971379660113671 0.020334420261415073 -0.08665515604297115 0.03526347661882498 -0.030540794002874808 0.000805075027378949 -0.077262151555363 -0.09735517713117717 -0.09810693416079823 -0.05118847608560956 0.08651739325451772 -0.028820219082910045 0.03036587348954814 0.012127097199636373 -0.09301404702891328 -0.07007014929395429 0.05127009201031462 0.0880144960145825 0.0903673297717512 0.0072072594001913815 -0.08643160001588567 -0.008253337936747164 -0.05529767652185486 0.09561153564009195 0.03919507883554765 0.05341806799094914 -0.0520609157604591 0.0060285372044271085 0.006602770215079497 0.08048466153157587 0.07230969493224361 0.037499236813479116 0.022353913302258555 0.03759973371679725 0.030651664594008646 0.0039698228073023634 -0.00172516952581205 0.053737601329940744 -0.03550990397487199 -0.017178077235669782 0.045505697252844854 -0.08401318798956633 -0.005831838181336303 -0.0031690382212472075 -0.06815279570866192 0.008601033777571595 -0.028247165838571453 -0.040683559997578334 0.03928202936958621 -0.04759252220264328 0.010518532675815678 0.09516872745317626 0.08273671284045844 0.0047408281315883165 0.003289298836497678 0.06543707247796474 -0.07104625134758749 0.004849241395676092 0.08695146442134885 0.09937094474370617 0.06755264218374935 -0.029609430544019554 -0.024633779551225723 -0.0010728392332758343 0.012163801832943699 0.06431633909963014 0.08129695109984851 0.00497357372003625 0.07348756897131258 0.041290816546838055 -0.015934621744900988 0.08211949808319564 0.046312309726784476 0.12725673114371325 0.0400522562075389 -0.039169758606920964 0.09059362436837237 -0.03612827530860737 -0.0409183378177256 -0.04031911342971222 0.066902940338089 -0.09285187969336535 -0.021303414580783338 -0.0982883138645818 0.07250712384137527 -0.049488659197190435 0.07886956645678801 0.03804626219986408 0.06083288898032462 0.04246811371342505 -0.02709081525823903 0.027817673660787853 0.04780833904818067 0.030761627249991715 0.009270454066677423 0.035094816247235955 0.08309044486815008 -0.07861203920287656 0.09401987811238376 -0.08460773188184008 0.012198292133913604 0.084725801116813 -0.025800042858600495 0.07691834844247641 -0.0686755595019004 0.04149255729279157 0.015001623001108322 0.01409578836336231 -0.009519841243366065 0.04687931185537233 -0.027636463766630804 -0.10344697415109717 0.075620084607498 -0.009053464539685325 -0.04610295343698251 0.1044536700225366 -0.041780746352700716 0.08971545193601442 -0.08992138714291537 -0.0021551164962403204 0.007922218847915528 0.10975408429008428 0.09738300538427748 -0.08366573392343149 -0.01084950598790873 0.020131154516429616 -0.0964543160103532 -0.051920902326947085 -0.031360014832005664 -0.021239030666968174 0.027959350856337644 0.015616715253044755 0.014234380822718953 -0.08307548350041674 -0.00013892728451103635 0.07320196239530924 0.03261249500217889 -0.04759821451362001 -0.07266200779659474 -0.088816355290825 0.04143201450946162 -0.06794553686952653 -0.05935625086406239 -0.016717827956441455 0.1268443771595356 0.051268528294822084 -0.042202383561115095 -0.044236717889984234 0.00850019372256016 0.050739046640605516 0.12145331874937257 0.053751094251741585 -0.06999229172494398 -0.03337927774523486 0.008218636272002866 -0.06254758502603558 0.0951747407549387 0.06242123167536675 0.016569039479339197 0.03233589979501268 0.007007701197723863 0.016493024342388703 0.0013883489336328125 0.07651562269449579 0.09581484345001967 0.021936228517143858 -0.06920684876835992 -0.0014367862800359291 -0.045972858578549436 0.033112452392613026 0.0053434553949943155 0.08725478761965126 -0.04926005548733198 0.04782739823682622 -0.04000204295250735 -0.05180941221178937 0.08230849764369672 0.08316210494181331 -0.03622007837830342 0.09097999695370493 -0.039753717669878674 0.04358191940705838 -0.05805346506743949 -0.02361384747582837 0.014026885096476894 0.013595203712400548 0.03020747793310145 0.033861797553785156 0.020955711376474506 -0.04546272660057142 -0.003574706185791423 -0.020053472467258446 -0.020478535346028018 -0.03777924745017163 0.035932920156036656 -0.09788812028766727 0.04526731858627066 0.003002032184189319 0.0020863426884893633 -0.014115146796026372 0.05733399830384933 0.031460892681054904 0.07831137330968797 -0.0625651720019204 -0.03485356754035001 0.10884568847969438 -0.043404552709822436 -0.06996041523191981 0.09098927115433521 -0.04552915302537812 0.0236203800638281 -0.0741831809659469 0.05681574369551848 -0.0291890602796642 -0.07122283856953966 0.08143267389063824 0.09728133664142215 0.062061515985008774 0.05838430453829296 -0.08497237775282387 -0.022324053501311905 -0.01126531482750183 0.012753829578748465 0.019710695139840664 0.09067246669144283 0.0605530963759311 0.05078873934784783 -0.06061796416387376 0.03499149259943418 -0.013300465302596464 0.028784118079541617 0.021269380851801047 -0.07849186174172779 0.0600654754703211 0.042566095939737904 0.0008005335838617847 0.07532656380557981 -0.004448726190001489 -0.06099998604160085 0.009414563901229899 -0.06456873453995257 -0.037977805455457765 -0.05618840826680194 0.039691951705140956 0.06601706045220268 0.08430277062995732 -0.03826298186413949 -0.005305874101062799 -0.07620440637171849 0.08242710542945009 -0.08060975220871214 0.008575383830815828 0.06708354037446643 -0.06981695209108499 0.04657788994058027 -0.009849082967784842 0.03450284192675396 0.11556388582207618 -0.0905887856961163 0.0003170698860103815 -0.012373039817393502 -0.09530157426536283 -0.03731953964505959 -0.02039489567729398 -0.053733429854294856 -0.06457545728043575 -0.03111881864615625 0.10328223731832144 -0.09614484183707715 0.013189126728661928 0.06289657682159672 0.051769088927162456 -0.03416165574464199 -0.07942919009606969 -0.08704860729423489 0.05632800062771892 0.0019431339426206895 -0.07091456217942525 0.001809670413221421 -0.049766179535344894 0.020167420893247884 0.05905287232577109 -0.07078204564428671 0.0635956049637016 -0.06964132218416959 0.04627962295430934 -0.10678357342374127 -0.04649845901070203 -0.010099691233369942 -0.03819198746479723 -0.007566026212637128 -0.0005096019195029803 0.04524805372051659 0.05950930664407032 -0.030799014878158594 -0.009463700651041285 0.07407625594615395 -0.08249436293585906 -0.09163978390319474 -0.025656538087613864 -0.017149938862804685 -0.014599098046547658 -0.09686960628908904 0.04195152661231383 0.01004199288151289 -0.044744829800248076 -0.09103796209627622 0.05126857521682779 -0.019186422875194176 0.06504871915608346 -0.08500917545517338 -0.01485066580721952 -0.1287255134489672 -0.04357318265915036 -0.0279685103555845 0.05198694497853156 0.01828538413970081 -0.09691327488711968 0.027012503983902213 -0.04371530615206137 -0.07999700019037645 0.004035360008562621 -0.009830304085185329 -0.05232386794562281 0.03804980584191949 0.04790426969024687 -0.09154940831876744 -0.03237493728037893 0.08528428072434112 -0.01212252486487581 0.010651095448548628 0.08210495201200124 -0.052149005650860336 -0.03568815209164236 0.061111267694332144 0.02328325120424425 0.06759087496608109 0.023747419493988283 -0.04228648930508664 -0.028282362497084178 0.016671426256979413 0.00016340162225948323 -0.10737754699668588 -0.025866000916007176 0.012760423825344322 -0.014946273452517736 -0.0037824862587978866 -0.044624583567064044 -0.022531904358786554 -0.08439307456366807 0.029820922355149125 -0.14620501885612833 -0.06220370943488693 0.03169892397295861 -0.01619839696744465 0.08436767971253946 -0.05958003903000196 0.053518978611643536 0.01652488290205452 0.04497172312041617 -0.003413000065696087 -0.08628519946147205 -0.06039507268687028 -0.051008304573790346 -0.035392132262849714 -0.018283142422551947 -0.040285667177089236 -0.0724026389927051 0.07661835660045731 0.07823708370308512 -0.08107457210070598 -0.04086617664000189 -0.021675919547913838 -0.08100663098634268 -0.04252955666429604 -0.05007355022899877 0.05914496916402179 -0.00046669505844856754 -0.040423640298888584 -0.02246132856810173 0.07766562260565954 0.09730223007085623 -0.037427109062964294 0.0609215674220258 0.09581505532183862 -0.03667625366451224 -0.04680538049529066 0.013059046574602065 0.012429288901201582 -0.03392129603464143 0.048941421218650694 0.04643866411780978 0.07691323251199209 -0.09924269109130907 0.09266045722519817 0.058341706676770765 -0.03201154061634668 -0.09336660269899603 0.020482031286902562 0.07890111422382558 0.004848154652368063 -0.03747263218660877 -0.0908046069675491 0.06427076479401272 0.07279823424854312 0.0958665334493071 -0.049251061512839756 -0.013612884145460793 -0.07266915325720018 0.022404229694854096 0.01747985622908956 0.014469930271522213 0.03205483955830907 0.09935264204060579 -0.04983559719161195 -0.04715075308086039 
0.007786097114238597 -0.024744277859324315 -0.0731848776516124 -0.09794249307229436 -0.09941654122127697 -0.034135836680753 -0.04104562002612844 -0.0350419746152507 -0.0382895551574749 0.06967116210515423 0.07395493321009378 0.004084960359039963 0.053886254192701016 0.04679564073322934 -0.07366630036490401 0.025649865943890654 0.008931346423233635 0.020421970170520762 -0.02060440616128982 -0.08447763328034992 0.04007527386566337 -0.040391640961840405 -0.025131979756048625 0.047506558753163425 0.00024441270980375684 -0.003625664404227333 -0.013340858768527503 -0.05229320524189558 -0.008654764556107253 0.07779101362325869 -0.09394737015718552 0.044944194780825925 -0.09488904990819709 -0.05231799087970366 0.0668472627765336 -0.08448842655337281 -0.05974630302538042 -0.0909235705481577 -0.046388740332340576 0.019046028039298363 0.08949288354794219 0.061263228147006694 0.08400808378751845 -0.010231183764644063 0.08987565357918059 0.061553267127847755 -0.012766901329064502 0.01916534846766206 0.065881888637564 -0.02440048610408374 0.07608441291883691 -0.060497102251311025 -0.04028328216364074 -0.02737552647673462 0.05059553216351095 0.04248175885710631 -0.012243884005628328 -0.05285695266203623 -0.044857058861954215 0.01309535637571066 0.003322137314279189 0.03526025796812178 -0.006693000725808069 -0.04120412652585712 0.0263217391826369 -0.07259152179704377 0.02489510520511293 0.04263805071750031 0.08544795416631684 0.054478263082356745 0.09304389025912771 -0.05357725244395935 0.060601004690533714 -0.04063922475093347 -0.018478729911796866 -0.07575516430090758 0.09156797949338004 -0.028997489658298174 -0.04246046021515678 -0.0733494842739767 0.05277258184168377 0.09718007865506319 0.055980323589340214 -0.01605163322849397 -0.026221047970711814 0.05316247088620679 -0.09863392110756708 0.0075967199492224385 0.03399732125071386 -0.09228005311749887 0.059771870348564814 0.018592498890783255 0.06722232165178896 -0.07318508599371203 0.06651917371012547 -0.05481244886221972 -0.007691858992019761 -0.025156437226000274 0.08403274898331071 0.07018441132057979 0.07225812269883847 -0.0488337592435525 -0.06894448427119973 0.0007763225726647014 0.08337002259032048 0.039664163415481866 0.04255397757624698 -0.031847298337568226 -0.058223773527479275 0.06129503223631345 0.04397286847219678 -0.010969205907429183 0.015875569839973333 0.04350891580539437 -0.07429056140646861 0.08989714665827606 -0.03443344455925939 0.06234257088662283 0.05297810429135046 -0.050410432065383065 0.04554139021305043 0.057784709865546846 -0.028111248300646957 0.0807056010767729 -0.02856415976262581 0.04889038513730862 0.009928862634155971 -0.056774139892888265 0.093116438499685 -0.05003006144399632 0.031043816324686075 0.026954984246739193 0.0023972463941147213 0.018101260810852976 -0.07424229838694123 -0.06987579189918693 -0.016631153631578854 -0.017671580414118798 0.08939076029468866 -0.05768423009034774 0.08554826502116991 -0.07663173599924902 0.018351784526469017 -0.06126061985159258 0.0632950870061273 0.015335735963180323 -0.05075617252738487 0.0035772365089701092 -0.035631762378911386 0.024242490045072757 -0.02303515919941641 0.041768261236242755 0.015015281339486201 -0.0480172534156503 0.07335829064899717 0.0841588904838674 0.022834144371445323 0.08590802329355254 0.07991460826345832 0.018914707367664867 0.05134634825895466 -0.045532943788118306 -0.008975054504321147 -0.03337559831991914 0.013183845023239653 -0.10795729959529053 0.06267442325657585 0.000730343220517634 0.08491565914787423 -0.06165204353979046 0.04699935770992447 0.012817400650923778 -0.06543993409335629 0.04755565837862014 -0.09315784270103218 -0.046980732372302866 -0.0715031916456592 -0.10042461262073567 0.033191319841728406 0.06554198109428297 0.023520025614764586 -0.07673785142636783 0.060500918310761376 -0.023976429763450654 0.005339230104211914 0.03762426004353064 0.03353671146373165 0.02545752493141573 -0.06819524908501377 0.020778914126770534 -0.06511630553983423 -0.06285140138754466 0.057415427371867916 -0.0006252890633183504 0.06875452086336288 -0.08004307656533707 0.09307710884360824 -0.04210253086451129 0.09530884207023756 -0.01122731805172126 -0.05905845242278758 -0.010530451345617056 -0.01337252444953537 -0.05513828129409025 0.020135551553410225 -0.06274257014235804 -0.08579429313790461 -0.06891074122288987 -0.04111431230812156 -0.018451088873248683 0.0004374325405181339 -0.04656485154759957 0.014104711328806259 -0.028624968769849737 -0.018638226811239327 0.02868443330677654 -0.03939643949767607 -0.0738768487536919 0.07252404359177776 -0.013556226811213304 -0.11453330490870675 -0.11528457659433124 0.024192870768821696 -0.03827752598091113 0.059146342051657814 -0.025202432336054174 0.08788707880976405 0.09239185830974306 -0.033007589546818095 0.09382482874811914 0.0014076307648230868 -0.03442846166034155 -0.06752186481730944 -0.035705655313778194 0.021914091364434108 0.00014682088667369725 -0.07166939267782799 0.023028085956648108 0.05173549775427422 -0.02974124319541762 0.06085798117626297 -0.07284151453338909 0.053814326945906356 0.03636628318848692 -0.05510585493829627 0.045935708506773004 -0.05369448855227456 -0.0004493697743593973 -0.08752353076683049 -0.004822967673381367 -0.07246038401115892 0.015435151739174114 -0.008320552950629917 -0.04746040746966955 0.08714552096568476 0.09073422152066657 0.05529777754160235 0.04139209840299695 0.07148689248135247 -0.07036327702764548 -0.07225926684481765 0.06520278821983665 -0.048338309538860987 0.02410740223898346 -0.09217802891066308 0.08447791367708737 0.029062271053579978 0.07479409389078673 0.02458232782592719 -0.04109317877069646 -0.10699626927090734 -0.04295006576239178 0.00290937398156873 -0.10033364023157836 -0.0418553382836509 -0.028483807129912674 0.060707959840919395 0.016231344630634713 0.06350874785704981 -0.0021838278292608134 0.026611427768391538 -0.09701372166006933 0.056189924368666294 0.034251785787741 0.07716959252383776 0.03519008833873816 -0.057867730813117566 0.08046389850821249 -0.026464168381360155 0.08092491766385292 -0.03335035714253686 0.09122287967828997 -0.07044457670619594 0.024903640581574515 0.07940715037200079 -0.08114961849818396 0.09300103906577 0.029477199574683165 -0.04613666720298016 -0.08675401308722451 0.00432032988955898 0.03817735662146257 -0.024868035408062327 -0.039496661218146066 -0.07331635843054711 -0.11365450251871342 -0.07319799159147342 -0.025390513824180727 0.06789572730122836 0.05197617434670662 -0.03557867215144222 0.07922388418726374 0.03763768029377762 -0.08589022760381868 0.028403444842928727 0.04670543488798237 -0.005870872937296191 -0.03619061470014637 -0.05309513840081465 0.045826188817034735 -0.09206655780029727 -0.08928908695019615 -0.055379666456716325 0.057528588803546034 -0.08850784395201933 0.027171702908995534 -0.05543079579122284 0.03176338775929998 0.043175875858576046 0.03716330003335809 0.08255636077990938 -0.0013923966469897276 -0.05634316658416985 -0.01807935831972574 0.06706902318965839 0.05822315343260019 -0.04086500569464249 0.04038261540097479 0.09028038994516586 -0.046091293080157116 -0.09035631272633947 -0.012923029448307123 0.020381121125518157 0.003534623783400867 -0.08699130564100727 -0.06736920947051185 -0.09344524409004704 -0.08699720039706156 0.023574736353591825 -0.09549580682428586 0.026134231040539652 0.024636932173279558 -0.05902730448058363 -0.02828727748469063 -0.05184176190617164 0.05290094728641066 0.02665927128885208 -0.0002385120253792508 0.049517579753810596 0.06673667969585728 -0.033720269932299984 0.10180396868621833 0.01705019094561286 0.07517438757682776 -0.06613754364918067 0.0767882572560398 0.08260068029671411 -0.009353862253794922 -0.013182849396841103 -0.022711677602438515 -0.06135513214069539 -0.006907504958771056 0.014448531699651402 0.05681965203479651 -0.08774544052292162 0.02591972481810369 -0.05398328611686157 -0.07975975508678508 0.02720293070120922 -0.009575470776434256 -0.016372262208928203 -0.0004524743588915562 -0.1374304710131793 0.013478395563222695 -0.09434001313596425 -0.0023835178891103096 0.09852024671973192 0.10578508857807825 0.057989822820956285 0.08482446609066047 -0.05564531381406195 0.007408619466545326 -0.09689559361029572 -0.019506959975755203 0.09187165825560083 0.07792474613631586 -0.0010716227610909305 0.06631148461507087 -0.07154960739070938 -0.09764279081381728 0.03304551113401526 0.037246821241177126 -0.03339249068659035 -0.0010701551863689005 -0.03004586617877177 -0.004476822815250905 -0.06687177138079316 0.07467173414146437 -0.058382320074707554 -0.01043898754612636 0.018145247975163016 -0.04931052042070949 -0.11687638306148418 0.09745348350038811 -0.032352808663297226 0.045941496768821304 -0.0019531736444852246 0.0708143882784603 -0.0697146035495423 0.04711675279950491 0.01561936829214558 0.013857556721968423 -0.030020071730434764 -0.035818579961906905 -0.05990514882575938 0.05242392766235288 0.04826987499325798 0.046947116571013026 -0.005922527251586509 -0.06595243771793595 -0.0640467173667999 0.016006457262050362 -0.09039319807352605 0.0413501867556936 0.03398438656042161 0.05374101446032957 -0.029898399916827658 -0.06211205856083183 0.057204185940771035 -0.06896249254917702 -0.06523994293051015 -0.047631212828194026 0.022068219349887782 0.09128763007422747 -0.021385967735153007 0.023914367167982214 0.06203282269163002 -0.02506656247478859 -0.014737912480150252 0.047811780576993396 0.08201921858014632 -0.012897519501056129 -0.019175859640910453 0.06276304300722502 0.06459462528248966 -0.017999635616419832 -0.007701887495077527 0.0840242713944101 -0.03535211001584413 -0.008877250113650318 0.07118776238365714 -0.048435560348024057 0.04326519015604601 0.007404188562917791 0.05347968558653156 0.019810177676706033 0.03162016422313351 -0.09012200344792304 0.071627464037767 0.06813614647012667 0.08788258777896853 0.04184747936990437 0.07216376190556152 -0.05153075606913712 0.07647531758446323 0.08810332509919723 0.05572312465652275 -0.015132966999343772 0.02547238398302385 -0.0789226707451418 -0.08422289604878226 -0.018227319696897257 0.030813811730323337 0.02209500373209975 0.10662046015890247 -0.024812774125324892 -0.005987953600235914 0.11330215900979423 -0.004608759445874142 -0.005866905269948603 0.019724410618488276 0.014157196503688001 -0.08536725354982046 -0.027506328190617248 0.0038124442358751153 0.01138255676091268 -0.005694867653777285 0.013308718403363664 -0.06840678306421157 0.027666367008169466 -0.002614475585536193 -0.056805115089594016 -0.08127585042250035 0.03773786954198507 -0.06737360773012632 -0.059150248700237086 -0.08478588764371059 0.07259223666924519 -0.08871109724679997 -0.0548131134483373 0.07085644093224132 -0.0680314940959056 -0.06751295109126991 0.07661857435114885 0.04104028009849198 0.14559758230364953 -0.007237817645651482 -0.0010553878782736381 -0.03232159342435678 -0.0428975766609994 0.08805808298669976 -0.09759890756461806 -0.014737532600743153 0.10982375949696442 0.005542238141813894 -0.07500081658636774 0.06867544059151666 0.02859361403315826 -0.0002543941607300416 -0.08019481446075673 0.055127568833426614 0.010392790491432505 0.056099817145096 -0.04625188880016802 0.06446458124792073 -0.0697026736351928 -0.0884045588676163 0.07819422106638836 -0.02021679821184489 -0.0048143491748243485 -0.022292370703351903 0.003133982701353298 0.09190872486644039 0.11671059200152394 0.12488322846081809 0.05779756393602145 -0.040586978586222226 0.017811844885122285 0.02431206923626749 0.028807583922455485 -0.09403809699907316 -0.06376284627589576 -0.08166192816496841 -0.06547174423012207 0.10997043128944943 -0.08652874567348874 -0.023233476000891436 0.026083173700576834 -0.07242027291082806 -0.09874032293935792 -0.0454761878004014 0.016462301566965973 -0.034356048402308534 -0.09245315104334 -0.09159642453333919 -0.04703239162678277 0.061955830076853936 -0.03171325726012836 -0.05314352319843226 0.06054412430031476 0.10249244653765471 0.09114293080456405 0.079340975401394 0.04729345350499771 -0.0072701388829869915 -0.07277849645885474 0.09343524828815736 -0.0011528246689691485 -0.017386378626808488 0.002531431923862358 0.08186003194109277 0.051346625234275946 0.07420489843388223 -0.02856999758854783 0.09458218778675505 -0.00718834384813278 -0.029726988688865932 0.08863883393288384 -0.007793894484981709 0.010020357647848449 0.07019212405870626 -0.04193841367256667 -0.024484333753076907 -0.018191740296283707 -0.10017598342042981 0.008686509046966122 0.00884546784824747 0.007747592416426158 0.07586050725587871 -0.04112707153619196 0.006359836463606898 0.06345178353616995 0.016432069912745775 0.014914659966575802 0.03280629645640037 0.06491418514122481 0.035630936692385096 0.09514272318446702 -0.04772803677882507 -0.0886429003754997 0.09548865014525441 0.06384902691954038 0.02653977306507295 0.006753105503207111 -0.024599760353132497 -0.04857843801553904 -0.015126391134078473 0.04756601623767151 -0.07198672372498285 -0.03335362622470513 -0.06386523677148971 0.06292037188765782 0.014921407166664164 0.009438761321524285 0.06787574053593624 0.04114456983974884 -0.04635414865010757 0.076515118584065 -0.02968087256624165 0.014568264272344254 0.014865975567794475 0.06143033131297187 0.047470997783957226 -0.09978671929587521 -0.0600537787583955 0.05591279331372221 -0.015173672862631373 -0.07125594347777672 -0.008802759171686216 0.07806149905818374 0.05901766356506107 0.07783315674692455 -0.05194941477447707 -0.01211928559973305 0.07334332413771028 -0.0379926344553448 0.05258153178422312 0.011235738317637281 0.034375263896144724 -0.10288470432998637 -0.054531775126095146 0.02321244781925014 0.0435010211111739 -0.001068171114118052 -0.05082642910768145 -0.024511482432899027 -0.061049988843312114 0.04747743622248647 -0.06445473708792854 -0.06069576743614688 -0.06150628218910853 0.07335643136489751 -0.03615454975881014 0.009478682642895054 -0.06741605926670681 -0.034317562574485726 -0.011250136930822609 0.027499901742560437 0.09121711603707036 -0.10130647893278731 0.0728253782458392 0.045493551870510913 -0.07808014071681627 0.06491581737194771 0.06924149329319956 -0.06898786183315316 -0.033986183111157496 0.03305906034001208 -0.027366244017706896 0.07958900083018382 0.007288114664807232 -0.08395213418216434 -0.02414087583921795 0.06568657321097936 0.008818224157221005 0.07609584698062342 -0.0634949129185976 0.017545918517995987 0.07236595012172792 0.03327181934955654 0.08163463681340953 0.039235534333233735 0.08241384147612638 -0.07316337424954306 -0.029632425432564197 0.027759331449008516 -0.05345144461216997 0.059315218848000416 -0.08835338561199929 -0.09597910415770111 0.07983120320057507 0.035826112058827825 -0.06324470609224764 0.027526868830499457 0.06656143731513806 -0.0889649955658836 -0.10528582913083921 0.02657189390876484 -0.021897873917354153 0.03297618801066619 -0.07446757611600295 -0.0011507633602721003 -0.0511994042656187 -0.036624905466563294 0.0631656776656903 -0.09300768755476096 -0.07567646615515271 -0.052613114938323706 -0.08899311091920514 -0.025502841432735086 -0.05556535416753709 0.028546116288964255 0.007248254042138831 -0.031377285672479896 -0.0577071503127277 -0.04138826707642978 0.06784845164617406 -0.03525609292518393 0.033806011264688046 -0.0216042834798255 0.0778912728910312 0.08002675574670767 -0.06730357901694839 0.040153059391937286 -0.013036352651309811 -0.007832991831628878 -0.016876732279706555 0.022769740190569744 0.040162740515686815 -0.04369697044645227 -0.06766817503907718 0.024708146958247645 0.07554669269399857 0.06927980222495421 0.00216765489246658 -0.009673012290158253 0.02478993889730826 0.09617979041614917 -0.07095426471912339 -0.032580319734520725 -0.08893667802570311 0.04408553663341005 -0.0016726406299399491 0.09559375019888675 -0.039534341078545324 0.020637623236858957 0.043831352778243016 -0.08720444701253333 -0.05745501580722123 -0.07096836770172484 0.012963279777280512 0.05133147811493674 -0.04990150241543301 0.09499983960459146 0.04272376482822556 -0.023222555403551014 -0.05565663881296232 0.07266954094149554 0.10551311767156298 0.08209535830379572 0.09965664701567854 0.06702950473294816 -0.023410008780206597 0.035940897000764534 0.08316816344414593 -0.08347944098360571 0.02597521708959011 -0.04258353042948201 0.07764699105444726 0.054555019485619624 0.060009083751180164 0.009853007873749056 0.08046148593709854 0.07530914306809619 0.02724180622248981 
-0.036717201528613894 0.06479332318267389 -0.010141415043803878 -0.05879700607158916 -0.09074980440209089 -0.023437961198959648 -0.05808971631847115 0.05945570535505726 -0.007431407043853769 0.014475701701819138 0.02970748762104261 -0.03387570958858324 0.061865392651133305 -0.06891878114715998 -0.04082239823435801 0.08285432779695553 -0.017924153612614346 0.032900962444923826 0.09816258318263324 0.03273610353222983 0.05264695603457001 -0.029160366270282387 -0.07976615424890132 0.08793422636424295 -0.09879012484519878 0.0261477092382649 -0.032464383777929914 -0.042082189768171664 -0.07961808419853456 -0.0716003183265739 0.050282558886683176 0.05312204516142302 0.08137858253688876 0.011266585453242745 0.028965228438049606 0.05725204886687821 0.03035749788876765 0.06408158121640721 0.08899387036545943 -0.05444494406224046 -0.0495541061954392 0.07336944795562952 -0.020442163929248205 -0.06936293000250647 0.003273425418256287 -0.0676298733601497 -0.07345955457736016 -0.008300892914160252 0.021032167092793985 0.006560493370266651 0.022354680353682002 0.03820381394326114 0.014930112053764516 -0.03934355236155771 -0.0321768535485564 -0.003796345032433271 -0.013947342675865643 0.04915362299944462 0.02828876158900273 0.045063969069689624 0.08852682276519186 0.0905534720251632 -0.08594858174917251 -0.00267669497273329 0.0554063897033647 0.03556129661247684 0.002274161525107111 -0.05527493032529828 -0.1006496111241684 0.019138521388573967 -0.028933680681802798 -0.029975632567319645 -0.08538431923025248 -0.06685749352124484 -0.055152735636005784 0.078626335166429 0.08937574887723611 0.014017084726058135 -0.08310867742711986 -0.029746316814524318 -0.0016971842405020254 0.0486029466099461 0.05943398080017867 -0.027343686809084167 0.009537775232109566 -0.01882466628721982 0.09600895669916731 -0.05031706376144077 -0.016711771590284696 0.05231333836400064 -0.08723553444853117 0.08104067413081129 0.0881745433714746 -0.01776855469535639 0.09109634037639314 -0.10940483802067946 -0.08359170810847306 0.04253522896560926 -0.06811823356810419 -0.08137606163454969 0.008848320494568575 -0.09803249903023066 -0.04073175807402515 0.07913902548591414 -0.09676912851037983 -0.04171784183754364 -0.06653525969493455 -0.06209953558188797 -0.021431710604350777 0.09012231190050912 0.038144284276245916 0.026833196331408737 0.0364400220637322 0.07843014706119422 -0.0019893142409107972 0.06419918653307521 0.02699284003010888 -0.09149753039612214 0.05302701764985133 -0.0530086401175699 0.07786965311332392 0.038804991798202154 -0.06968611044366481 0.00024684952035219064 -0.014086329389672796 0.02152731034518287 -0.039976251404805846 -0.05567944237950211 -0.031595563776257704 -0.00023241445999948947 0.06347997519729717 -0.05467696014476764 0.09894990725276263 0.0664006643093471 0.06760427658599161 -0.0685634391458255 -0.050644264213602436 0.03746899360053223 -0.048101541772662244 0.047349926679972426 -0.02903238803440543 0.01552931685160222 -0.08624041356086383 0.06235468111164172 -0.064839925867691 -0.01836334477955934 -0.03366372887019713 -0.016430764772474425 -0.060463615071340106 0.08177928813673133 0.07467286120491298 0.0466180697105856 -0.013912897338624927 0.021061764920147864 -0.061741451552016546 -0.07300125439184228 0.006681957573050232 0.05352885490523123 0.026062062265148254 -0.0002788627053675278 0.05047727161073238 0.045330602733465536 0.026003901092030265 -0.0220587988888739 -0.001615678776768788 0.06389896196383446 0.08448813000873195 -0.0027838227861762183 -0.07399217019834765 0.004129686052421394 0.09282736788259574 0.04765873890200229 0.06964623067291284 -0.08090003717801597 0.010722663789066965 -0.10239821138812241 0.047979309678972945 -0.03138050352296015 -0.021351996688764845 -0.03417548840840762 -0.06642034392332324 -0.08096781226770153 -0.04468384814593816 -0.04932489880915974 -0.01316854549557882 -0.03142484756213815 0.013580949842070379 -0.06611864891189356 0.06837921006377674 0.05994375977389224 -0.014091785195078668 0.03534704898857346 -0.08203515590385899 -0.016056958747679144 0.05710955897178564 0.03172251953614258 0.07245461391362365 0.03599632404236386 -0.0060701280127820915 0.011791321695944436 0.010167629320059513 0.02088471429412462 0.0927985768840256 -0.05879808640789186 -0.05658236429490103 -0.07908109025881217 -0.10307471168225293 0.040558546101576665 0.004165006574542365 0.05979350229043089 0.044912784753450764 0.025558407086108355 -0.05503798737291148 -0.009122500020538476 0.04607423572548144 0.12397777888221509 0.0480635778773296 0.012709668435201993 0.015380904585736968 0.09376808432177579 -0.10978860077627015 -0.03161643471903415 0.0025768045515181244 0.015714983952655026 -0.004423012889890869 0.031773514462668406 -0.07899267122797814 0.024948714334939948 -0.0012467096089395617 0.0035338008842246906 0.012145542058726996 0.004243260643935873 -0.08637606377518126 0.08626403143306974 0.035858779148074026 0.01582302242326561 0.016093589386971703 -0.026258618629548622 -0.055406563988433154 0.0408199497950426 0.005282460383195695 -0.02891095824929398 0.0046531908094868705 -0.0004734167183222435 0.04620777180760473 -0.10606229939592551 0.07776002718842794 -0.1187140371289806 -0.03710277517059698 -0.11819789331348772 0.05050260131855843 -0.06404867877978197 0.07323422111817715 -0.08782094299890904 -0.0782587089780604 0.03462739527306348 0.009138869374543878 0.10941210395018681 -0.0417201658864558 -0.04062823457182022 0.012322825503482208 -0.05469775774106364 0.04612424184212384 0.06307916136494905 0.05053344407557706 0.1095485660363382 0.02188479198425201 -0.04117246273198565 0.07546775223176617 0.11839598632472709 -0.033723221300715214 0.0633776504073425 0.018431627787120968 0.049002863498114634 -0.05062332254493468 -0.06207266069644807 0.06622043919050535 -0.035159802866168474 -0.039399953152636585 -0.09433028826920548 0.03625779028132713 -0.022025515952672103 -0.0635723881563213 0.07928655752077154 0.004519243066093639 -0.010056787852516024 -0.04897927348486548 -0.05244858180400004 0.07710231617925523 -0.012754376908577652 0.03881171299509634 -0.047265037331451064 -0.046918024551322254 -0.039530156866264675 -0.06057168595981048 -0.04651022598098129 0.10695497409871532 0.12372210588504409 0.1304321129670702 0.10882759547554542 -0.019261448160808842 -0.029236192746141282 0.023749959525952002 -0.01631826224461244 -0.05011390376839672 -0.03981999718934611 -0.08931105052722624 -0.05994134231146792 -0.051354540341181504 0.09943306524233039 -0.08694486924806782 -0.07794408435236239 -0.07172400234478972 -0.04897098921589793 -0.02946634843457172 -0.054334333685369 0.05332671077721927 0.05730598462861093 0.08153407242718871 -0.033201906416586144 -0.03535270039861351 -0.026530551528182497 -0.061437632710067185 -0.03516139769658635 0.008814037368686755 0.01635577128575997 0.029412972948300205 0.08612114972104995 0.06453918693598928 0.10655743057820559 0.09080133027647017 0.09015856949229671 0.027803759980690984 -0.05158673354495327 -0.005988987347983966 0.003276922380910449 0.07531491266410101 -0.03336244294417433 0.017027294049030632 0.021702201894190642 -0.042249112636921486 0.021134010362570118 0.0909849428160865 0.03728986249222749 0.04482281248340199 0.012455214521984148 0.01210535182701879 -0.05179964690356561 0.0711858404267767 -0.12057264598493542 -0.06587479693309138 0.027375778848651 -0.02713750247385911 -0.03606979256637923 0.02307828818174981 0.01879764636083721 0.09874047831056885 -0.07640575393469778 0.04115429921295336 0.081212760621327 0.09583325141334997 0.03197485045293575 -0.00771153107477851 0.08782480240576157 -0.07500494561892396 -0.02170050333146918 -0.02674705793354748 0.06928536389121957 0.09414992395736897 0.06389082603918422 0.06291607781537867 0.0503035491774764 -0.061641978241740475 -0.08172324392841471 0.06212727287350223 0.04928470905919343 -0.01465783498627917 -0.13548362517678025 0.06262285940008984 0.056472674400134155 -0.058361060929418215 0.08584573919211154 0.03639121607935142 -0.05813315313559563 0.0662333669351326 0.03883770742002797 0.004518710061629387 -0.11703612216688146 0.06300540882349635 -0.092547193418661 0.07364811797768621 0.08256870420852423 0.019012334926026164 -0.08863793614235022 0.031670244488001785 0.0050711421614446864 0.05180049001391791 -0.06000522329425436 -0.06449319296847478 -0.07736902456700073 -0.02588093899318244 0.09828228603603142 -0.05549862772909427 -0.02902386100681615 -0.08697255396071556 -0.016079406508422746 0.012782015563084774 0.006524571796143248 0.040027769989676096 0.05757966026337431 0.02196533877198524 -0.02320212164573456 0.09561138254675351 0.09970425328111665 -0.09054049078400812 0.0802379352382469 -0.00822344448609375 -0.08068875281224526 -0.06088609141854678 -0.09061288291004577 0.06886446395538712 -0.04518197621095075 0.07355751193126356 -0.019351673723515813 0.09829878844949831 0.040516995733790515 0.038791433916360786 -0.01351406432172783 0.04081913065729318 -0.0015056471485679077 -0.021450274982500867 0.034038573055730985 -0.12729151198646094 -0.029756351575113044 0.018367663278813305 0.05598243191493531 0.007434749080044947 0.10667628499171448 -0.05398151199249603 0.07312720150821128 0.09174484764895124 0.1050348136846013 -0.022773819038108597 -0.02477043132158145 0.041854669297174955 -0.05709306941154541 0.031290347161082095 0.04094431402154011 -0.047200007554853325 -0.04069753704768791 0.08876396060866613 0.088167500376441 0.051115120799243366 0.0599110934790642 0.08204351295865879 -0.005021364382318309 -0.07484164834976406 0.11174478220803719 -0.0718219890053202 -0.08246161323781628 0.08187076407883283 -0.07705787132872531 0.02190110318130211 0.05251965749810689 -0.05187842754150192 -0.05899586086678841 0.07401233546677359 -0.025633341839952563 -0.05553012632723774 -0.028053904479258426 -0.008956858300625264 -0.061361998090688395 -0.002649621819597377 -0.037920138802605655 -0.08482594850407384 0.016609533031896925 -0.08333185040983555 0.07768464325241661 -0.04947134135470649 -0.01865996493120106 0.03316693444557148 0.02011454441682959 -0.05582520575134407 0.06081611716840405 -0.08884087836603913 -0.06862202872130381 -0.04205473353115848 -0.09711999936603029 -0.029968141795277823 -0.08839790856951267 -0.05218489621493737 0.03451033404384894 0.07438155854911117 0.05731168599004848 -0.007692268120592769 -0.023222078537073313 -0.03552242281078403 -0.06873079655883021 -0.07194484368649194 0.048328237846431345 0.06561686433014788 -0.010272007616690296 0.09731650219754245 0.010816695471054693 -0.005238950274779323 0.041934908654508246 -0.020002044297503824 -0.06963660351545202 -0.0004887642134586929 -0.024474766203512133 -0.003986794852398782 -0.044286465336564156 0.03142948061147104 -0.12715884595222718 -0.12324350852565745 0.012579289610461728 -0.06955628889050387 -0.08594688656323482 -0.05167532228394739 -0.016448033276144608 -0.02494719820126036 -0.008309587304811615 -0.025931950559749492 -0.021851140140341185 -0.025516092103124114 0.029981945905941658 -0.047063696378933394 0.03149271632108728 -0.06551639268237086 0.03771383248662623 0.03997584025364409 -0.0818920485398234 0.07121038808401808 -0.05567136611847472 0.07404259456095638 0.014590613586872287 -0.054731637372850986 -0.006616515194650343 -0.045491874740438656 -0.05729124679816732 0.027626877299244446 -0.1500702713047612 0.02644804109913345 0.03915678041858189 -0.01265515228419001 0.035980437736885126 0.08591563760289991 0.0318483512626399 0.05540906958957066 0.07561435420704793 0.00654598034214776 -0.018240518229350612 -0.07179309268634793 -0.04219331207752069 -0.051053340017593145 0.01676622376723094 -0.05241902502519513 0.097118518349164 0.052981980749995584 0.08903387849368613 0.0876256301216618 0.025950281920837898 0.07470207133369908 -0.009547618277261888 -0.002690402695831808 0.07196066215775121 0.03168671879080829 0.04643008712580543 -0.05399589807261325 -0.013920647336340184 -0.05099634283683391 -0.0904568628497605 -0.06383279116894966 0.03609660958284156 -0.11108261131420631 -0.060782515074035336 -0.08717107916088324 -0.06558164162490944 -0.057492769107899994 -0.08355228738470195 0.06961526376031839 -0.03103250452793973 0.09142494336725213 0.062125358307160254 -0.10205792501402007 0.05172050916228438 -0.023017731291049268 -0.08397592996419463 -0.07346844782643623 -0.00265597376495412 -0.056423895304198515 0.01220687874952126 -0.09721469992743705 -0.08991484570496605 -0.034691922905814895 0.03905693042314121 -0.01146352696930354 -0.10598236820003569 -0.04600802889861177 0.024515983005969334 -0.08602610023310003 0.028631701452505327 0.023157846714187923 -0.02954126725418028 -0.08866014717233925 0.06471541090024995 0.05317935768061054 -0.0418445435560479 0.06822342501784415 -0.07224960508795937 -0.06685226771167059 -0.047017330510183794 -0.0256906489474973 0.02300476015040703 -0.08430800073224999 -0.06704613234019684 0.05036440911777931 0.07252608987870263 -0.041213387347064284 0.058205801558369574 -0.01636095814503939 0.06879707913612826 -0.08194787722879864 0.056577283796391764 0.020016912035543292 -0.04849924057461724 -0.04632880126820281 -0.08566986636220532 0.05242169151300666 -0.07791882142283749 -0.08774146854206898 -6.982469661341627e-05 -0.08952871278902406 -0.08076903784906916 0.0402695149182925 0.05357392892119496 -0.05277200382004494 0.11264708047885959 0.09292263865077667 0.04410180882873264 -0.052090050913746314 0.03936713260665372 0.04533030294205917 0.04452007821789108 0.07273824761875028 0.06698824942998816 -0.07028255154177106 0.013376006334929587 0.017784345301235824 -0.07771168095800182 -0.03992008582774311 0.08645681158272968 0.008825071761207837 0.05083420635493542 -0.08738204542168396 0.07608357859884797 0.0018155368667816124 -0.07161346561407404 -0.012565913175186749 -0.057549803922351074 -0.017657615169992064 0.04739387686012207 -0.07231581773540026 -0.009178220496162078 0.0026181606435730282 -0.03363640172761729 -0.07995871268907688 0.001850445850288769 0.10118759950850595 0.022100052794372785 -0.049189387624034325 0.09318075188161741 -0.011083488507065531 -0.07606127060689308 -0.08263300670316046 0.04936235880194462 0.0161874094945435 0.02346467760425232 -0.031026306486616535 -0.04886161382022217 0.010160084132062071 -0.01591169446171967 -0.09561760433361728 -0.042166200124720915 -0.01751015335227215 -0.001993007238564456 0.060012916697456176 -0.08295365259466385 -0.0742975728762345 0.06546202980555273 0.023225045382338612 -0.09437319690850535 -0.004148769300147673 0.037453598025845206 -0.06855818351366351 -0.05287005999244214 0.05182819181391613 0.0999339013439086 0.00245131112713452 -0.04584980000410597 -0.08639441444507592 0.09254492955919016 -0.06289097996538902 -0.03496305826542907 -0.0016915409521523366 -0.028559816644531274 0.07845678016042264 0.023512478302478476 -0.05753864741270253 0.04538239521911681 -0.010209892314776068 0.0831257086037917 0.00024251630318550038 -0.007113602457004968 0.011808637312755875 -0.05817065013919609 0.10859304113918651 -0.0529147130356501 0.08265138422637484 -0.06278826651660786 0.09086245306283314 0.06738336585107611 -0.05428870402860008 -0.012124939658452275 -0.052842688780840384 0.0732728445909638 0.08540097415360057 -0.01503713067564974 -0.037819562793489775 0.07817382190577232 -0.09865572365416822 0.04264863420183751 -0.09104117260184501 0.00910875025026947 0.0013622879541048643 -0.09699792698877484 -0.02075071210318497 -0.05588083285955588 -0.07505032601436333 -0.028920308759706716 0.054812654867453986 0.04991203204916789 0.016070263840860875 0.0687613092913519 -0.045045418497286105 -0.06401472515644875 -0.07061579835666691 0.047800567950634185 0.010371388092379703 0.090714683546068 0.06487597129933821 -0.06906514282116465 -0.032363801488910826 0.06047487960357073 0.048491240141694786 0.05949929037708021 -0.0755198913851642 -0.04943949055887347 0.011056277106809898 -0.08166344236072764 -0.09834384332688442 -0.0201639911727947 -0.013397454208124007 -0.031637402901865605 0.07268280378679352 0.01019382811761239 0.06947307429818889 -0.05593261815326336 -0.0924736547558415 0.04876655453254422 0.06141624807055265 0.04483554419187177 -0.020772608340313543 -0.0047832498868984955 -0.03941085929697706 -0.09718462476798195 0.044248214940219494 -0.07672104890768684 0.02064250883896079 0.09273728764130415 0.07178004405017635 -0.09934815270739922 -0.07742836321503035 0.07055529689667908 -0.08501844678764969 
0.020861636820714624 -0.0669916743037809 -0.07802290777206794 0.05389993492469766 -0.03431917037658046 0.00039041503009891454 -0.09353965827830789 0.0096492017404054 0.04021399082037774 0.08260571456133306 0.05248963289159689 0.015370136096311507 0.029703872232174106 -0.05303013356179509 0.0015244355598599546 0.08857682848697987 0.07228224140563977 0.06728719374846678 -0.07704008721609457 -0.08646136232081506 -0.046675202199074645 -0.0570072764201878 -0.03726967226856695 0.09026765610153664 0.07927608039144146 -0.09937463221093996 -0.052313652058727844 0.033742741114319574 -0.08021426333700568 -0.029766877604835526 -0.076539630442025 0.0883751999740065 -0.057380670288521875 0.01771015557518818 0.08381609374163093 0.09400047514820384 0.04338247879362422 -0.031452113051218665 0.09960318987630329 0.01467579554117757 -0.09104342798759521 -0.057721071716565174 0.022816130343258592 0.10014496036432323 -0.07335951134434845 0.04209757351040961 0.00025766942513786814 0.08731047452054023 -0.03155221696583073 -0.005574055545546038 -0.012736403998303123 -0.046830785461222726 0.06335593167427624 -0.06508334300191854 0.06900863121627568 0.048805119629272364 -0.015972527916683646 -0.03787711041249038 -0.028297039752671907 0.0855962019188719 -0.04909196015334854 -0.06417299219486579 0.09650804841058541 -0.03024927477088367 0.08676055667878178 -0.001960682607725294 0.003830866808919092 0.09751930230021329 0.08102964286824804 -0.056590963438923045 -0.048455431467704965 0.05383168660986351 0.0751808948328545 -0.0024312140139435444 0.06780328911469004 -0.06311609483883499 0.064542591214345 0.07561708867696255 -0.040918704892576034 0.06370717755801505 -0.04942531811070083 0.04875894679268902 0.017839304535760353 0.06692854183901006 0.008135535550731585 -0.04829344855548883 0.0777860140303489 -0.04048385368438672 -0.07553594700390642 0.021548770465448626 -0.033630792900773546 -0.034243325197016554 -0.04816437189181463 0.07188241122080831 -0.0006743720516225663 0.05277842448412055 0.10035153737507602 0.05720374988995346 -0.018565286441114735 0.00277915605049465 -0.04703122331764881 0.007235780242348581 0.07507628811320095 0.08648209044553569 0.084434580435062 0.09248492616156044 -0.025137774683083848 -0.01840214729563886 -0.03595252324065379 -0.07473535983930904 -0.07857214393064094 -0.06673622610837524 -0.0434801319708035 -0.059162232380065904 -0.01439479672443969 0.07619066250888093 0.04125846019916459 -0.06331829058786351 0.015208550075912954 -0.023328557061128186 0.05197565752007993 0.018356915213630722 -0.03674235927554284 0.02128978167475456 0.008809768674930392 0.0855750818422267 0.006167273417013815 0.05940431252807089 -0.0029277391553506815 -0.025130290717303615 -0.012810612171945603 -0.010224090514232767 0.07485099455387112 0.008016474608466292 0.020301248225213543 0.062265251200666026 -0.044193648488012584 0.0028489477004812634 -0.03275638892316982 -0.02884852486990555 -0.06470950355331312 0.08946718801112999 -0.010363317851905654 -0.07196898393770475 -0.06216203132985364 -0.08691375429606436 0.09308442880422607 0.012511905835733318 -0.0012441980295457757 0.09173306428648895 -0.08177490768384969 -0.006628411073091059 -0.03363529150681073 -0.06725422703428045 0.022928846585871056 -0.018972061430036304 -0.014270369409173833 -0.006777787841413879 -0.02005503522779248 -0.05905151101588571 0.008680845330750163 -0.08122110324974398 -0.0761845378293798 -0.06996512497245735 -0.1074150592792184 -0.06122230801476849 -0.009260171290329407 0.09622432016608777 -0.08558848220561613 0.04190805561511199 0.07218219361476724 -0.0749291729554683 0.006059055208866486 -0.08821212394622796 -0.021598032141056305 0.07849856032437308 -0.0035906617892286167 0.038506791347605665 0.011177621143395431 0.009055996975945066 -0.08769971184669655 0.011900110316150419 0.10294975016232523 -0.02074701818344409 0.09964925752578752 0.07120447995834463 0.06873206551662174 -0.03483907168129053 -0.07728685992098067 -0.032684350268462954 0.008381741699598738 -0.03856136927398718 -0.06735201508243854 -0.07033238363192483 0.002957379631572522 0.006559783534973813 -0.007875942409008106 -0.050207656950810954 0.08983595285295909 0.03851464984095014 0.038665917454243685 -0.04396459220097035 -0.005178225987646207 -0.0018936703822202766 -0.02422653444921955 -0.07597469139883235 -0.09454883307234341 0.06210601204066096 -0.03657446269949795 0.10793490643255821 -0.05944667986637495 0.02316632704762106 0.10668183231805019 -0.007767699313194296 -0.003135775635538121 0.013453492939728183 -0.03294997679106467 -0.05453859649488152 -0.02768997775107617 0.032886302737698034 -0.07767807293663609 -0.12262346413082569 0.03318698093226957 0.07651240917829893 -0.08664787877438397 0.06078151828178466 -0.019612823789365467 -0.037442341184009124 0.08140563161343019 -0.0792810300977208 0.053173941714279006 0.052503030485413785 0.062441712590623144 0.046688078171636345 -0.024258371863699148 -0.02186305276625099 0.006639505925349737 0.07102595678356087 0.048480830408116814 0.0026912599714973037 -0.042969715290345864 0.05491883528448769 -0.02755093850463066 -0.05713872578845113 0.019974579886659915 -0.03198094075906639 -0.00045660425348221774 0.0036697203613733987 0.0024630771654046753 -0.09300208835612786 -0.060270068076683066 0.008872316910473826 -0.003745665831452013 0.06593430581656787 0.02471263150505148 0.001885007308700829 -0.08543189991650782 0.10329776681671055 0.04896877523824003 -0.03834188936477915 0.12022208874238546 0.07285413049984557 -0.005975775242959523 0.08258328244261652 0.06827804202017261 0.08706947124727026 0.07100831095640421 0.09400372160614867 -0.0013761773545025743 -0.003934469074124788 0.1103225287294287 0.07023508705389665 0.11122376572924325 0.004559200372804977 0.09955792243845188 -0.045962160796591656 0.022184459949147122 0.06737163038619194 -0.047494509641491614 0.0747574201132893 -0.05483024625748493 -0.04075256931347056 0.027724463684099306 0.07318544633123064 0.02692804008184798 0.11748546712968244 -0.0885755178714505 0.05776398134396805 -0.07514940645692708 0.049259450906067384 0.05745342896341645 0.027868524254963497 0.05974158910965346 0.012336159082679076 0.04902651787834056 0.05160741495604751 -0.019815742133761836 -0.05504056267642178 0.04828917690696957 0.06293797197222417 -0.05276297179236812 0.13288860764155924 0.07764529388743605 0.014485226109187503 -0.039076439295051266 -0.05222567651294014 -0.09392806212838925 -0.03789510830555346 -0.0068354274924783825 -0.08657402962721872 0.0028982139720020762 0.08282352954662843 -0.06987811837734974 0.11727273122572056 0.02610357958061773 0.08935580974838064 0.026263356932165423 -0.0828946754462135 0.03752822161033433 0.031573952497820953 0.03560993385324994 -0.06449600536538141 -0.08375052890263726 -0.08825231239024366 -0.02928525576180188 0.0021975302804048188 -0.008921860556174254 -0.031372379120425446 0.06624061419303745 -0.08031487605394742 -0.014494336056010488 0.12244730189634279 0.03597978130529318 -0.02744688533056667 -0.07135435268152122 0.06876148234227947 -0.044355657151291 -0.03282133887245968 0.04181148176349792 -0.034379273394673275 0.02104045942390645 0.05810677091156081 -0.0032342988809715783 -0.07966210666033235 0.02447976733186717 -0.022565142753438874 -0.09651701078123974 0.003918385473542635 -0.003260906785067748 -0.07601897468163982 -0.0028617950004838333 -0.05694408498652888 -0.08619284905635569 0.015439545529101541 0.019551544105049216 0.038674830108243095 -0.004523394390942323 0.09874789389767948 0.054316606994419626 -0.04455932554721477 0.12586489188284808 0.02180664959461761 -0.04823936751867646 0.028484838828511296 -0.026360529225876755 0.0766831803390075 -0.09147375819925406 -0.008156449587524204 -0.042062634029859 0.027706678902111696 -0.07221104724261565 -0.051164482466477194 -0.11009522105037335 0.056022006949435425 -0.07665747146550511 -0.09252013834970908 0.05797031281627915 -0.03746975934046737 -0.05560292159054607 -0.11147755168022033 0.08447173652499883 -0.01662164728028207 0.010495625993903298 -0.021513940365703612 0.07660518234430856 -0.041080299931567296 0.05415894313007624 0.10610717065617763 0.00863223469792115 0.03750968999615111 -0.05425225236406053 -0.09853843905107829 0.06018637452795225 0.07846260374717914 -0.02289207266275599 -0.02466660727426865 0.08767057051175063 0.05709972162184879 0.058429049723409794 -0.04067664573167694 -0.026941422854185857 0.0768983137906324 -0.0972864407007621 -0.06320196396544163 0.08045592386427808 -0.02592235490343505 -0.07354200178026477 -0.006915738776615248 0.010219056500812394 -0.058643925732727746 -0.007254606256651978 -0.013349684531112689 -0.05171283435199179 0.07600678133733987 -0.03908508501497432 0.06863127796149733 0.07448381745227776 0.0627700275133379 0.004629742747660417 0.0983984887144553 0.09894007223922138 -0.09702996044545005 -0.0306297323952069 -0.06982089511118597 -0.03875610327573835 0.07227813922830793 0.05277078468745617 0.04835354173031121 -0.07438534361719643 -0.05380957522119264 0.05372589685713841 -0.038624565667159175 0.020172040090860068 -0.08454913532270195 -0.00410517340291107 -0.07756945149210476 -0.05052584021830708 -0.023683308626074623 0.011658668204417834 0.001604929207594973 -0.055433792226686505 -0.05711236873110834 0.04994135796146128 -0.03308731100454864 0.07984089992603274 0.05998365083141426 -0.0905461835108155 -0.0745250296693472 0.06366894731920722 -0.0010754498252065758 -0.0646054404949476 0.057883747738866655 0.0015220856818985678 -0.011787532829196694 0.0365079529179464 -0.07348463278802658 -0.04176200104106461 -0.07326158278026097 0.03650788689930868 0.017805303024484034 0.022825212022970682 -0.03146415044121501 0.020507917648449222 -0.07407958551294806 0.06288073516983812 -0.062023859817814976 -0.06413898406478866 0.07317402256770476 -0.09071282844238927 0.06260311835170718 -0.08907969134956212 -0.07185600664376768 -0.06135206257621787 0.07657443755854455 -0.05911673074570182 0.07349079531822472 -0.09310740932742317 -0.07409286737629335 0.02272548140836861 -0.04618044672474924 0.06260196249674395 0.05413501216971426 0.0612224948872723 0.01592505822188505 -0.018153340003819966 0.07170722868283999 0.08974735951296355 0.03007810359167217 0.10763692316555247 0.0047751634308952655 -0.0734721469641041 -0.09349896246750496 -0.07855045523196884 -0.04738172248613056 0.0860376639720544 -0.07429859048270814 -0.07872860618114036 -0.04791007240565957 0.07702218314167297 0.036166917474132705 0.01406464230148659 0.02388873550582577 0.0602506721338223 0.00024985266226630517 -0.08393263750807661 0.00916399967766672 0.0841862610669734 0.0808559355447121 -0.012509635710076548 0.13177709558952397 -0.08724269697352662 -0.0722958699941469 -0.00624580696502986 0.020763298248491373 -0.06199811791870126 0.08541135124433984 0.10650176481217422 -0.08810429862616209 -0.04455234905404785 0.105195579863715 -0.08533876297163555 0.0608639020443284 -0.049059632834754605 -0.05964028971082004 0.011458164916479103 -0.09994387221526972 0.03927468532007963 0.1105921771388626 0.11030560184293733 -0.021495402619554543 -0.0580768137473246 0.05638453260407698 0.05202993823602978 0.013656542726641144 -0.017856167532449924 -0.06587476448141362 0.06991454525494782 0.016125519401740188 0.09183243410988749 0.056903079796166524 -0.048485848787863974 0.10465058516929274 0.06389125769909333 0.017006036518963884 -0.04414067931019848 0.09074181112624137 0.01017553576863005 0.10075726055993597 -0.023497575251149386 -0.10767519966510865 -0.06888150949452208 0.0580329990264104 -0.0384841940083224 0.006593447214960625 0.046783279588362585 0.048760708508169645 -0.045198527006858634 0.021896349383296248 0.03150139638200384 -0.07799057633124708 0.07748248553801579 0.028249487131146306 0.02728812091783442 0.03748339020499678 -0.033142189605652385 0.019961349179506666 0.028939551031166137 -0.06902055780849507 -0.032489908084669554 0.07164813147866457 0.06287044190137132 -0.041899454055105596 0.08369619529530374 0.08371868360631197 -0.08734198604992503 0.022623530280402846 0.07082875423834335 0.04949381736422225 0.015720512860745817 -0.008822259427641518 -0.05289182024637427 -0.021367904485863815 0.04500326617209872 0.06266551805597029 0.018240971946048633 0.047182957125655046 0.092727417728289 -0.021498917305184512 -0.01809819131396137 -0.027797342647676526 -0.07406935470932119 -0.07492226324435639 -0.09537134230800526 -0.05798920100630692 0.07374169268831256 0.04688577632358471 0.025712736361846223 0.014156771261235981 -0.043186430028629805 0.06738713717494033 0.006567916933714761 0.051918312024360466 0.0070415053280736325 -0.08357106513961629 0.030557646091586364 0.06286256001928989 0.036999082823147476 -0.06769306420944728 0.07027222589447694 -0.07338026459028861 -0.0657047032216742 0.06837608049693746 0.0775901791377837 0.04664578197183309 0.03837047985382835 -0.043534745887756375 -0.09685662333568693 -0.029967882033498344 0.050508185726992005 -0.011884283783839667 0.005851059795972773 -0.021835132947172146 0.05898971413734331 -0.05535188401465241 -0.02892394293284272 0.013347426777294629 0.05485719778516325 0.0008016084671848286 -0.02488812840733954 0.01730466316521913 0.02180245822342936 0.05676363379320119 -0.04982078069323104 0.030564755916762693 -0.060110245835677305 0.021518969249674835 -0.04868449470335148 -0.030872569904256447 0.005198181725527336 -0.008323785573214894 -8.930300791018448e-05 0.0620572489457503 -0.007503525007252209 -0.046202321703598385 -0.08930061529155633 0.06781554835522074 -0.037309994618121456 0.05424191066711195 -0.03179646512537295 -0.08303272748007774 0.017375610757550716 -0.1158287513521468 0.015440000108801966 -0.07982450042759207 0.03992144376356946 -0.09349789840791019 -0.022049365260976863 0.026148873026302363 -0.08440344402616047 0.018174559803617922 0.028607188653203438 -0.07309210437298864 -0.03496755661369174 -0.05187320264618121 0.06710930855729295 -0.07678807174979915 -0.0777455507632036 0.11223070928499486 -0.00011204998501851106 0.073595984287558 -0.059137770248324645 -0.050123452347106516 0.003449104883236326 0.08589210635960529 0.017308963680440256 0.030749071095700437 0.030140571111538672 -0.037320908244231954 -0.11027205372391553 0.05203630273034595 -0.006616220663791247 0.0887535087020033 -0.08459491537110468 -0.01726048605521938 -0.03925962638053323 0.03289329895997465 0.0810856887855656 0.0240320149004445 -0.030820011594470297 -0.029574454357676905 0.02609382402017607 -0.05650418110360315 -0.10575202277875768 -0.03394838830719318 -0.05422677312403454 -0.06397704629934386 0.03479614714496279 -0.021254647558612925 0.06794344235699226 -0.03428118451244477 0.034868492263522566 -0.042695082288391056 0.03220101841379103 -0.040762100507758615 -0.008191974772730709 0.09559833835721974 0.009437751765733067 -0.02641926043377722 -0.03643584260263566 0.07621307533351881 0.1024274885787065 -0.03370956234217837 -0.025019651930689137 0.08551898432242627 0.0008819451609347768 -0.009186560001332608 -0.04019999940020194 0.01672197953161535 -0.039504031995730514 -0.049198673909893804 0.05550205365265811 -0.026930215492898407 0.02460747429601997 -0.08474434342015726 0.045441074122845135 0.06989274604168676 -0.016864359218029507 -0.0357634797967189 -0.04436982332516557 0.07895628090339143 0.08924671711662965 0.05579707124332978 -0.054350180082999223 -0.04179704930569658 0.04670217023423878 -0.007079937837031414 0.03143619066457904 0.013258786762786108 -0.08696670010974136 0.07906710533258522 -0.08028813763529222 0.012152706661426009 0.025249990656222077 -0.02662539757790864 -0.0431452305070978 -0.03652715869230714 -0.009351476921790277 0.09875345177377044 0.03636936389759426 0.008842239606901368 0.06933685090067672 0.09870441282861125 0.08687627437408346 -0.06614215747145522 0.06714354541464437 -0.07698276185903803 -0.07123850442812925 -0.024436776096491128 0.03446576268707005 -0.03941506942716577 0.06134269483749394 -0.01976186093431173 0.0007764796005520089 0.037417919464069534 0.09231074789283207 0.0986915344841494 -0.026376532912244094 -0.0014328400121393463 -0.05185234233906664 -0.004682729385382224 0.000505800574632106 -0.0932676949699877 0.051624583158057506 -0.048835471956421225 -0.01853556755641729 -0.029504737429111 -0.09141095440811332 -0.07630355656407506 -0.06690225484011111 -0.0810613437547488 -0.04974764509665939 -0.06562053103708196 -0.07331493655059139 -0.08672749878847281 0.08136526358561055 
0.00019755630133288688 0.09621604225204813 -0.031669226611085316 -0.0815605583679347 -0.04770162076850324 -0.07392193890444876 -0.019971430964309977 0.01869781738181775 0.011607915987779577 -0.01658368763702331 0.024009412489217508 -0.09677701953927134 -0.030735019179734466 -0.08885235605859305 -0.0933316362386326 0.01902847997903785 0.0863251881752812 0.06536779689796476 -0.0028312397393985417 0.0879727092317808 -0.03959627855478823 -0.0190996780973961 0.08256296524794521 -0.060541384354559406 0.047787463412697684 -0.0745837617427448 0.06526011230884982 0.09147143278367698 -0.057767131642161275 0.09843973104339951 0.0803376082844812 0.008528316846341005 -0.08979777915732168 -0.025447644203426892 -0.009559551952611378 -0.032778462918171436 0.06784247431187679 -0.06120405589145838 0.010745863596844816 -0.055610828168905585 0.05697398911149655 0.05748685070378575 -0.024993469790654296 0.0796493078626829 -0.07003255988278287 0.08436671131887787 0.05075464586244634 -0.056721428147427956 0.03539562456620968 -0.0058187085676923295 0.08632331024866449 0.017420843366234687 -0.08390295509331476 -0.04213405364000416 -0.08163835486142451 0.004381697898151321 0.003526980397557028 0.013469318411551107 -0.09630930762511446 -0.00047109755945951015 -0.04612857010810383 -0.09364959293300563 0.025194158479046512 0.08346572196598073 0.06750465010619082 0.016732545782103182 -0.038644281040899994 0.07337209300128479 -0.09040127357694254 0.08056557540371566 0.03484922802129425 -0.07650384244711901 -0.03351157410680029 0.09267309149764448 0.07259380573554282 0.0393332751951647 -0.08068675973554401 -0.034396256820668 0.048426217923590094 -0.09357617800711539 0.01868984325445348 0.05452776263711701 0.034474345515056154 0.07128773671799146 -0.08596014778222999 0.06618574287727116 0.04376082225840927 0.06071159249428604 -0.06548892956089508 -0.074012605002801 0.042444428015821795 0.06540233804801142 0.03982421125487331 -0.0068514186455829905 -0.031400287783763185 -0.06413088710784312 0.026540406448261483 0.0462376578533886 -0.03818930837226221 0.008127970618351589 -0.016639026865631384 -0.05493562582830971 -0.03419657294044519 -0.08794204389577397 0.04633727421493974 0.03703337222395276 -0.08025341375725437 -0.027963342467374534 -0.08770787750344029 -0.021551784436431874 -0.06637724135366115 0.0035246175415396958 0.08195844458024987 -0.027594707808973287 0.0867176824644843 0.09707943782535064 0.03977296451709311 0.0432227871374566 0.024279452036965188 0.03714241914436468 0.07368569476617622 -0.09715977159515576 -0.005488463548773751 -0.07341766888632839 -0.08952470706209636 0.07882886241274484 -0.025321750011900273 0.026602671502212464 0.019701891159870467 -0.052399113414984703 -0.03085194723966391 -0.030125875503911097 -0.06405820516399977 0.017126017256344703 -0.047788585999053536 -0.028686791011528545 -0.00957577298308531 0.04458348126372112 -0.04021098862501821 -0.02229517632211963 -0.07933209327389437 0.05177169679098664 -0.08070444786905502 0.04923851008642722 0.07742257225783845 0.05471509550034297 -0.03366557129517352 -0.06013588439647709 0.06812265364854661 -0.02550470722982768 0.07102850444976956 0.05444177737279148 0.0096848044230606 -0.08005608354237664 0.10767224837737227 -0.028264621778175122 0.05291802837691088 -0.006351787533276536 -0.027409089030478274 0.042906277416464404 -0.02661210458129369 0.07048437752455831 -0.049156001826952025 0.003839205625119173 -0.009477852842626592 -0.0637465546891382 0.04455240235285423 0.030184320909184378 0.05537413206992431 0.064945743166746 0.04854567491724032 0.09044514977245922 0.057370508193716356 -0.05142526779921938 -0.030239957790295605 0.13065870539405855 0.04628868390643876 0.049002248039668524 0.061912402191846766 -0.008120225573708985 0.04818578348076545 -0.016298644160118517 -0.022726183271144052 0.016790411300854586 0.08655266759519857 0.06479492488024766 0.08194855060493048 -0.07515923032537107 0.048866804096032876 0.06886463415493214 -0.09933813477242005 -0.004702827627711168 0.03247942148462663 -0.08171407584529011 -0.09194768258285811 -0.019763238305561207 -0.018462520966219753 -0.05899307544773783 0.07275718290408954 -0.042126036688443835 -0.06342314693431023 -0.07508064477561711 0.06310870878976038 -0.022215939189178205 -0.06546924145041268 -0.08682982873280132 0.006043033455500753 -0.08145182265308469 -0.09912318057363259 0.06572428008239276 0.018427905740168667 0.08373462343792736 0.1198652355374704 0.022346032848682345 -0.08199393742824496 0.06903856253041016 -0.08268726874900366 0.019752661703723796 -0.02588003172778242 0.0703673991706989 -0.1309701005184569 0.051607155226419926 0.05738978945010747 0.05656514529910087 -0.08396407007941374 -0.04047001964257896 -0.07566063853356832 0.011638644479127831 -0.010531406873975717 0.029424304227837345 -0.0603458708021417 -0.020944960411028536 -0.085168336201348 0.022743442751254853 -0.06082563837358137 0.040875848039383655 0.0033260608962239384 0.007664555872703695 -0.08132009808951639 0.0535329786163276 -0.0067474629138136516 0.04570603943515073 0.11648270102526063 0.019482593281662536 0.09790243501224186 0.06189236514809881 -0.012581223947592004 0.043227238591498136 -0.07789966441234902 0.04469593306936535 -0.011688387924121978 -0.09946307270823401 -0.04670276152768354 0.021522282342228905 -0.05570027677880604 -0.054100331916403094 0.030509058503821553 0.09123100051028353 -0.10959318413123094 0.06298222729560876 -0.05329052655003593 0.03617842471881749 -0.11190656286083582 -0.06776568704434592 -0.06895629943560995 -0.019121852515301817 -0.08432182253579282 -0.047874193927347215 0.0999194547404406 -0.007593483278495273 -0.0402384214440771 0.045845796886068546 0.049635343124777805 0.053607387536661166 0.06576811937905261 0.06647273619220548 -0.09015063120026862 -0.06303535771293967 0.0320175451452314 0.03227140132035892 -0.0978171786223844 0.060079480130949964 0.09450360025138052 0.052387836988468564 -0.029203725388450417 0.05491780560966087 -0.10639056129843907 0.0015807854588599755 -0.06493698281565946 -0.08007247282519778 -0.04153331475071646 -0.15087155037698946 -0.021091548633881563 -0.08125784808707906 -0.03299662385980257 -0.0021624844960718374 0.03091985458865058 0.03312793578106704 0.07634394430542632 0.0874088205234391 -0.06759796465692419 0.06584387132808753 -0.07632191915763671 0.007789848315489401 0.024194261448619147 -0.0032009679964114857 0.06258457923292671 -0.012423782029406145 0.03272426491272788 0.04402432927161676 -0.012790240325353483 -0.023066733343774286 0.069409707990055 0.07704524220682049 -0.06664012436725023 -0.07779297012332329 -0.07339455133120365 0.05155233168084925 0.030675450884234866 -0.07516710802290899 -0.1205752724624909 -0.08432000603187978 0.001720848617694113 -0.019382836846402657 0.12454434410726335 0.046532491804504514 0.03392696884412656 0.07744687348414145 0.0790038653117921 -0.02106262835593258 -0.023948655376605562 0.08565629426063136 0.06364838689964171 -0.05024613868167258 0.017752609001422132 -0.07664161295551344 -0.00355789264701201 -0.07285693971892689 -0.0396093977749571 0.02821037087626205 0.07158756049816599 -0.036760239352824756 -0.036066703292500085 -0.07207562905893339 0.04649565260257897 -0.10216472097576931 0.030591913631639187 -0.0702154625879523 -0.051228571461123175 -0.015473081179179884 0.06489876158637609 0.05077756562929466 0.10116365188729345 -0.10739448189218448 -0.015517576558742176 0.025639386800584252 -0.011074418425914383 0.03394060339859363 0.01065124274308626 0.06745804351772317 -0.029632809575385055 0.06048996654876935 -0.0441207847557087 -0.033612516403458415 -0.0718991840586977 -0.0023177512867145617 0.08699251002635834 0.013139219086583028 -0.07577637252621815 0.020087600825370117 0.016842147342630683 0.06747880006319543 0.0007525634095803702 -0.026848227059246367 -0.07573352483638023 -0.09524146629368874 0.03496510014126535 -0.05296098320314022 -0.0023258685902039448 -0.05628981291252181 -0.0045727509342073655 0.04909012892558281 -0.08136277150529685 0.020756468294248022 0.04339207708509354 -0.05802050302259193 0.09962158298085351 0.028481875656179545 0.03615256652849166 -0.012875725832203375 -0.08424231057400683 -0.07330862729496343 -0.02811112395201902 -0.028127261710974932 -0.09083633133665207 0.002493364586664314 -0.042131529518859547 -0.08013270230485134 -0.08663193250835603 0.06391530315905183 -0.016779262221208537 0.005853315219778972 0.07590239516554542 0.08454210688374493 -0.10344622077691465 -0.10348339385616077 -0.012696248765403413 -0.000435692445127027 -0.06730421455713077 0.06075875704475563 0.0035367955651030695 -0.03021425455521891 -0.09616923321075778 0.078021243589891 0.07172242848775416 0.030407875319042765 0.09744085166804041 0.0510081225202033 -0.013139131440456423 -0.07370622675678927 0.003151924849506854 -0.04303274718717172 0.010673044580698844 -0.04847588537028556 -0.029401467735357085 0.08790670913116282 -0.016386397986817486 -0.01971186263478667 -0.003943472193198865 0.08090746940018777 0.026953410229870425 0.03837472254341624 0.05031871279368263 0.01030583826318287 -0.07082292415170553 -0.08539058481741231 0.016980671856311115 -0.015132271488353768 -0.1191038243521156 -0.08298355799302415 -0.011101104894724961 -0.03380871060099998 0.012045405962759525 -0.061976742487888155 0.08226302586397201 -0.041826933863335115 -0.052321134585959765 0.06805040726016293 0.03103783368767815 -0.05835321961904105 0.07097496333348705 0.047586044173115676 -0.08244245313394158 -0.04856975847790845 0.07234352791676885 0.029200931921555286 -0.052832771945437194 -0.053243659814550565 -0.0498281173356675 -0.051766075840742665 -0.03927898529593287 -0.08219583383467495 0.028303825353490457 -0.08137684797295035 -0.07583682976552067 -0.07878830156777862 0.06061939410127865 -0.02161188725324874 0.010543758209079011 -0.015007726733006951 -0.07739180829460215 0.04267538229650968 0.018546755562806553 0.07916769306278973 0.008996417769525134 0.03146757765890169 0.00028288333203951854 -0.026808517508707747 0.09983264553549395 0.025533095353834665 0.0649252173587815 0.0534812984433862 0.06782024961555748 -0.09238743502641093 0.11221532637067869 -0.04923223944187378 -0.02209675497731405 0.014121906239537681 -0.008980805860434902 -0.05041953808144154 0.010745211941003566 0.007163175682488103 -0.060645304554477246 0.07091599825013951 -0.004000424466805715 -0.0056433088199575035 0.06390359550672181 0.08747613282268342 0.010698779201316773 0.024590278997063487 0.10774215989545827 0.04308626796370522 -0.03997558176526146 0.0821783616448713 0.042395322171543445 -0.04721362471045727 0.08512693931726095 0.010158524247924678 0.026077836580455167 -0.07243615934657657 0.05507254149114233 0.07158491721450189 0.049932167221500116 0.04513695425613577 -0.10073491876651777 0.01664913709026308 -0.07838817550763749 -0.022652818646181194 -0.051209839022296075 -0.0963960048041473 -0.09912777776286026 -0.07036613892134405 -0.040945035556623245 0.07350702300523948 -0.003230296680118459 -0.0852072177731747 0.009227489834378943 -0.009542393500341492 -0.023319471736843792 -0.07220708730452643 0.04609937859877936 -0.022088384521742208 -0.007845699401988692 -0.03966906490089213 0.020706680767141522 0.029052910605447284 -0.056260983514862146 0.11987913658537765 0.07794080066579691 -0.006995250009380349 -0.1024500170364402 0.09273977790206911 0.04855510710622046 0.050673606063324175 0.021723936889780585 -0.09906101376240227 0.08213713093054807 -0.024165402884410284 0.03397777270718616 -0.0324795124449171 0.06685546706103442 -0.04141880743347899 -0.05855965265158475 0.06954653337483237 -0.058413357597463106 -0.09386732646145195 0.059384797696567904 -0.08404160065653586 0.03682942704551465 0.03676006917702801 0.06147645546791946 -0.024581625950233568 0.04499862695610632 0.03819216255564666 -0.000382402904457918 -0.011089837767467775 -0.035303807813632807 0.07400587778708646 -0.0541305332329466 -0.07326447569000927 0.016446209730203262 0.031441051692071266 0.07940134423973368 0.060459980209180246 -0.01684536922274671 -0.037740158982175226 -0.008159765883724749 -0.0634764182182912 0.0202437359020504 0.026678657918972355 0.08029555535785733 -0.05550666500645322 0.09708375999662673 0.0055742640014510795 -0.033596591665565965 -0.05274274680817107 0.011118320992659143 0.09147116277965335 -0.03991648310053368 -0.0529360399858138 0.04161760090811176 0.07623762958660354 -0.05797101004568008 0.028636124610026216 -0.06057681836850714 -0.08106712165335048 -0.025290046603995232 -0.007744860695082039 -0.06205742230082201 0.08257216519314302 -0.03113509406846597 -0.004036497086155804 -0.01784973177802121 0.06296272541123309 0.037158622558457734 0.03767767750576088 0.004034186924030071 0.008996912337556338 0.018812276807725254 -0.027468997989346395 0.022931237355167108 -0.07769378566350159 -0.006942836495902098 0.0705282998783166 0.07827393153689693 0.08076691778354722 0.06955092456632062 -0.04907996736803149 -0.08026703828470039 -0.08305217629271155 0.04280505660679892 -0.04653980664260953 -0.023235708359602338 0.06483577494848385 0.022087475457919826 0.11003135608118902 -0.015793985900844826 -0.05145127733612114 0.0828599823491021 0.013389193259341839 -0.025618447277878105 0.0921110312655395 0.034932341386002604 0.021489505536119433 0.004285599250788295 0.057294872832471685 -0.08046340220345204 -0.06731044715615389 -0.032347171912951125 -0.030550526727361582 0.08412235330376648 -0.03050126106594981 -0.07825341947637299 0.035458621185560216 0.02273706421231063 -0.07059672167587921 0.09054260291823318 -0.05209080138346493 0.09089372540313691 0.11123481921768291 -0.044075257202980334 0.0956156893629529 0.003932217364747417 -0.04852751994898263 -0.023266243970963267 -0.03407278919245696 0.09372981800413625 0.020884740499119907 0.0019536466447022923 -0.017215910750048267 -0.07955255551962256 0.07107543895406639 -0.004544742136175534 0.061607862516783414 0.03429819519621221 -0.0471345535394513 0.06540806902672762 -0.040197748302845886 0.03093489572092407 0.035687498796695825 -0.0695147082441019 0.016518903805211364 0.01725184207844306 -0.04196905024733766 0.026470332912878425 0.00762893706159376 0.05036909782985195 0.02069672998199394 -0.005809661314043071 0.039826299662850645 0.06589985279991771 0.047878180848971955 -0.06697881826562248 0.044395792460582464 -0.014857514186744848 -0.012937587570763638 0.048971592249311906 -0.018741051607486015 0.052739225187865654 -0.09722237838126668 0.009357673428095048 0.002042839694433533 0.07367674392312124 0.04975266376721609 0.04532852369068498 -0.043569343113228874 -0.00996942906906839 0.097724451287587 0.059333285209902636 0.033430414751836446 -0.0012467771941113426 0.07793825321199696 0.06819340698058415 0.08824316936069368 -0.0465832570224543 -0.03143630292681503 0.07149956176162393 -0.10071528633622681 -0.020460084743896104 0.008045119754671997 0.04389402493359033 -0.009676151841110254 0.03130256129541417 -0.07130952991287103 -0.014019307734121038 -0.04744105038501378 0.00879877040045298 0.0007473619489075682 -0.025798436555891396 -0.053966711223154065 -0.0636884082151419 -0.002817316800280524 -0.0477700699142785 -0.07659517103479917 0.08301862585045684 -0.045355276405324954 -0.010733355136065326 0.07607275967098809 0.022683258067707296 0.08267022525050052 0.08897607218930409 0.09853135576599786 -0.04733234372596114 -0.00811096024091567 0.02192187864659469 0.07394528451758366 -0.053094455962352294 0.0786935913739102 -0.031148497806519612 -0.05397985489306642 0.030090464901947812 -0.029178408828737536 -0.0853805271140874 -0.058666133849407956 0.06654901222917275 -0.09392160465754654 0.04770544157777701 0.037644872942828166 -0.05416703692407103 -0.08186186037496192 0.08699138052628069 -0.07015403450504755 0.07125589744686539 0.0010293025250747156 -0.07193033278836425 0.01736233030778629 -0.050989276704971956 -0.022206432491731792 -0.04464228130589969 0.009463398609690102 0.022400087964192975 0.043717080084661325 -0.02494237946279824 0.052530212628782616 0.03465888115339444 -0.011697028753731343 0.0655436469599513 0.005758101395226512 -0.027847264924895226 0.06258321620744677 -0.015604404594713414 -0.0720820727953642 0.06510982043083538 -0.045952183295346054 0.00011406599171398395 -0.061010513840436514 -0.016938354001289416 -0.07518150943519111 -0.041636677591012486 -0.08264075101870177 0.08911768253711408 0.016098697050411448 -0.023672684484499884 -0.013290830425797817 -0.08957226112254378 
0.007934797589519456 -0.08066974247208172 0.020805597604252407 -0.09780013148183216 -0.0019438059236271676 0.06230607270174268 0.060715685290325117 0.014972645115268371 -0.09062594265884072 -0.022124391229475487 -0.020548455811143923 0.04111788898254812 0.05656785446034329 -0.08412556268797122 0.09192897188103974 0.07634535386988481 -0.07556957257009007 -0.038382578400322935 -0.07505835450372485 0.04769622595667816 -0.02236738955354714 0.02447039667131376 -0.032328273753739256 -0.010682175575794012 0.048318592001593774 -0.002559822707969811 -0.024106188370062023 -0.0955180939634192 -0.012411124440560653 0.001661406114176353 -0.01103971485653106 0.03904314492977062 0.064955560424995 -0.005389010052219076 -0.06860294275599096 -0.07796150806387943 -0.0535730637051775 -0.03201868979152942 0.09722396450765756 -0.02545714119404765 -0.010019968304729553 0.0752995303521301 0.009229541279503444 0.030612478122246056 -0.07194225010842366 0.06971760658994268 0.04247678178292486 0.06441813023715501 0.05047751735973735 0.0019766372539835393 -0.004244237142362144 -0.009650900493323735 -0.035417932963191276 0.0656895254741034 0.03675493006282482 0.013002659265334532 -0.028372855292288723 -0.06524115695480877 0.07111921424339548 0.06975426344400565 -0.0232438131171753 -0.023982135186386366 0.09362150162639302 0.003994236521205202 0.05194927162443964 0.06747850197227352 -0.0886597633520171 -0.07696733693608725 -0.019866902511968803 0.041498472073980955 -0.09782531971784032 -0.056321736284835604 -0.022218286701348636 -0.041448598111427384 0.044846469609551555 0.025288618803457886 0.018057338086803706 -0.09557060639729817 0.07811973518347493 0.09337786010549033 -0.0754335274472891 0.013555997976304718 -0.03641730989189003 -0.009920640579469772 0.00552354074174799 0.04350363493945403 0.05945275050548651 -0.05954975895487609 -0.004992255904773146 -0.04633099265897847 0.0230006032866513 0.028681830136753843 0.04823480048083503 -0.06966820333891409 0.00026090853269020815 -0.012540820801024713 0.030861873362763317 -0.08131541828961829 0.0719244131884583 0.09777557599905784 0.0980685276774456 0.011380701074784777 -0.016022498976344442 0.010154919545411582 0.002989108058158172 0.05755888202387475 -0.0011741404580623382 0.03358139673090064 -0.037918702909251915 0.058702385604116045 -0.07931949095956932 0.036264591882885694 0.03580990481371199 -0.08745557098766406 0.05666952502415831 -0.043570969042579934 -0.011924847332294153 0.030600369335349435 -0.03726776210758945 0.04033422350716655 0.010008388807098662 -0.09241974113150904 -0.008516321324727079 -0.04320655242775196 0.06387956124375185 -0.040120175896579346 0.03934076204412693 0.06294070663304763 -0.03710815575612135 0.04225823715343358 0.07948977823166048 -0.03855539309255256 0.041322972414945 -0.049651217944431905 0.011297116381439314 0.003248333601106923 -0.05362819399479528 -0.06931331017804226 -0.02023125356808869 0.06610020757845789 0.05479898074446654 -0.09138778324958448 -0.02353053088325882 0.074517833156079 -0.03364555707205678 -0.09354069900932807 -0.04118568035387892 -0.06956658021059367 0.01645222202643156 0.0300799253358241 0.019721548136677324 -0.01253784731158908 0.01344259465353013 0.006385766537911021 -0.021143635284755453 -0.08959235108040797 0.005275235504021801 -0.090928192842528 -0.009969748065916093 -0.016274698675042013 0.029638140743203416 -0.08047235159057192 -0.07473972065290593 0.07224950998743102 0.02971169453521692 0.05562226534483679 0.02702072408644707 -0.02743602751647947 0.07172879956944184 -0.05010566317016518 -0.06986838277825497 -0.045441556453365874 -0.06497113382297677 0.08224683533311859 0.011767374182923332 -0.060753322614140605 0.01597368646738211 -0.018719870586998408 0.0839335515856646 -0.06917645203495072 0.05400152777911268 -0.07545938520167036 0.0465155128019756 0.053346267378789045 0.018794337154228572 0.0833261866212928 -0.004839759580421139 0.0326105667520885 0.08785573119686386 -0.020998881172359256 -0.022166603493503922 -0.09157686567599585 0.03945136669957756 -0.055950920765456484 0.08685151822993294 0.05724834726829943 -0.023159119832525173 0.031123687171770657 0.07198383684820055 0.04116437251463383 -0.03957911251571121 0.06384078150077416 0.05123354574812964 0.056599560037148146 -0.08648234288486994 0.029369807900585198 0.07614677564838666 0.09407346402962832 0.029925887435233015 0.07288927362792011 0.01451810895520232 -0.05841237514393484 -0.033939756330622954 -0.010793012776653496 0.10846514016410595 0.10865397213437902 0.07245984089368722 0.10085079934137212 0.08476385269278354 -0.040622729919716105 -0.01870172442871611 -0.03588211688399055 -0.05943629777747453 -0.07368981994421883 0.005808256097054911 -0.06721830718230018 0.02876854462186202 0.009045691733649667 0.008590366209836206 0.06946825995882322 0.014913225696676871 -0.09279180783483959 -0.07147716518139303 0.026400287796685608 -0.012508062074480856 -0.07362896730932342 -0.039287956169839336 0.067833718146349 0.11182368020047574 0.06408160647473718 0.08696539566429892 -0.05707659160027268 -0.05238036306023252 -0.01935338434038178 0.030280456858820096 0.02740557697102027 -0.023420369944268528 -0.04911968126263435 -0.05291791287793597 -0.05398928357367823 -0.08917624633976043 -0.060933187522515454 0.0028870676154956745 -0.0259423058993811 -0.035818357384284245 0.08141538258327462 -0.043813599416155966 0.01370804900929816 -0.09190052232068806 0.05640505878794506 0.020302617528506792 -0.06111580521305076 -0.060571612756586374 -0.06987214321582894 -0.03906110677056861 0.037302950107339 -0.010582318017057233 -0.045066862914168865 0.07594533530968883 -0.04211363484241221 -0.037776679465558634 -0.06494645230350278 -0.016795736910771693 0.06892094021041931 0.08341330663000948 0.0025153682331209865 0.05605968627159303 0.06147844653687709 -0.02141538861881737 -0.019772722910740632 0.09956922760511765 -0.044388515506459794 0.06257704864564678 0.08739004944254415 -0.09676758617150212 -0.02169622362234667 -0.06749214511350918 0.02045185688039178 0.06543893688658979 0.05816047110301147 0.09915178422742882 0.03777806314469333 0.031062661160361597 0.004753485758008211 0.01840328875693335 0.015122411238470251 -0.01236268631923291 0.019109663449033348 0.0916862030900203 -0.022200496460076328 -0.08234745591359836 0.08731206109739213 -0.07580336266637064 0.07167201257849364 0.014465676810145111 -0.08698610306065274 0.07187859575714751 -0.04616205003192772 -0.007824866727509781 -0.08256022793863255 -0.06324773674683838 0.012066546083809603 0.012887926488929443 0.025725118638181853 -0.07988044476294262 -0.09331926800684771 0.04751679737776657 -0.004230985403006975 0.0188685192413467 -0.04317571374819478 0.02471387799562842 -0.01569645027523687 0.03129769633028829 0.03383234113980064 0.095201450549772 0.04567475731675552 0.08956482266410234 0.07443655097407213 -0.08378760457231017 0.09872769927228857 0.05681101096690612 0.06429701593511515 -0.027557084126821917 -0.08633375887246439 0.07745864288343292 0.029721296048539965 0.04709400331710055 0.08760201120799663 -0.0012778247872767016 -0.01418438320048235 -0.07183976142315059 -0.09326355997746745 -0.014034336275387155 -0.0475145154056634 -0.04358013451853695 -0.0470424291390773 0.07576071859066502 -0.046909907418669426 -0.04666554954332327 -0.054336497794581634 0.10791028968327605 -0.004397693750559324 -0.005176315139951847 -0.06651639799802324 -0.03716483750260802 0.03113796894135692 0.07813413500424973 0.0842993849101175 0.03652238901161654 -0.028792672662484312 -0.03189011831351682 -0.0501130168402063 -0.05554789843015761 -0.06647595440191818 -0.09126046626792306 -0.017287224048132946 -0.027780930678562854 -0.062079056017275015 0.017627168887449366 -0.08821074033926067 0.0026333859429874024 0.06359205105023283 0.09396774578256684 0.05929785194029124 -0.0717758620141066 0.03440912546466836 -0.012178908111737984 0.059356378656031175 -0.07191917748188335 -0.0057802014912708595 0.07855777390820233 0.09100273099729397 -0.006141286341999169 -0.0340537623581001 -0.08464344984970651 0.09557588138835148 -0.08549100159620941 -0.07640827448318163 -0.05864927897447154 -0.05790475800880354 -0.08562091927259069 0.07501168756540848 -0.07691455253014977 -0.058901982062575665 0.019879765714283067 0.0937064903621732 -0.0048409359389424275 0.0809073642248623 0.03923366603549327 0.09577564644695152 0.016702544663225814 -0.040684565690867154 0.03291514308379769 -0.0588078294390397 -0.022382395659281757 0.08915167510520658 -0.07382465157084897 -0.07049491665255068 0.0023133425627170174 -0.026141620401776974 0.054344575633493576 -0.07232039361350602 0.0759413979299838 -0.04634173141309173 0.0356100144092976 0.022551920252501818 -0.04239472392475158 0.04524716304070069 -0.07164601173341595 0.055445476473413836 -0.04524318232010254 -0.02795224470781446 -0.031067311524150255 0.08837166111315216 -0.002455071637140317 -0.035638275526224186 0.061964335296064176 0.0415913593724877 -0.033128652693465335 0.003852209725467506 -0.05918920179176251 0.08292290012825258 0.07431750535479151 0.10522695359213863 0.021335464468873067 0.04734649026860033 0.02991524868980514 -0.018076754468890024 -0.02750111742308464 0.08396052674989966 0.03386678723534419 0.011263091079690172 0.06893593839374752 0.09856255015070925 -0.019804688549903665 -0.025277525421629324 -0.08193005877799965 0.026870369023106667 -0.09302674573032298 -0.026824134897460147 0.054342371103467985 0.04333077897063411 -0.0476946775328675 -0.044351056480660025 0.04975227840727686 0.005692766040660005 -0.060668501580212995 0.061746617432975104 0.08989893806063774 -0.05941279645085639 0.028123868017971714 0.08149163960522084 0.0649210417852501 0.05107878004631104 -0.0771534065978801 0.053868297815918786 0.00020331715514775966 -0.07245356626988352 -0.05095254348072966 -0.016242167428809958 0.017635004983380564 0.06186796169714982 0.07582557533195924 -0.0773362138800713 -0.017891389619184187 0.04655336669026261 0.05553705339328771 -0.0272959558803723 -0.004141120062432543 0.06495705825971129 0.025014801929486803 -0.02927567896951422 -0.07422795052453884 -0.09400232629253902 0.07718796324810939 0.07351803181385233 0.02042876496834949 -0.08615413400526194 0.055434194102139366 0.057193558140186125 0.02654551963874324 -0.02405117152970327 0.08143108745813821 0.012279230367744169 0.01149646392361048 0.10291447314642327 -0.054037125248194116 -0.0418860851910741 0.07763670427082013 -0.06419368640150067 -0.04475417962853215 -0.05720417835163447 -0.0945370290609546 0.04503003023963067 0.026660991748693658 -0.05022793740728862 -0.012668630926098157 -0.0501998968952569 0.04387876293765517 -0.012364815016119966 -0.02476247093672998 -0.013478288722945063 0.1031158466447997 0.04514295061328208 0.09478177168468245 -0.06557007041584781 0.09352190065220106 0.10292308900192235 0.10715816416387941 0.008152555731953217 0.049872736320992664 0.08281527015477937 -0.08505016607532932 0.035992009185865224 0.03643020850271912 0.08150577425708087 0.061811785783593996 0.050853844309384576 -0.059002859520668194 -0.06336628145691954 -0.08302781924283553 -0.0944028498448664 0.042431843511146705 0.035136446503204466 0.0795029153665062 -0.0036239851690196582 -0.07124053350762424 -0.038907217028422154 -0.012597272174452261 0.10518541100044065 0.04943845457090895 0.056139615577437185 -0.01452158157308044 -0.027519114493139693 0.018937029455631218 -0.0610096614075195 0.026020975082120833 -0.001507454477651715 0.00621249637377748 -0.03062916286703717 -0.06987496335718386 0.010760694892791004 0.039396980222275314 -0.08855641197113379 -0.045116399911669824 0.07373154527803921 0.06324684732722609 -0.0690307535254475 0.07437081671464459 -0.0007440120101142107 -0.001113408295062318 0.08307658750038013 0.0012456676831738233 0.026653337329699683 0.09202935458828938 0.04528492854696585 0.012329029553772112 -0.08035106319161486 0.0016057872040248224 -0.023835867721569492 0.007390715310575644 0.08081436000002076 0.03425645407005912 -0.0024982811829147803 0.034715639103547656 -0.03940168763809963 -0.055855083333572926 0.05096919085959767 0.08653748855713088 0.017296748321206423 -0.033760314078670826 -0.035231397538769076 0.091511596322805 0.04904956866662589 -0.04944444247817544 0.01988883213393378 0.017772723228499102 -0.03852598658719915 0.07286921817641855 0.09257698194544095 -0.04414094476912686 0.05109021125404158 -0.021484147291332002 -0.04858504887120958 -0.03271454235246132 -0.03289996737918401 0.09437524000136448 -0.021763813045861877 -0.053321865252663546 -0.07777731722885146 -0.07075661552058325 0.045262029482412855 0.0067958429577008395 0.07126591265709609 0.037953750185472604 -0.026531024985003617 0.0611148407025963 0.011373120929533928 0.09671202562859933 -0.09488279174676852 -0.0274040487946276 0.036561904461988134 0.05686968799443037 -0.08814863753984549 -0.01222864614654897 -0.0709694541386673 -0.005840255945350606 0.051791384977705274 0.0451571958690023 -0.006618785107576025 -0.07440452954985273 -0.0632163147875001 -0.099470652787961 0.04191394277744159 0.04161253523292888 -0.06318484222168295 -0.0431152358709289 0.00867426071077244 -0.04539482490445817 -0.009467924962823953 0.10774387987049402 0.040330235389910776 0.056697258469885554 0.06620099692650655 0.029697252346366446 0.038263293113215566 -0.009286215978404731 0.04914991049587994 -0.03583027114602517 -0.09010924063672189 0.020044535701034 0.09220986640953088 0.043536802806989634 -0.05696430888588781 -0.03892860759159986 0.0356678545127119 -0.09015559034703274 -0.08163582221467833 -0.06437197136125936 0.007885774263980445 -0.0960000577679226 0.08671585599817343 0.05725539431493508 0.002962683988061851 -0.0010548194890929994 0.09274364847225142 -0.05596453483011762 0.061697981714679904 0.06499966215422617 -0.04693138223911562 -0.019280046399680468 0.09239131027067025 -0.07059284149921219 0.011273669037507341 -0.004721609174685418 0.013990276282673972 0.0107445427052713 0.09968192853266754 -0.022673367768666342 -0.09118519316952875 0.09527010144856576 -0.02980280157846156 -0.07213585792908828 0.08852427927422293 0.011360701100025378 0.024058093836566957 0.08578593400084682 -0.0347688104299455 -0.03176947445174182 -0.005252191686916149 0.04659279325317734 -0.051343921216879564 -0.0933949041334112 -0.03819110693340231 0.10193884220919215 0.06211910732980173 -0.020230629626753413 0.052611633611023965 0.057393640802823435 0.016445182302753436 -0.060246753377828546 0.030197191788982235 -0.07508529847663205 -0.070652013038527 0.0008729381734184872 -0.02140797541051171 0.0904918754951423 -0.02364806629222008 0.0783906997336195 0.028146956888074365 0.06456581182750692 -0.057631721305882705 0.027689346302077977 -0.01453359296434062 -0.08854207464516861 0.00022600860288150875 0.03886564345209187 0.06655607837859129 -0.06653943167935573 -0.04445809183221603 -0.007166435927916549 -0.06368971328642269 -0.07650596388186867 0.06145089728212655 -0.08577538767136518 -0.05857545020392405 -0.010879672148148292 0.014486057360202753 -0.032978346522191455 0.08738947268987425 -0.050403930933174995 -0.08025065341015342 0.057620304092063424 -0.0750122219483387 -0.01379423569315774 0.02602993954547854 0.0398640480078902 -0.0074576213321811136 -0.07171692901578948 -0.030900821854873334 -0.05131440762971547 0.003618415044508036 -0.009161724928244921 0.007557963221371235 -0.045302426342702574 -0.03837867640814122 -0.08521015302003328 0.03312248429562847 0.020663559104641457 -0.045884634400511756 0.014545744566495537 -0.07672967034135726 -0.03541663591029776 0.052613060442937065 -0.07677831839825984 -0.09319570420621648 0.050593047476267285 0.05503030497787531 -0.0011860467688859717 0.05679497295355843 0.034779910072684515 0.06805009013338882 -0.05790476807289006 -0.07477564562498032 -0.04401964804327279 0.050195810290896065 -0.09628613736074827 -0.03728037408429967 0.09448533780441037 0.009657836935079447 -0.06221230780209202 0.02937221001866569 0.08474397084246739 -0.026233315959390803 0.041220303501069436 -0.07220624969857002 -0.004986961113954354 0.040209310091556656 0.09303768257016297 -0.09044270720578802 0.0708475847636413 0.06303237329975994 -0.0921531314992468 0.064958729713539 0.03897438922808533 0.07302244085711575 0.01221967753203508 0.03859250253948184 -0.07523761190706733 0.0025941593332723 0.05393785967773729 0.008715685535273576 -0.06934514605149647 -0.09209110514001811 -0.043123080110038625 
